Weights Of Hidden Layer  : 
---------------------------------
-1.6669979600637181  1.3415523246909056  -1.5054245252895562  -0.5214469286150735  0.9124663201859057  -1.3205230575512998  -1.5366616600247918  -0.8505043175772432  -1.103160680044094  0.937717322242305  -1.8572981400030428  -0.19488211105889777  -1.4865219782944747  0.518412814312563  1.7165463854043788  -0.10929524901250005  -0.9143061977015108  -0.39998452741574897  -1.957683273581896  1.0583433141597236  -1.276703230382487  -1.354767602320835  -0.05762367023252027  0.2456374314289976  -0.1513693592810321  0.3542344628772092  1.2551753209771885  2.1162931519322536  -1.7679798897840544  -0.06138263257022366  0.2893289640454659  -0.7973361631268503  1.2118481259638063  0.3720965428043985  0.07866313268445416  -1.2644540450506867  1.9734005386937807  -0.09211137931304869  -1.1683096323158422  -1.7986355429897938  -0.4470905273841124  -1.7539298567638575  -0.4348396058670972  -1.8080677307907902  -1.7793556604521463  1.82771051192113  0.7000125558219807  -0.8360274105952465  -0.1480707228441924  0.028703295585481212  1.0923888787768117  -1.3494452432723403  1.295737523234808  1.8595221221597216  -1.2015109495127614  1.5035016011780766  -1.097085622083244  1.6918057604879875  -0.3438603665795873  -1.465523074416742  1.0280261473386691  -0.9496933793573064  -1.0277926165238496  1.7015353547659287  1.1258334257875275  -0.6570002164494366  1.0019952378843577  2.1127076033278125  -1.2385379985479708  -0.3042628889876334  -0.7955486394959771  -0.1779385666404439  1.7075221390145592  0.5419846239878776  1.286711085962694  0.9812992875956446  -1.9718044287507697  0.22732197920668865  0.5164473046472201  -0.0541992295239623  
-1.6669979600637181  1.3415523246909056  -1.5054245252895562  -0.5214469286150735  0.9124663201859057  -1.3205230575512998  -1.5366616600247918  -0.8505043175772432  -1.103160680044094  0.937717322242305  -1.8572981400030428  -0.19488211105889777  -1.4865219782944747  0.518412814312563  1.7165463854043788  -0.10929524901250005  -0.9143061977015108  -0.39998452741574897  -1.957683273581896  1.0583433141597236  -1.276703230382487  -1.354767602320835  -0.05762367023252027  0.2456374314289976  -0.1513693592810321  0.3542344628772092  1.2551753209771885  2.1162931519322536  -1.7679798897840544  -0.06138263257022366  0.2893289640454659  -0.7973361631268503  1.2118481259638063  0.3720965428043985  0.07866313268445416  -1.2644540450506867  1.9734005386937807  -0.09211137931304869  -1.1683096323158422  -1.7986355429897938  -0.4470905273841124  -1.7539298567638575  -0.4348396058670972  -1.8080677307907902  -1.7793556604521463  1.82771051192113  0.7000125558219807  -0.8360274105952465  -0.1480707228441924  0.028703295585481212  1.0923888787768117  -1.3494452432723403  1.295737523234808  1.8595221221597216  -1.2015109495127614  1.5035016011780766  -1.097085622083244  1.6918057604879875  -0.3438603665795873  -1.465523074416742  1.0280261473386691  -0.9496933793573064  -1.0277926165238496  1.7015353547659287  1.1258334257875275  -0.6570002164494366  1.0019952378843577  2.1127076033278125  -1.2385379985479708  -0.3042628889876334  -0.7955486394959771  -0.1779385666404439  1.7075221390145592  0.5419846239878776  1.286711085962694  0.9812992875956446  -1.9718044287507697  0.22732197920668865  0.5164473046472201  -0.0541992295239623  
-1.6669979600637181  1.3415523246909056  -1.5054245252895562  -0.5214469286150735  0.9124663201859057  -1.3205230575512998  -1.5366616600247918  -0.8505043175772432  -1.103160680044094  0.937717322242305  -1.8572981400030428  -0.19488211105889777  -1.4865219782944747  0.518412814312563  1.7165463854043788  -0.10929524901250005  -0.9143061977015108  -0.39998452741574897  -1.957683273581896  1.0583433141597236  -1.276703230382487  -1.354767602320835  -0.05762367023252027  0.2456374314289976  -0.1513693592810321  0.3542344628772092  1.2551753209771885  2.1162931519322536  -1.7679798897840544  -0.06138263257022366  0.2893289640454659  -0.7973361631268503  1.2118481259638063  0.3720965428043985  0.07866313268445416  -1.2644540450506867  1.9734005386937807  -0.09211137931304869  -1.1683096323158422  -1.7986355429897938  -0.4470905273841124  -1.7539298567638575  -0.4348396058670972  -1.8080677307907902  -1.7793556604521463  1.82771051192113  0.7000125558219807  -0.8360274105952465  -0.1480707228441924  0.028703295585481212  1.0923888787768117  -1.3494452432723403  1.295737523234808  1.8595221221597216  -1.2015109495127614  1.5035016011780766  -1.097085622083244  1.6918057604879875  -0.3438603665795873  -1.465523074416742  1.0280261473386691  -0.9496933793573064  -1.0277926165238496  1.7015353547659287  1.1258334257875275  -0.6570002164494366  1.0019952378843577  2.1127076033278125  -1.2385379985479708  -0.3042628889876334  -0.7955486394959771  -0.1779385666404439  1.7075221390145592  0.5419846239878776  1.286711085962694  0.9812992875956446  -1.9718044287507697  0.22732197920668865  0.5164473046472201  -0.0541992295239623  
-1.6669979600637181  1.3415523246909056  -1.5054245252895562  -0.5214469286150735  0.9124663201859057  -1.3205230575512998  -1.5366616600247918  -0.8505043175772432  -1.103160680044094  0.937717322242305  -1.8572981400030428  -0.19488211105889777  -1.4865219782944747  0.518412814312563  1.7165463854043788  -0.10929524901250005  -0.9143061977015108  -0.39998452741574897  -1.957683273581896  1.0583433141597236  -1.276703230382487  -1.354767602320835  -0.05762367023252027  0.2456374314289976  -0.1513693592810321  0.3542344628772092  1.2551753209771885  2.1162931519322536  -1.7679798897840544  -0.06138263257022366  0.2893289640454659  -0.7973361631268503  1.2118481259638063  0.3720965428043985  0.07866313268445416  -1.2644540450506867  1.9734005386937807  -0.09211137931304869  -1.1683096323158422  -1.7986355429897938  -0.4470905273841124  -1.7539298567638575  -0.4348396058670972  -1.8080677307907902  -1.7793556604521463  1.82771051192113  0.7000125558219807  -0.8360274105952465  -0.1480707228441924  0.028703295585481212  1.0923888787768117  -1.3494452432723403  1.295737523234808  1.8595221221597216  -1.2015109495127614  1.5035016011780766  -1.097085622083244  1.6918057604879875  -0.3438603665795873  -1.465523074416742  1.0280261473386691  -0.9496933793573064  -1.0277926165238496  1.7015353547659287  1.1258334257875275  -0.6570002164494366  1.0019952378843577  2.1127076033278125  -1.2385379985479708  -0.3042628889876334  -0.7955486394959771  -0.1779385666404439  1.7075221390145592  0.5419846239878776  1.286711085962694  0.9812992875956446  -1.9718044287507697  0.22732197920668865  0.5164473046472201  -0.0541992295239623  
-1.6669979600637181  1.3415523246909056  -1.5054245252895562  -0.5214469286150735  0.9124663201859057  -1.3205230575512998  -1.5366616600247918  -0.8505043175772432  -1.103160680044094  0.937717322242305  -1.8572981400030428  -0.19488211105889777  -1.4865219782944747  0.518412814312563  1.7165463854043788  -0.10929524901250005  -0.9143061977015108  -0.39998452741574897  -1.957683273581896  1.0583433141597236  -1.276703230382487  -1.354767602320835  -0.05762367023252027  0.2456374314289976  -0.1513693592810321  0.3542344628772092  1.2551753209771885  2.1162931519322536  -1.7679798897840544  -0.06138263257022366  0.2893289640454659  -0.7973361631268503  1.2118481259638063  0.3720965428043985  0.07866313268445416  -1.2644540450506867  1.9734005386937807  -0.09211137931304869  -1.1683096323158422  -1.7986355429897938  -0.4470905273841124  -1.7539298567638575  -0.4348396058670972  -1.8080677307907902  -1.7793556604521463  1.82771051192113  0.7000125558219807  -0.8360274105952465  -0.1480707228441924  0.028703295585481212  1.0923888787768117  -1.3494452432723403  1.295737523234808  1.8595221221597216  -1.2015109495127614  1.5035016011780766  -1.097085622083244  1.6918057604879875  -0.3438603665795873  -1.465523074416742  1.0280261473386691  -0.9496933793573064  -1.0277926165238496  1.7015353547659287  1.1258334257875275  -0.6570002164494366  1.0019952378843577  2.1127076033278125  -1.2385379985479708  -0.3042628889876334  -0.7955486394959771  -0.1779385666404439  1.7075221390145592  0.5419846239878776  1.286711085962694  0.9812992875956446  -1.9718044287507697  0.22732197920668865  0.5164473046472201  -0.0541992295239623  
-1.6669979600637181  1.3415523246909056  -1.5054245252895562  -0.5214469286150735  0.9124663201859057  -1.3205230575512998  -1.5366616600247918  -0.8505043175772432  -1.103160680044094  0.937717322242305  -1.8572981400030428  -0.19488211105889777  -1.4865219782944747  0.518412814312563  1.7165463854043788  -0.10929524901250005  -0.9143061977015108  -0.39998452741574897  -1.957683273581896  1.0583433141597236  -1.276703230382487  -1.354767602320835  -0.05762367023252027  0.2456374314289976  -0.1513693592810321  0.3542344628772092  1.2551753209771885  2.1162931519322536  -1.7679798897840544  -0.06138263257022366  0.2893289640454659  -0.7973361631268503  1.2118481259638063  0.3720965428043985  0.07866313268445416  -1.2644540450506867  1.9734005386937807  -0.09211137931304869  -1.1683096323158422  -1.7986355429897938  -0.4470905273841124  -1.7539298567638575  -0.4348396058670972  -1.8080677307907902  -1.7793556604521463  1.82771051192113  0.7000125558219807  -0.8360274105952465  -0.1480707228441924  0.028703295585481212  1.0923888787768117  -1.3494452432723403  1.295737523234808  1.8595221221597216  -1.2015109495127614  1.5035016011780766  -1.097085622083244  1.6918057604879875  -0.3438603665795873  -1.465523074416742  1.0280261473386691  -0.9496933793573064  -1.0277926165238496  1.7015353547659287  1.1258334257875275  -0.6570002164494366  1.0019952378843577  2.1127076033278125  -1.2385379985479708  -0.3042628889876334  -0.7955486394959771  -0.1779385666404439  1.7075221390145592  0.5419846239878776  1.286711085962694  0.9812992875956446  -1.9718044287507697  0.22732197920668865  0.5164473046472201  -0.0541992295239623  
-1.6669979600637181  1.3415523246909056  -1.5054245252895562  -0.5214469286150735  0.9124663201859057  -1.3205230575512998  -1.5366616600247918  -0.8505043175772432  -1.103160680044094  0.937717322242305  -1.8572981400030428  -0.19488211105889777  -1.4865219782944747  0.518412814312563  1.7165463854043788  -0.10929524901250005  -0.9143061977015108  -0.39998452741574897  -1.957683273581896  1.0583433141597236  -1.276703230382487  -1.354767602320835  -0.05762367023252027  0.2456374314289976  -0.1513693592810321  0.3542344628772092  1.2551753209771885  2.1162931519322536  -1.7679798897840544  -0.06138263257022366  0.2893289640454659  -0.7973361631268503  1.2118481259638063  0.3720965428043985  0.07866313268445416  -1.2644540450506867  1.9734005386937807  -0.09211137931304869  -1.1683096323158422  -1.7986355429897938  -0.4470905273841124  -1.7539298567638575  -0.4348396058670972  -1.8080677307907902  -1.7793556604521463  1.82771051192113  0.7000125558219807  -0.8360274105952465  -0.1480707228441924  0.028703295585481212  1.0923888787768117  -1.3494452432723403  1.295737523234808  1.8595221221597216  -1.2015109495127614  1.5035016011780766  -1.097085622083244  1.6918057604879875  -0.3438603665795873  -1.465523074416742  1.0280261473386691  -0.9496933793573064  -1.0277926165238496  1.7015353547659287  1.1258334257875275  -0.6570002164494366  1.0019952378843577  2.1127076033278125  -1.2385379985479708  -0.3042628889876334  -0.7955486394959771  -0.1779385666404439  1.7075221390145592  0.5419846239878776  1.286711085962694  0.9812992875956446  -1.9718044287507697  0.22732197920668865  0.5164473046472201  -0.0541992295239623  
-1.6669979600637181  1.3415523246909056  -1.5054245252895562  -0.5214469286150735  0.9124663201859057  -1.3205230575512998  -1.5366616600247918  -0.8505043175772432  -1.103160680044094  0.937717322242305  -1.8572981400030428  -0.19488211105889777  -1.4865219782944747  0.518412814312563  1.7165463854043788  -0.10929524901250005  -0.9143061977015108  -0.39998452741574897  -1.957683273581896  1.0583433141597236  -1.276703230382487  -1.354767602320835  -0.05762367023252027  0.2456374314289976  -0.1513693592810321  0.3542344628772092  1.2551753209771885  2.1162931519322536  -1.7679798897840544  -0.06138263257022366  0.2893289640454659  -0.7973361631268503  1.2118481259638063  0.3720965428043985  0.07866313268445416  -1.2644540450506867  1.9734005386937807  -0.09211137931304869  -1.1683096323158422  -1.7986355429897938  -0.4470905273841124  -1.7539298567638575  -0.4348396058670972  -1.8080677307907902  -1.7793556604521463  1.82771051192113  0.7000125558219807  -0.8360274105952465  -0.1480707228441924  0.028703295585481212  1.0923888787768117  -1.3494452432723403  1.295737523234808  1.8595221221597216  -1.2015109495127614  1.5035016011780766  -1.097085622083244  1.6918057604879875  -0.3438603665795873  -1.465523074416742  1.0280261473386691  -0.9496933793573064  -1.0277926165238496  1.7015353547659287  1.1258334257875275  -0.6570002164494366  1.0019952378843577  2.1127076033278125  -1.2385379985479708  -0.3042628889876334  -0.7955486394959771  -0.1779385666404439  1.7075221390145592  0.5419846239878776  1.286711085962694  0.9812992875956446  -1.9718044287507697  0.22732197920668865  0.5164473046472201  -0.0541992295239623  
-1.6669979600637181  1.3415523246909056  -1.5054245252895562  -0.5214469286150735  0.9124663201859057  -1.3205230575512998  -1.5366616600247918  -0.8505043175772432  -1.103160680044094  0.937717322242305  -1.8572981400030428  -0.19488211105889777  -1.4865219782944747  0.518412814312563  1.7165463854043788  -0.10929524901250005  -0.9143061977015108  -0.39998452741574897  -1.957683273581896  1.0583433141597236  -1.276703230382487  -1.354767602320835  -0.05762367023252027  0.2456374314289976  -0.1513693592810321  0.3542344628772092  1.2551753209771885  2.1162931519322536  -1.7679798897840544  -0.06138263257022366  0.2893289640454659  -0.7973361631268503  1.2118481259638063  0.3720965428043985  0.07866313268445416  -1.2644540450506867  1.9734005386937807  -0.09211137931304869  -1.1683096323158422  -1.7986355429897938  -0.4470905273841124  -1.7539298567638575  -0.4348396058670972  -1.8080677307907902  -1.7793556604521463  1.82771051192113  0.7000125558219807  -0.8360274105952465  -0.1480707228441924  0.028703295585481212  1.0923888787768117  -1.3494452432723403  1.295737523234808  1.8595221221597216  -1.2015109495127614  1.5035016011780766  -1.097085622083244  1.6918057604879875  -0.3438603665795873  -1.465523074416742  1.0280261473386691  -0.9496933793573064  -1.0277926165238496  1.7015353547659287  1.1258334257875275  -0.6570002164494366  1.0019952378843577  2.1127076033278125  -1.2385379985479708  -0.3042628889876334  -0.7955486394959771  -0.1779385666404439  1.7075221390145592  0.5419846239878776  1.286711085962694  0.9812992875956446  -1.9718044287507697  0.22732197920668865  0.5164473046472201  -0.0541992295239623  
-1.6669979600637181  1.3415523246909056  -1.5054245252895562  -0.5214469286150735  0.9124663201859057  -1.3205230575512998  -1.5366616600247918  -0.8505043175772432  -1.103160680044094  0.937717322242305  -1.8572981400030428  -0.19488211105889777  -1.4865219782944747  0.518412814312563  1.7165463854043788  -0.10929524901250005  -0.9143061977015108  -0.39998452741574897  -1.957683273581896  1.0583433141597236  -1.276703230382487  -1.354767602320835  -0.05762367023252027  0.2456374314289976  -0.1513693592810321  0.3542344628772092  1.2551753209771885  2.1162931519322536  -1.7679798897840544  -0.06138263257022366  0.2893289640454659  -0.7973361631268503  1.2118481259638063  0.3720965428043985  0.07866313268445416  -1.2644540450506867  1.9734005386937807  -0.09211137931304869  -1.1683096323158422  -1.7986355429897938  -0.4470905273841124  -1.7539298567638575  -0.4348396058670972  -1.8080677307907902  -1.7793556604521463  1.82771051192113  0.7000125558219807  -0.8360274105952465  -0.1480707228441924  0.028703295585481212  1.0923888787768117  -1.3494452432723403  1.295737523234808  1.8595221221597216  -1.2015109495127614  1.5035016011780766  -1.097085622083244  1.6918057604879875  -0.3438603665795873  -1.465523074416742  1.0280261473386691  -0.9496933793573064  -1.0277926165238496  1.7015353547659287  1.1258334257875275  -0.6570002164494366  1.0019952378843577  2.1127076033278125  -1.2385379985479708  -0.3042628889876334  -0.7955486394959771  -0.1779385666404439  1.7075221390145592  0.5419846239878776  1.286711085962694  0.9812992875956446  -1.9718044287507697  0.22732197920668865  0.5164473046472201  -0.0541992295239623  
-1.6669979600637181  1.3415523246909056  -1.5054245252895562  -0.5214469286150735  0.9124663201859057  -1.3205230575512998  -1.5366616600247918  -0.8505043175772432  -1.103160680044094  0.937717322242305  -1.8572981400030428  -0.19488211105889777  -1.4865219782944747  0.518412814312563  1.7165463854043788  -0.10929524901250005  -0.9143061977015108  -0.39998452741574897  -1.957683273581896  1.0583433141597236  -1.276703230382487  -1.354767602320835  -0.05762367023252027  0.2456374314289976  -0.1513693592810321  0.3542344628772092  1.2551753209771885  2.1162931519322536  -1.7679798897840544  -0.06138263257022366  0.2893289640454659  -0.7973361631268503  1.2118481259638063  0.3720965428043985  0.07866313268445416  -1.2644540450506867  1.9734005386937807  -0.09211137931304869  -1.1683096323158422  -1.7986355429897938  -0.4470905273841124  -1.7539298567638575  -0.4348396058670972  -1.8080677307907902  -1.7793556604521463  1.82771051192113  0.7000125558219807  -0.8360274105952465  -0.1480707228441924  0.028703295585481212  1.0923888787768117  -1.3494452432723403  1.295737523234808  1.8595221221597216  -1.2015109495127614  1.5035016011780766  -1.097085622083244  1.6918057604879875  -0.3438603665795873  -1.465523074416742  1.0280261473386691  -0.9496933793573064  -1.0277926165238496  1.7015353547659287  1.1258334257875275  -0.6570002164494366  1.0019952378843577  2.1127076033278125  -1.2385379985479708  -0.3042628889876334  -0.7955486394959771  -0.1779385666404439  1.7075221390145592  0.5419846239878776  1.286711085962694  0.9812992875956446  -1.9718044287507697  0.22732197920668865  0.5164473046472201  -0.0541992295239623  
-1.6669979600637181  1.3415523246909056  -1.5054245252895562  -0.5214469286150735  0.9124663201859057  -1.3205230575512998  -1.5366616600247918  -0.8505043175772432  -1.103160680044094  0.937717322242305  -1.8572981400030428  -0.19488211105889777  -1.4865219782944747  0.518412814312563  1.7165463854043788  -0.10929524901250005  -0.9143061977015108  -0.39998452741574897  -1.957683273581896  1.0583433141597236  -1.276703230382487  -1.354767602320835  -0.05762367023252027  0.2456374314289976  -0.1513693592810321  0.3542344628772092  1.2551753209771885  2.1162931519322536  -1.7679798897840544  -0.06138263257022366  0.2893289640454659  -0.7973361631268503  1.2118481259638063  0.3720965428043985  0.07866313268445416  -1.2644540450506867  1.9734005386937807  -0.09211137931304869  -1.1683096323158422  -1.7986355429897938  -0.4470905273841124  -1.7539298567638575  -0.4348396058670972  -1.8080677307907902  -1.7793556604521463  1.82771051192113  0.7000125558219807  -0.8360274105952465  -0.1480707228441924  0.028703295585481212  1.0923888787768117  -1.3494452432723403  1.295737523234808  1.8595221221597216  -1.2015109495127614  1.5035016011780766  -1.097085622083244  1.6918057604879875  -0.3438603665795873  -1.465523074416742  1.0280261473386691  -0.9496933793573064  -1.0277926165238496  1.7015353547659287  1.1258334257875275  -0.6570002164494366  1.0019952378843577  2.1127076033278125  -1.2385379985479708  -0.3042628889876334  -0.7955486394959771  -0.1779385666404439  1.7075221390145592  0.5419846239878776  1.286711085962694  0.9812992875956446  -1.9718044287507697  0.22732197920668865  0.5164473046472201  -0.0541992295239623  
-1.6669979600637181  1.3415523246909056  -1.5054245252895562  -0.5214469286150735  0.9124663201859057  -1.3205230575512998  -1.5366616600247918  -0.8505043175772432  -1.103160680044094  0.937717322242305  -1.8572981400030428  -0.19488211105889777  -1.4865219782944747  0.518412814312563  1.7165463854043788  -0.10929524901250005  -0.9143061977015108  -0.39998452741574897  -1.957683273581896  1.0583433141597236  -1.276703230382487  -1.354767602320835  -0.05762367023252027  0.2456374314289976  -0.1513693592810321  0.3542344628772092  1.2551753209771885  2.1162931519322536  -1.7679798897840544  -0.06138263257022366  0.2893289640454659  -0.7973361631268503  1.2118481259638063  0.3720965428043985  0.07866313268445416  -1.2644540450506867  1.9734005386937807  -0.09211137931304869  -1.1683096323158422  -1.7986355429897938  -0.4470905273841124  -1.7539298567638575  -0.4348396058670972  -1.8080677307907902  -1.7793556604521463  1.82771051192113  0.7000125558219807  -0.8360274105952465  -0.1480707228441924  0.028703295585481212  1.0923888787768117  -1.3494452432723403  1.295737523234808  1.8595221221597216  -1.2015109495127614  1.5035016011780766  -1.097085622083244  1.6918057604879875  -0.3438603665795873  -1.465523074416742  1.0280261473386691  -0.9496933793573064  -1.0277926165238496  1.7015353547659287  1.1258334257875275  -0.6570002164494366  1.0019952378843577  2.1127076033278125  -1.2385379985479708  -0.3042628889876334  -0.7955486394959771  -0.1779385666404439  1.7075221390145592  0.5419846239878776  1.286711085962694  0.9812992875956446  -1.9718044287507697  0.22732197920668865  0.5164473046472201  -0.0541992295239623  
-1.6669979600637181  1.3415523246909056  -1.5054245252895562  -0.5214469286150735  0.9124663201859057  -1.3205230575512998  -1.5366616600247918  -0.8505043175772432  -1.103160680044094  0.937717322242305  -1.8572981400030428  -0.19488211105889777  -1.4865219782944747  0.518412814312563  1.7165463854043788  -0.10929524901250005  -0.9143061977015108  -0.39998452741574897  -1.957683273581896  1.0583433141597236  -1.276703230382487  -1.354767602320835  -0.05762367023252027  0.2456374314289976  -0.1513693592810321  0.3542344628772092  1.2551753209771885  2.1162931519322536  -1.7679798897840544  -0.06138263257022366  0.2893289640454659  -0.7973361631268503  1.2118481259638063  0.3720965428043985  0.07866313268445416  -1.2644540450506867  1.9734005386937807  -0.09211137931304869  -1.1683096323158422  -1.7986355429897938  -0.4470905273841124  -1.7539298567638575  -0.4348396058670972  -1.8080677307907902  -1.7793556604521463  1.82771051192113  0.7000125558219807  -0.8360274105952465  -0.1480707228441924  0.028703295585481212  1.0923888787768117  -1.3494452432723403  1.295737523234808  1.8595221221597216  -1.2015109495127614  1.5035016011780766  -1.097085622083244  1.6918057604879875  -0.3438603665795873  -1.465523074416742  1.0280261473386691  -0.9496933793573064  -1.0277926165238496  1.7015353547659287  1.1258334257875275  -0.6570002164494366  1.0019952378843577  2.1127076033278125  -1.2385379985479708  -0.3042628889876334  -0.7955486394959771  -0.1779385666404439  1.7075221390145592  0.5419846239878776  1.286711085962694  0.9812992875956446  -1.9718044287507697  0.22732197920668865  0.5164473046472201  -0.0541992295239623  
-1.6669979600637181  1.3415523246909056  -1.5054245252895562  -0.5214469286150735  0.9124663201859057  -1.3205230575512998  -1.5366616600247918  -0.8505043175772432  -1.103160680044094  0.937717322242305  -1.8572981400030428  -0.19488211105889777  -1.4865219782944747  0.518412814312563  1.7165463854043788  -0.10929524901250005  -0.9143061977015108  -0.39998452741574897  -1.957683273581896  1.0583433141597236  -1.276703230382487  -1.354767602320835  -0.05762367023252027  0.2456374314289976  -0.1513693592810321  0.3542344628772092  1.2551753209771885  2.1162931519322536  -1.7679798897840544  -0.06138263257022366  0.2893289640454659  -0.7973361631268503  1.2118481259638063  0.3720965428043985  0.07866313268445416  -1.2644540450506867  1.9734005386937807  -0.09211137931304869  -1.1683096323158422  -1.7986355429897938  -0.4470905273841124  -1.7539298567638575  -0.4348396058670972  -1.8080677307907902  -1.7793556604521463  1.82771051192113  0.7000125558219807  -0.8360274105952465  -0.1480707228441924  0.028703295585481212  1.0923888787768117  -1.3494452432723403  1.295737523234808  1.8595221221597216  -1.2015109495127614  1.5035016011780766  -1.097085622083244  1.6918057604879875  -0.3438603665795873  -1.465523074416742  1.0280261473386691  -0.9496933793573064  -1.0277926165238496  1.7015353547659287  1.1258334257875275  -0.6570002164494366  1.0019952378843577  2.1127076033278125  -1.2385379985479708  -0.3042628889876334  -0.7955486394959771  -0.1779385666404439  1.7075221390145592  0.5419846239878776  1.286711085962694  0.9812992875956446  -1.9718044287507697  0.22732197920668865  0.5164473046472201  -0.0541992295239623  
-1.6669979600637181  1.3415523246909056  -1.5054245252895562  -0.5214469286150735  0.9124663201859057  -1.3205230575512998  -1.5366616600247918  -0.8505043175772432  -1.103160680044094  0.937717322242305  -1.8572981400030428  -0.19488211105889777  -1.4865219782944747  0.518412814312563  1.7165463854043788  -0.10929524901250005  -0.9143061977015108  -0.39998452741574897  -1.957683273581896  1.0583433141597236  -1.276703230382487  -1.354767602320835  -0.05762367023252027  0.2456374314289976  -0.1513693592810321  0.3542344628772092  1.2551753209771885  2.1162931519322536  -1.7679798897840544  -0.06138263257022366  0.2893289640454659  -0.7973361631268503  1.2118481259638063  0.3720965428043985  0.07866313268445416  -1.2644540450506867  1.9734005386937807  -0.09211137931304869  -1.1683096323158422  -1.7986355429897938  -0.4470905273841124  -1.7539298567638575  -0.4348396058670972  -1.8080677307907902  -1.7793556604521463  1.82771051192113  0.7000125558219807  -0.8360274105952465  -0.1480707228441924  0.028703295585481212  1.0923888787768117  -1.3494452432723403  1.295737523234808  1.8595221221597216  -1.2015109495127614  1.5035016011780766  -1.097085622083244  1.6918057604879875  -0.3438603665795873  -1.465523074416742  1.0280261473386691  -0.9496933793573064  -1.0277926165238496  1.7015353547659287  1.1258334257875275  -0.6570002164494366  1.0019952378843577  2.1127076033278125  -1.2385379985479708  -0.3042628889876334  -0.7955486394959771  -0.1779385666404439  1.7075221390145592  0.5419846239878776  1.286711085962694  0.9812992875956446  -1.9718044287507697  0.22732197920668865  0.5164473046472201  -0.0541992295239623  
-1.6669979600637181  1.3415523246909056  -1.5054245252895562  -0.5214469286150735  0.9124663201859057  -1.3205230575512998  -1.5366616600247918  -0.8505043175772432  -1.103160680044094  0.937717322242305  -1.8572981400030428  -0.19488211105889777  -1.4865219782944747  0.518412814312563  1.7165463854043788  -0.10929524901250005  -0.9143061977015108  -0.39998452741574897  -1.957683273581896  1.0583433141597236  -1.276703230382487  -1.354767602320835  -0.05762367023252027  0.2456374314289976  -0.1513693592810321  0.3542344628772092  1.2551753209771885  2.1162931519322536  -1.7679798897840544  -0.06138263257022366  0.2893289640454659  -0.7973361631268503  1.2118481259638063  0.3720965428043985  0.07866313268445416  -1.2644540450506867  1.9734005386937807  -0.09211137931304869  -1.1683096323158422  -1.7986355429897938  -0.4470905273841124  -1.7539298567638575  -0.4348396058670972  -1.8080677307907902  -1.7793556604521463  1.82771051192113  0.7000125558219807  -0.8360274105952465  -0.1480707228441924  0.028703295585481212  1.0923888787768117  -1.3494452432723403  1.295737523234808  1.8595221221597216  -1.2015109495127614  1.5035016011780766  -1.097085622083244  1.6918057604879875  -0.3438603665795873  -1.465523074416742  1.0280261473386691  -0.9496933793573064  -1.0277926165238496  1.7015353547659287  1.1258334257875275  -0.6570002164494366  1.0019952378843577  2.1127076033278125  -1.2385379985479708  -0.3042628889876334  -0.7955486394959771  -0.1779385666404439  1.7075221390145592  0.5419846239878776  1.286711085962694  0.9812992875956446  -1.9718044287507697  0.22732197920668865  0.5164473046472201  -0.0541992295239623  
-1.6669979600637181  1.3415523246909056  -1.5054245252895562  -0.5214469286150735  0.9124663201859057  -1.3205230575512998  -1.5366616600247918  -0.8505043175772432  -1.103160680044094  0.937717322242305  -1.8572981400030428  -0.19488211105889777  -1.4865219782944747  0.518412814312563  1.7165463854043788  -0.10929524901250005  -0.9143061977015108  -0.39998452741574897  -1.957683273581896  1.0583433141597236  -1.276703230382487  -1.354767602320835  -0.05762367023252027  0.2456374314289976  -0.1513693592810321  0.3542344628772092  1.2551753209771885  2.1162931519322536  -1.7679798897840544  -0.06138263257022366  0.2893289640454659  -0.7973361631268503  1.2118481259638063  0.3720965428043985  0.07866313268445416  -1.2644540450506867  1.9734005386937807  -0.09211137931304869  -1.1683096323158422  -1.7986355429897938  -0.4470905273841124  -1.7539298567638575  -0.4348396058670972  -1.8080677307907902  -1.7793556604521463  1.82771051192113  0.7000125558219807  -0.8360274105952465  -0.1480707228441924  0.028703295585481212  1.0923888787768117  -1.3494452432723403  1.295737523234808  1.8595221221597216  -1.2015109495127614  1.5035016011780766  -1.097085622083244  1.6918057604879875  -0.3438603665795873  -1.465523074416742  1.0280261473386691  -0.9496933793573064  -1.0277926165238496  1.7015353547659287  1.1258334257875275  -0.6570002164494366  1.0019952378843577  2.1127076033278125  -1.2385379985479708  -0.3042628889876334  -0.7955486394959771  -0.1779385666404439  1.7075221390145592  0.5419846239878776  1.286711085962694  0.9812992875956446  -1.9718044287507697  0.22732197920668865  0.5164473046472201  -0.0541992295239623  
-1.6669979600637181  1.3415523246909056  -1.5054245252895562  -0.5214469286150735  0.9124663201859057  -1.3205230575512998  -1.5366616600247918  -0.8505043175772432  -1.103160680044094  0.937717322242305  -1.8572981400030428  -0.19488211105889777  -1.4865219782944747  0.518412814312563  1.7165463854043788  -0.10929524901250005  -0.9143061977015108  -0.39998452741574897  -1.957683273581896  1.0583433141597236  -1.276703230382487  -1.354767602320835  -0.05762367023252027  0.2456374314289976  -0.1513693592810321  0.3542344628772092  1.2551753209771885  2.1162931519322536  -1.7679798897840544  -0.06138263257022366  0.2893289640454659  -0.7973361631268503  1.2118481259638063  0.3720965428043985  0.07866313268445416  -1.2644540450506867  1.9734005386937807  -0.09211137931304869  -1.1683096323158422  -1.7986355429897938  -0.4470905273841124  -1.7539298567638575  -0.4348396058670972  -1.8080677307907902  -1.7793556604521463  1.82771051192113  0.7000125558219807  -0.8360274105952465  -0.1480707228441924  0.028703295585481212  1.0923888787768117  -1.3494452432723403  1.295737523234808  1.8595221221597216  -1.2015109495127614  1.5035016011780766  -1.097085622083244  1.6918057604879875  -0.3438603665795873  -1.465523074416742  1.0280261473386691  -0.9496933793573064  -1.0277926165238496  1.7015353547659287  1.1258334257875275  -0.6570002164494366  1.0019952378843577  2.1127076033278125  -1.2385379985479708  -0.3042628889876334  -0.7955486394959771  -0.1779385666404439  1.7075221390145592  0.5419846239878776  1.286711085962694  0.9812992875956446  -1.9718044287507697  0.22732197920668865  0.5164473046472201  -0.0541992295239623  
-1.6669979600637181  1.3415523246909056  -1.5054245252895562  -0.5214469286150735  0.9124663201859057  -1.3205230575512998  -1.5366616600247918  -0.8505043175772432  -1.103160680044094  0.937717322242305  -1.8572981400030428  -0.19488211105889777  -1.4865219782944747  0.518412814312563  1.7165463854043788  -0.10929524901250005  -0.9143061977015108  -0.39998452741574897  -1.957683273581896  1.0583433141597236  -1.276703230382487  -1.354767602320835  -0.05762367023252027  0.2456374314289976  -0.1513693592810321  0.3542344628772092  1.2551753209771885  2.1162931519322536  -1.7679798897840544  -0.06138263257022366  0.2893289640454659  -0.7973361631268503  1.2118481259638063  0.3720965428043985  0.07866313268445416  -1.2644540450506867  1.9734005386937807  -0.09211137931304869  -1.1683096323158422  -1.7986355429897938  -0.4470905273841124  -1.7539298567638575  -0.4348396058670972  -1.8080677307907902  -1.7793556604521463  1.82771051192113  0.7000125558219807  -0.8360274105952465  -0.1480707228441924  0.028703295585481212  1.0923888787768117  -1.3494452432723403  1.295737523234808  1.8595221221597216  -1.2015109495127614  1.5035016011780766  -1.097085622083244  1.6918057604879875  -0.3438603665795873  -1.465523074416742  1.0280261473386691  -0.9496933793573064  -1.0277926165238496  1.7015353547659287  1.1258334257875275  -0.6570002164494366  1.0019952378843577  2.1127076033278125  -1.2385379985479708  -0.3042628889876334  -0.7955486394959771  -0.1779385666404439  1.7075221390145592  0.5419846239878776  1.286711085962694  0.9812992875956446  -1.9718044287507697  0.22732197920668865  0.5164473046472201  -0.0541992295239623  
-1.6669979600637181  1.3415523246909056  -1.5054245252895562  -0.5214469286150735  0.9124663201859057  -1.3205230575512998  -1.5366616600247918  -0.8505043175772432  -1.103160680044094  0.937717322242305  -1.8572981400030428  -0.19488211105889777  -1.4865219782944747  0.518412814312563  1.7165463854043788  -0.10929524901250005  -0.9143061977015108  -0.39998452741574897  -1.957683273581896  1.0583433141597236  -1.276703230382487  -1.354767602320835  -0.05762367023252027  0.2456374314289976  -0.1513693592810321  0.3542344628772092  1.2551753209771885  2.1162931519322536  -1.7679798897840544  -0.06138263257022366  0.2893289640454659  -0.7973361631268503  1.2118481259638063  0.3720965428043985  0.07866313268445416  -1.2644540450506867  1.9734005386937807  -0.09211137931304869  -1.1683096323158422  -1.7986355429897938  -0.4470905273841124  -1.7539298567638575  -0.4348396058670972  -1.8080677307907902  -1.7793556604521463  1.82771051192113  0.7000125558219807  -0.8360274105952465  -0.1480707228441924  0.028703295585481212  1.0923888787768117  -1.3494452432723403  1.295737523234808  1.8595221221597216  -1.2015109495127614  1.5035016011780766  -1.097085622083244  1.6918057604879875  -0.3438603665795873  -1.465523074416742  1.0280261473386691  -0.9496933793573064  -1.0277926165238496  1.7015353547659287  1.1258334257875275  -0.6570002164494366  1.0019952378843577  2.1127076033278125  -1.2385379985479708  -0.3042628889876334  -0.7955486394959771  -0.1779385666404439  1.7075221390145592  0.5419846239878776  1.286711085962694  0.9812992875956446  -1.9718044287507697  0.22732197920668865  0.5164473046472201  -0.0541992295239623  
-1.6669979600637181  1.3415523246909056  -1.5054245252895562  -0.5214469286150735  0.9124663201859057  -1.3205230575512998  -1.5366616600247918  -0.8505043175772432  -1.103160680044094  0.937717322242305  -1.8572981400030428  -0.19488211105889777  -1.4865219782944747  0.518412814312563  1.7165463854043788  -0.10929524901250005  -0.9143061977015108  -0.39998452741574897  -1.957683273581896  1.0583433141597236  -1.276703230382487  -1.354767602320835  -0.05762367023252027  0.2456374314289976  -0.1513693592810321  0.3542344628772092  1.2551753209771885  2.1162931519322536  -1.7679798897840544  -0.06138263257022366  0.2893289640454659  -0.7973361631268503  1.2118481259638063  0.3720965428043985  0.07866313268445416  -1.2644540450506867  1.9734005386937807  -0.09211137931304869  -1.1683096323158422  -1.7986355429897938  -0.4470905273841124  -1.7539298567638575  -0.4348396058670972  -1.8080677307907902  -1.7793556604521463  1.82771051192113  0.7000125558219807  -0.8360274105952465  -0.1480707228441924  0.028703295585481212  1.0923888787768117  -1.3494452432723403  1.295737523234808  1.8595221221597216  -1.2015109495127614  1.5035016011780766  -1.097085622083244  1.6918057604879875  -0.3438603665795873  -1.465523074416742  1.0280261473386691  -0.9496933793573064  -1.0277926165238496  1.7015353547659287  1.1258334257875275  -0.6570002164494366  1.0019952378843577  2.1127076033278125  -1.2385379985479708  -0.3042628889876334  -0.7955486394959771  -0.1779385666404439  1.7075221390145592  0.5419846239878776  1.286711085962694  0.9812992875956446  -1.9718044287507697  0.22732197920668865  0.5164473046472201  -0.0541992295239623  
-1.6669979600637181  1.3415523246909056  -1.5054245252895562  -0.5214469286150735  0.9124663201859057  -1.3205230575512998  -1.5366616600247918  -0.8505043175772432  -1.103160680044094  0.937717322242305  -1.8572981400030428  -0.19488211105889777  -1.4865219782944747  0.518412814312563  1.7165463854043788  -0.10929524901250005  -0.9143061977015108  -0.39998452741574897  -1.957683273581896  1.0583433141597236  -1.276703230382487  -1.354767602320835  -0.05762367023252027  0.2456374314289976  -0.1513693592810321  0.3542344628772092  1.2551753209771885  2.1162931519322536  -1.7679798897840544  -0.06138263257022366  0.2893289640454659  -0.7973361631268503  1.2118481259638063  0.3720965428043985  0.07866313268445416  -1.2644540450506867  1.9734005386937807  -0.09211137931304869  -1.1683096323158422  -1.7986355429897938  -0.4470905273841124  -1.7539298567638575  -0.4348396058670972  -1.8080677307907902  -1.7793556604521463  1.82771051192113  0.7000125558219807  -0.8360274105952465  -0.1480707228441924  0.028703295585481212  1.0923888787768117  -1.3494452432723403  1.295737523234808  1.8595221221597216  -1.2015109495127614  1.5035016011780766  -1.097085622083244  1.6918057604879875  -0.3438603665795873  -1.465523074416742  1.0280261473386691  -0.9496933793573064  -1.0277926165238496  1.7015353547659287  1.1258334257875275  -0.6570002164494366  1.0019952378843577  2.1127076033278125  -1.2385379985479708  -0.3042628889876334  -0.7955486394959771  -0.1779385666404439  1.7075221390145592  0.5419846239878776  1.286711085962694  0.9812992875956446  -1.9718044287507697  0.22732197920668865  0.5164473046472201  -0.0541992295239623  
-1.6669979600637181  1.3415523246909056  -1.5054245252895562  -0.5214469286150735  0.9124663201859057  -1.3205230575512998  -1.5366616600247918  -0.8505043175772432  -1.103160680044094  0.937717322242305  -1.8572981400030428  -0.19488211105889777  -1.4865219782944747  0.518412814312563  1.7165463854043788  -0.10929524901250005  -0.9143061977015108  -0.39998452741574897  -1.957683273581896  1.0583433141597236  -1.276703230382487  -1.354767602320835  -0.05762367023252027  0.2456374314289976  -0.1513693592810321  0.3542344628772092  1.2551753209771885  2.1162931519322536  -1.7679798897840544  -0.06138263257022366  0.2893289640454659  -0.7973361631268503  1.2118481259638063  0.3720965428043985  0.07866313268445416  -1.2644540450506867  1.9734005386937807  -0.09211137931304869  -1.1683096323158422  -1.7986355429897938  -0.4470905273841124  -1.7539298567638575  -0.4348396058670972  -1.8080677307907902  -1.7793556604521463  1.82771051192113  0.7000125558219807  -0.8360274105952465  -0.1480707228441924  0.028703295585481212  1.0923888787768117  -1.3494452432723403  1.295737523234808  1.8595221221597216  -1.2015109495127614  1.5035016011780766  -1.097085622083244  1.6918057604879875  -0.3438603665795873  -1.465523074416742  1.0280261473386691  -0.9496933793573064  -1.0277926165238496  1.7015353547659287  1.1258334257875275  -0.6570002164494366  1.0019952378843577  2.1127076033278125  -1.2385379985479708  -0.3042628889876334  -0.7955486394959771  -0.1779385666404439  1.7075221390145592  0.5419846239878776  1.286711085962694  0.9812992875956446  -1.9718044287507697  0.22732197920668865  0.5164473046472201  -0.0541992295239623  
-1.6669979600637181  1.3415523246909056  -1.5054245252895562  -0.5214469286150735  0.9124663201859057  -1.3205230575512998  -1.5366616600247918  -0.8505043175772432  -1.103160680044094  0.937717322242305  -1.8572981400030428  -0.19488211105889777  -1.4865219782944747  0.518412814312563  1.7165463854043788  -0.10929524901250005  -0.9143061977015108  -0.39998452741574897  -1.957683273581896  1.0583433141597236  -1.276703230382487  -1.354767602320835  -0.05762367023252027  0.2456374314289976  -0.1513693592810321  0.3542344628772092  1.2551753209771885  2.1162931519322536  -1.7679798897840544  -0.06138263257022366  0.2893289640454659  -0.7973361631268503  1.2118481259638063  0.3720965428043985  0.07866313268445416  -1.2644540450506867  1.9734005386937807  -0.09211137931304869  -1.1683096323158422  -1.7986355429897938  -0.4470905273841124  -1.7539298567638575  -0.4348396058670972  -1.8080677307907902  -1.7793556604521463  1.82771051192113  0.7000125558219807  -0.8360274105952465  -0.1480707228441924  0.028703295585481212  1.0923888787768117  -1.3494452432723403  1.295737523234808  1.8595221221597216  -1.2015109495127614  1.5035016011780766  -1.097085622083244  1.6918057604879875  -0.3438603665795873  -1.465523074416742  1.0280261473386691  -0.9496933793573064  -1.0277926165238496  1.7015353547659287  1.1258334257875275  -0.6570002164494366  1.0019952378843577  2.1127076033278125  -1.2385379985479708  -0.3042628889876334  -0.7955486394959771  -0.1779385666404439  1.7075221390145592  0.5419846239878776  1.286711085962694  0.9812992875956446  -1.9718044287507697  0.22732197920668865  0.5164473046472201  -0.0541992295239623  
-1.6669979600637181  1.3415523246909056  -1.5054245252895562  -0.5214469286150735  0.9124663201859057  -1.3205230575512998  -1.5366616600247918  -0.8505043175772432  -1.103160680044094  0.937717322242305  -1.8572981400030428  -0.19488211105889777  -1.4865219782944747  0.518412814312563  1.7165463854043788  -0.10929524901250005  -0.9143061977015108  -0.39998452741574897  -1.957683273581896  1.0583433141597236  -1.276703230382487  -1.354767602320835  -0.05762367023252027  0.2456374314289976  -0.1513693592810321  0.3542344628772092  1.2551753209771885  2.1162931519322536  -1.7679798897840544  -0.06138263257022366  0.2893289640454659  -0.7973361631268503  1.2118481259638063  0.3720965428043985  0.07866313268445416  -1.2644540450506867  1.9734005386937807  -0.09211137931304869  -1.1683096323158422  -1.7986355429897938  -0.4470905273841124  -1.7539298567638575  -0.4348396058670972  -1.8080677307907902  -1.7793556604521463  1.82771051192113  0.7000125558219807  -0.8360274105952465  -0.1480707228441924  0.028703295585481212  1.0923888787768117  -1.3494452432723403  1.295737523234808  1.8595221221597216  -1.2015109495127614  1.5035016011780766  -1.097085622083244  1.6918057604879875  -0.3438603665795873  -1.465523074416742  1.0280261473386691  -0.9496933793573064  -1.0277926165238496  1.7015353547659287  1.1258334257875275  -0.6570002164494366  1.0019952378843577  2.1127076033278125  -1.2385379985479708  -0.3042628889876334  -0.7955486394959771  -0.1779385666404439  1.7075221390145592  0.5419846239878776  1.286711085962694  0.9812992875956446  -1.9718044287507697  0.22732197920668865  0.5164473046472201  -0.0541992295239623  
-1.6669979600637181  1.3415523246909056  -1.5054245252895562  -0.5214469286150735  0.9124663201859057  -1.3205230575512998  -1.5366616600247918  -0.8505043175772432  -1.103160680044094  0.937717322242305  -1.8572981400030428  -0.19488211105889777  -1.4865219782944747  0.518412814312563  1.7165463854043788  -0.10929524901250005  -0.9143061977015108  -0.39998452741574897  -1.957683273581896  1.0583433141597236  -1.276703230382487  -1.354767602320835  -0.05762367023252027  0.2456374314289976  -0.1513693592810321  0.3542344628772092  1.2551753209771885  2.1162931519322536  -1.7679798897840544  -0.06138263257022366  0.2893289640454659  -0.7973361631268503  1.2118481259638063  0.3720965428043985  0.07866313268445416  -1.2644540450506867  1.9734005386937807  -0.09211137931304869  -1.1683096323158422  -1.7986355429897938  -0.4470905273841124  -1.7539298567638575  -0.4348396058670972  -1.8080677307907902  -1.7793556604521463  1.82771051192113  0.7000125558219807  -0.8360274105952465  -0.1480707228441924  0.028703295585481212  1.0923888787768117  -1.3494452432723403  1.295737523234808  1.8595221221597216  -1.2015109495127614  1.5035016011780766  -1.097085622083244  1.6918057604879875  -0.3438603665795873  -1.465523074416742  1.0280261473386691  -0.9496933793573064  -1.0277926165238496  1.7015353547659287  1.1258334257875275  -0.6570002164494366  1.0019952378843577  2.1127076033278125  -1.2385379985479708  -0.3042628889876334  -0.7955486394959771  -0.1779385666404439  1.7075221390145592  0.5419846239878776  1.286711085962694  0.9812992875956446  -1.9718044287507697  0.22732197920668865  0.5164473046472201  -0.0541992295239623  
-1.6669979600637181  1.3415523246909056  -1.5054245252895562  -0.5214469286150735  0.9124663201859057  -1.3205230575512998  -1.5366616600247918  -0.8505043175772432  -1.103160680044094  0.937717322242305  -1.8572981400030428  -0.19488211105889777  -1.4865219782944747  0.518412814312563  1.7165463854043788  -0.10929524901250005  -0.9143061977015108  -0.39998452741574897  -1.957683273581896  1.0583433141597236  -1.276703230382487  -1.354767602320835  -0.05762367023252027  0.2456374314289976  -0.1513693592810321  0.3542344628772092  1.2551753209771885  2.1162931519322536  -1.7679798897840544  -0.06138263257022366  0.2893289640454659  -0.7973361631268503  1.2118481259638063  0.3720965428043985  0.07866313268445416  -1.2644540450506867  1.9734005386937807  -0.09211137931304869  -1.1683096323158422  -1.7986355429897938  -0.4470905273841124  -1.7539298567638575  -0.4348396058670972  -1.8080677307907902  -1.7793556604521463  1.82771051192113  0.7000125558219807  -0.8360274105952465  -0.1480707228441924  0.028703295585481212  1.0923888787768117  -1.3494452432723403  1.295737523234808  1.8595221221597216  -1.2015109495127614  1.5035016011780766  -1.097085622083244  1.6918057604879875  -0.3438603665795873  -1.465523074416742  1.0280261473386691  -0.9496933793573064  -1.0277926165238496  1.7015353547659287  1.1258334257875275  -0.6570002164494366  1.0019952378843577  2.1127076033278125  -1.2385379985479708  -0.3042628889876334  -0.7955486394959771  -0.1779385666404439  1.7075221390145592  0.5419846239878776  1.286711085962694  0.9812992875956446  -1.9718044287507697  0.22732197920668865  0.5164473046472201  -0.0541992295239623  
-1.6669979600637181  1.3415523246909056  -1.5054245252895562  -0.5214469286150735  0.9124663201859057  -1.3205230575512998  -1.5366616600247918  -0.8505043175772432  -1.103160680044094  0.937717322242305  -1.8572981400030428  -0.19488211105889777  -1.4865219782944747  0.518412814312563  1.7165463854043788  -0.10929524901250005  -0.9143061977015108  -0.39998452741574897  -1.957683273581896  1.0583433141597236  -1.276703230382487  -1.354767602320835  -0.05762367023252027  0.2456374314289976  -0.1513693592810321  0.3542344628772092  1.2551753209771885  2.1162931519322536  -1.7679798897840544  -0.06138263257022366  0.2893289640454659  -0.7973361631268503  1.2118481259638063  0.3720965428043985  0.07866313268445416  -1.2644540450506867  1.9734005386937807  -0.09211137931304869  -1.1683096323158422  -1.7986355429897938  -0.4470905273841124  -1.7539298567638575  -0.4348396058670972  -1.8080677307907902  -1.7793556604521463  1.82771051192113  0.7000125558219807  -0.8360274105952465  -0.1480707228441924  0.028703295585481212  1.0923888787768117  -1.3494452432723403  1.295737523234808  1.8595221221597216  -1.2015109495127614  1.5035016011780766  -1.097085622083244  1.6918057604879875  -0.3438603665795873  -1.465523074416742  1.0280261473386691  -0.9496933793573064  -1.0277926165238496  1.7015353547659287  1.1258334257875275  -0.6570002164494366  1.0019952378843577  2.1127076033278125  -1.2385379985479708  -0.3042628889876334  -0.7955486394959771  -0.1779385666404439  1.7075221390145592  0.5419846239878776  1.286711085962694  0.9812992875956446  -1.9718044287507697  0.22732197920668865  0.5164473046472201  -0.0541992295239623  
-1.6669979600637181  1.3415523246909056  -1.5054245252895562  -0.5214469286150735  0.9124663201859057  -1.3205230575512998  -1.5366616600247918  -0.8505043175772432  -1.103160680044094  0.937717322242305  -1.8572981400030428  -0.19488211105889777  -1.4865219782944747  0.518412814312563  1.7165463854043788  -0.10929524901250005  -0.9143061977015108  -0.39998452741574897  -1.957683273581896  1.0583433141597236  -1.276703230382487  -1.354767602320835  -0.05762367023252027  0.2456374314289976  -0.1513693592810321  0.3542344628772092  1.2551753209771885  2.1162931519322536  -1.7679798897840544  -0.06138263257022366  0.2893289640454659  -0.7973361631268503  1.2118481259638063  0.3720965428043985  0.07866313268445416  -1.2644540450506867  1.9734005386937807  -0.09211137931304869  -1.1683096323158422  -1.7986355429897938  -0.4470905273841124  -1.7539298567638575  -0.4348396058670972  -1.8080677307907902  -1.7793556604521463  1.82771051192113  0.7000125558219807  -0.8360274105952465  -0.1480707228441924  0.028703295585481212  1.0923888787768117  -1.3494452432723403  1.295737523234808  1.8595221221597216  -1.2015109495127614  1.5035016011780766  -1.097085622083244  1.6918057604879875  -0.3438603665795873  -1.465523074416742  1.0280261473386691  -0.9496933793573064  -1.0277926165238496  1.7015353547659287  1.1258334257875275  -0.6570002164494366  1.0019952378843577  2.1127076033278125  -1.2385379985479708  -0.3042628889876334  -0.7955486394959771  -0.1779385666404439  1.7075221390145592  0.5419846239878776  1.286711085962694  0.9812992875956446  -1.9718044287507697  0.22732197920668865  0.5164473046472201  -0.0541992295239623  
-1.6669979600637181  1.3415523246909056  -1.5054245252895562  -0.5214469286150735  0.9124663201859057  -1.3205230575512998  -1.5366616600247918  -0.8505043175772432  -1.103160680044094  0.937717322242305  -1.8572981400030428  -0.19488211105889777  -1.4865219782944747  0.518412814312563  1.7165463854043788  -0.10929524901250005  -0.9143061977015108  -0.39998452741574897  -1.957683273581896  1.0583433141597236  -1.276703230382487  -1.354767602320835  -0.05762367023252027  0.2456374314289976  -0.1513693592810321  0.3542344628772092  1.2551753209771885  2.1162931519322536  -1.7679798897840544  -0.06138263257022366  0.2893289640454659  -0.7973361631268503  1.2118481259638063  0.3720965428043985  0.07866313268445416  -1.2644540450506867  1.9734005386937807  -0.09211137931304869  -1.1683096323158422  -1.7986355429897938  -0.4470905273841124  -1.7539298567638575  -0.4348396058670972  -1.8080677307907902  -1.7793556604521463  1.82771051192113  0.7000125558219807  -0.8360274105952465  -0.1480707228441924  0.028703295585481212  1.0923888787768117  -1.3494452432723403  1.295737523234808  1.8595221221597216  -1.2015109495127614  1.5035016011780766  -1.097085622083244  1.6918057604879875  -0.3438603665795873  -1.465523074416742  1.0280261473386691  -0.9496933793573064  -1.0277926165238496  1.7015353547659287  1.1258334257875275  -0.6570002164494366  1.0019952378843577  2.1127076033278125  -1.2385379985479708  -0.3042628889876334  -0.7955486394959771  -0.1779385666404439  1.7075221390145592  0.5419846239878776  1.286711085962694  0.9812992875956446  -1.9718044287507697  0.22732197920668865  0.5164473046472201  -0.0541992295239623  
-1.6669979600637181  1.3415523246909056  -1.5054245252895562  -0.5214469286150735  0.9124663201859057  -1.3205230575512998  -1.5366616600247918  -0.8505043175772432  -1.103160680044094  0.937717322242305  -1.8572981400030428  -0.19488211105889777  -1.4865219782944747  0.518412814312563  1.7165463854043788  -0.10929524901250005  -0.9143061977015108  -0.39998452741574897  -1.957683273581896  1.0583433141597236  -1.276703230382487  -1.354767602320835  -0.05762367023252027  0.2456374314289976  -0.1513693592810321  0.3542344628772092  1.2551753209771885  2.1162931519322536  -1.7679798897840544  -0.06138263257022366  0.2893289640454659  -0.7973361631268503  1.2118481259638063  0.3720965428043985  0.07866313268445416  -1.2644540450506867  1.9734005386937807  -0.09211137931304869  -1.1683096323158422  -1.7986355429897938  -0.4470905273841124  -1.7539298567638575  -0.4348396058670972  -1.8080677307907902  -1.7793556604521463  1.82771051192113  0.7000125558219807  -0.8360274105952465  -0.1480707228441924  0.028703295585481212  1.0923888787768117  -1.3494452432723403  1.295737523234808  1.8595221221597216  -1.2015109495127614  1.5035016011780766  -1.097085622083244  1.6918057604879875  -0.3438603665795873  -1.465523074416742  1.0280261473386691  -0.9496933793573064  -1.0277926165238496  1.7015353547659287  1.1258334257875275  -0.6570002164494366  1.0019952378843577  2.1127076033278125  -1.2385379985479708  -0.3042628889876334  -0.7955486394959771  -0.1779385666404439  1.7075221390145592  0.5419846239878776  1.286711085962694  0.9812992875956446  -1.9718044287507697  0.22732197920668865  0.5164473046472201  -0.0541992295239623  
-1.6669979600637181  1.3415523246909056  -1.5054245252895562  -0.5214469286150735  0.9124663201859057  -1.3205230575512998  -1.5366616600247918  -0.8505043175772432  -1.103160680044094  0.937717322242305  -1.8572981400030428  -0.19488211105889777  -1.4865219782944747  0.518412814312563  1.7165463854043788  -0.10929524901250005  -0.9143061977015108  -0.39998452741574897  -1.957683273581896  1.0583433141597236  -1.276703230382487  -1.354767602320835  -0.05762367023252027  0.2456374314289976  -0.1513693592810321  0.3542344628772092  1.2551753209771885  2.1162931519322536  -1.7679798897840544  -0.06138263257022366  0.2893289640454659  -0.7973361631268503  1.2118481259638063  0.3720965428043985  0.07866313268445416  -1.2644540450506867  1.9734005386937807  -0.09211137931304869  -1.1683096323158422  -1.7986355429897938  -0.4470905273841124  -1.7539298567638575  -0.4348396058670972  -1.8080677307907902  -1.7793556604521463  1.82771051192113  0.7000125558219807  -0.8360274105952465  -0.1480707228441924  0.028703295585481212  1.0923888787768117  -1.3494452432723403  1.295737523234808  1.8595221221597216  -1.2015109495127614  1.5035016011780766  -1.097085622083244  1.6918057604879875  -0.3438603665795873  -1.465523074416742  1.0280261473386691  -0.9496933793573064  -1.0277926165238496  1.7015353547659287  1.1258334257875275  -0.6570002164494366  1.0019952378843577  2.1127076033278125  -1.2385379985479708  -0.3042628889876334  -0.7955486394959771  -0.1779385666404439  1.7075221390145592  0.5419846239878776  1.286711085962694  0.9812992875956446  -1.9718044287507697  0.22732197920668865  0.5164473046472201  -0.0541992295239623  
-1.6669979600637181  1.3415523246909056  -1.5054245252895562  -0.5214469286150735  0.9124663201859057  -1.3205230575512998  -1.5366616600247918  -0.8505043175772432  -1.103160680044094  0.937717322242305  -1.8572981400030428  -0.19488211105889777  -1.4865219782944747  0.518412814312563  1.7165463854043788  -0.10929524901250005  -0.9143061977015108  -0.39998452741574897  -1.957683273581896  1.0583433141597236  -1.276703230382487  -1.354767602320835  -0.05762367023252027  0.2456374314289976  -0.1513693592810321  0.3542344628772092  1.2551753209771885  2.1162931519322536  -1.7679798897840544  -0.06138263257022366  0.2893289640454659  -0.7973361631268503  1.2118481259638063  0.3720965428043985  0.07866313268445416  -1.2644540450506867  1.9734005386937807  -0.09211137931304869  -1.1683096323158422  -1.7986355429897938  -0.4470905273841124  -1.7539298567638575  -0.4348396058670972  -1.8080677307907902  -1.7793556604521463  1.82771051192113  0.7000125558219807  -0.8360274105952465  -0.1480707228441924  0.028703295585481212  1.0923888787768117  -1.3494452432723403  1.295737523234808  1.8595221221597216  -1.2015109495127614  1.5035016011780766  -1.097085622083244  1.6918057604879875  -0.3438603665795873  -1.465523074416742  1.0280261473386691  -0.9496933793573064  -1.0277926165238496  1.7015353547659287  1.1258334257875275  -0.6570002164494366  1.0019952378843577  2.1127076033278125  -1.2385379985479708  -0.3042628889876334  -0.7955486394959771  -0.1779385666404439  1.7075221390145592  0.5419846239878776  1.286711085962694  0.9812992875956446  -1.9718044287507697  0.22732197920668865  0.5164473046472201  -0.0541992295239623  
-1.6669979600637181  1.3415523246909056  -1.5054245252895562  -0.5214469286150735  0.9124663201859057  -1.3205230575512998  -1.5366616600247918  -0.8505043175772432  -1.103160680044094  0.937717322242305  -1.8572981400030428  -0.19488211105889777  -1.4865219782944747  0.518412814312563  1.7165463854043788  -0.10929524901250005  -0.9143061977015108  -0.39998452741574897  -1.957683273581896  1.0583433141597236  -1.276703230382487  -1.354767602320835  -0.05762367023252027  0.2456374314289976  -0.1513693592810321  0.3542344628772092  1.2551753209771885  2.1162931519322536  -1.7679798897840544  -0.06138263257022366  0.2893289640454659  -0.7973361631268503  1.2118481259638063  0.3720965428043985  0.07866313268445416  -1.2644540450506867  1.9734005386937807  -0.09211137931304869  -1.1683096323158422  -1.7986355429897938  -0.4470905273841124  -1.7539298567638575  -0.4348396058670972  -1.8080677307907902  -1.7793556604521463  1.82771051192113  0.7000125558219807  -0.8360274105952465  -0.1480707228441924  0.028703295585481212  1.0923888787768117  -1.3494452432723403  1.295737523234808  1.8595221221597216  -1.2015109495127614  1.5035016011780766  -1.097085622083244  1.6918057604879875  -0.3438603665795873  -1.465523074416742  1.0280261473386691  -0.9496933793573064  -1.0277926165238496  1.7015353547659287  1.1258334257875275  -0.6570002164494366  1.0019952378843577  2.1127076033278125  -1.2385379985479708  -0.3042628889876334  -0.7955486394959771  -0.1779385666404439  1.7075221390145592  0.5419846239878776  1.286711085962694  0.9812992875956446  -1.9718044287507697  0.22732197920668865  0.5164473046472201  -0.0541992295239623  
-1.6669979600637181  1.3415523246909056  -1.5054245252895562  -0.5214469286150735  0.9124663201859057  -1.3205230575512998  -1.5366616600247918  -0.8505043175772432  -1.103160680044094  0.937717322242305  -1.8572981400030428  -0.19488211105889777  -1.4865219782944747  0.518412814312563  1.7165463854043788  -0.10929524901250005  -0.9143061977015108  -0.39998452741574897  -1.957683273581896  1.0583433141597236  -1.276703230382487  -1.354767602320835  -0.05762367023252027  0.2456374314289976  -0.1513693592810321  0.3542344628772092  1.2551753209771885  2.1162931519322536  -1.7679798897840544  -0.06138263257022366  0.2893289640454659  -0.7973361631268503  1.2118481259638063  0.3720965428043985  0.07866313268445416  -1.2644540450506867  1.9734005386937807  -0.09211137931304869  -1.1683096323158422  -1.7986355429897938  -0.4470905273841124  -1.7539298567638575  -0.4348396058670972  -1.8080677307907902  -1.7793556604521463  1.82771051192113  0.7000125558219807  -0.8360274105952465  -0.1480707228441924  0.028703295585481212  1.0923888787768117  -1.3494452432723403  1.295737523234808  1.8595221221597216  -1.2015109495127614  1.5035016011780766  -1.097085622083244  1.6918057604879875  -0.3438603665795873  -1.465523074416742  1.0280261473386691  -0.9496933793573064  -1.0277926165238496  1.7015353547659287  1.1258334257875275  -0.6570002164494366  1.0019952378843577  2.1127076033278125  -1.2385379985479708  -0.3042628889876334  -0.7955486394959771  -0.1779385666404439  1.7075221390145592  0.5419846239878776  1.286711085962694  0.9812992875956446  -1.9718044287507697  0.22732197920668865  0.5164473046472201  -0.0541992295239623  
-1.6669979600637181  1.3415523246909056  -1.5054245252895562  -0.5214469286150735  0.9124663201859057  -1.3205230575512998  -1.5366616600247918  -0.8505043175772432  -1.103160680044094  0.937717322242305  -1.8572981400030428  -0.19488211105889777  -1.4865219782944747  0.518412814312563  1.7165463854043788  -0.10929524901250005  -0.9143061977015108  -0.39998452741574897  -1.957683273581896  1.0583433141597236  -1.276703230382487  -1.354767602320835  -0.05762367023252027  0.2456374314289976  -0.1513693592810321  0.3542344628772092  1.2551753209771885  2.1162931519322536  -1.7679798897840544  -0.06138263257022366  0.2893289640454659  -0.7973361631268503  1.2118481259638063  0.3720965428043985  0.07866313268445416  -1.2644540450506867  1.9734005386937807  -0.09211137931304869  -1.1683096323158422  -1.7986355429897938  -0.4470905273841124  -1.7539298567638575  -0.4348396058670972  -1.8080677307907902  -1.7793556604521463  1.82771051192113  0.7000125558219807  -0.8360274105952465  -0.1480707228441924  0.028703295585481212  1.0923888787768117  -1.3494452432723403  1.295737523234808  1.8595221221597216  -1.2015109495127614  1.5035016011780766  -1.097085622083244  1.6918057604879875  -0.3438603665795873  -1.465523074416742  1.0280261473386691  -0.9496933793573064  -1.0277926165238496  1.7015353547659287  1.1258334257875275  -0.6570002164494366  1.0019952378843577  2.1127076033278125  -1.2385379985479708  -0.3042628889876334  -0.7955486394959771  -0.1779385666404439  1.7075221390145592  0.5419846239878776  1.286711085962694  0.9812992875956446  -1.9718044287507697  0.22732197920668865  0.5164473046472201  -0.0541992295239623  
-1.6669979600637181  1.3415523246909056  -1.5054245252895562  -0.5214469286150735  0.9124663201859057  -1.3205230575512998  -1.5366616600247918  -0.8505043175772432  -1.103160680044094  0.937717322242305  -1.8572981400030428  -0.19488211105889777  -1.4865219782944747  0.518412814312563  1.7165463854043788  -0.10929524901250005  -0.9143061977015108  -0.39998452741574897  -1.957683273581896  1.0583433141597236  -1.276703230382487  -1.354767602320835  -0.05762367023252027  0.2456374314289976  -0.1513693592810321  0.3542344628772092  1.2551753209771885  2.1162931519322536  -1.7679798897840544  -0.06138263257022366  0.2893289640454659  -0.7973361631268503  1.2118481259638063  0.3720965428043985  0.07866313268445416  -1.2644540450506867  1.9734005386937807  -0.09211137931304869  -1.1683096323158422  -1.7986355429897938  -0.4470905273841124  -1.7539298567638575  -0.4348396058670972  -1.8080677307907902  -1.7793556604521463  1.82771051192113  0.7000125558219807  -0.8360274105952465  -0.1480707228441924  0.028703295585481212  1.0923888787768117  -1.3494452432723403  1.295737523234808  1.8595221221597216  -1.2015109495127614  1.5035016011780766  -1.097085622083244  1.6918057604879875  -0.3438603665795873  -1.465523074416742  1.0280261473386691  -0.9496933793573064  -1.0277926165238496  1.7015353547659287  1.1258334257875275  -0.6570002164494366  1.0019952378843577  2.1127076033278125  -1.2385379985479708  -0.3042628889876334  -0.7955486394959771  -0.1779385666404439  1.7075221390145592  0.5419846239878776  1.286711085962694  0.9812992875956446  -1.9718044287507697  0.22732197920668865  0.5164473046472201  -0.0541992295239623  
-1.6669979600637181  1.3415523246909056  -1.5054245252895562  -0.5214469286150735  0.9124663201859057  -1.3205230575512998  -1.5366616600247918  -0.8505043175772432  -1.103160680044094  0.937717322242305  -1.8572981400030428  -0.19488211105889777  -1.4865219782944747  0.518412814312563  1.7165463854043788  -0.10929524901250005  -0.9143061977015108  -0.39998452741574897  -1.957683273581896  1.0583433141597236  -1.276703230382487  -1.354767602320835  -0.05762367023252027  0.2456374314289976  -0.1513693592810321  0.3542344628772092  1.2551753209771885  2.1162931519322536  -1.7679798897840544  -0.06138263257022366  0.2893289640454659  -0.7973361631268503  1.2118481259638063  0.3720965428043985  0.07866313268445416  -1.2644540450506867  1.9734005386937807  -0.09211137931304869  -1.1683096323158422  -1.7986355429897938  -0.4470905273841124  -1.7539298567638575  -0.4348396058670972  -1.8080677307907902  -1.7793556604521463  1.82771051192113  0.7000125558219807  -0.8360274105952465  -0.1480707228441924  0.028703295585481212  1.0923888787768117  -1.3494452432723403  1.295737523234808  1.8595221221597216  -1.2015109495127614  1.5035016011780766  -1.097085622083244  1.6918057604879875  -0.3438603665795873  -1.465523074416742  1.0280261473386691  -0.9496933793573064  -1.0277926165238496  1.7015353547659287  1.1258334257875275  -0.6570002164494366  1.0019952378843577  2.1127076033278125  -1.2385379985479708  -0.3042628889876334  -0.7955486394959771  -0.1779385666404439  1.7075221390145592  0.5419846239878776  1.286711085962694  0.9812992875956446  -1.9718044287507697  0.22732197920668865  0.5164473046472201  -0.0541992295239623  
-1.6669979600637181  1.3415523246909056  -1.5054245252895562  -0.5214469286150735  0.9124663201859057  -1.3205230575512998  -1.5366616600247918  -0.8505043175772432  -1.103160680044094  0.937717322242305  -1.8572981400030428  -0.19488211105889777  -1.4865219782944747  0.518412814312563  1.7165463854043788  -0.10929524901250005  -0.9143061977015108  -0.39998452741574897  -1.957683273581896  1.0583433141597236  -1.276703230382487  -1.354767602320835  -0.05762367023252027  0.2456374314289976  -0.1513693592810321  0.3542344628772092  1.2551753209771885  2.1162931519322536  -1.7679798897840544  -0.06138263257022366  0.2893289640454659  -0.7973361631268503  1.2118481259638063  0.3720965428043985  0.07866313268445416  -1.2644540450506867  1.9734005386937807  -0.09211137931304869  -1.1683096323158422  -1.7986355429897938  -0.4470905273841124  -1.7539298567638575  -0.4348396058670972  -1.8080677307907902  -1.7793556604521463  1.82771051192113  0.7000125558219807  -0.8360274105952465  -0.1480707228441924  0.028703295585481212  1.0923888787768117  -1.3494452432723403  1.295737523234808  1.8595221221597216  -1.2015109495127614  1.5035016011780766  -1.097085622083244  1.6918057604879875  -0.3438603665795873  -1.465523074416742  1.0280261473386691  -0.9496933793573064  -1.0277926165238496  1.7015353547659287  1.1258334257875275  -0.6570002164494366  1.0019952378843577  2.1127076033278125  -1.2385379985479708  -0.3042628889876334  -0.7955486394959771  -0.1779385666404439  1.7075221390145592  0.5419846239878776  1.286711085962694  0.9812992875956446  -1.9718044287507697  0.22732197920668865  0.5164473046472201  -0.0541992295239623  
-1.6669979600637181  1.3415523246909056  -1.5054245252895562  -0.5214469286150735  0.9124663201859057  -1.3205230575512998  -1.5366616600247918  -0.8505043175772432  -1.103160680044094  0.937717322242305  -1.8572981400030428  -0.19488211105889777  -1.4865219782944747  0.518412814312563  1.7165463854043788  -0.10929524901250005  -0.9143061977015108  -0.39998452741574897  -1.957683273581896  1.0583433141597236  -1.276703230382487  -1.354767602320835  -0.05762367023252027  0.2456374314289976  -0.1513693592810321  0.3542344628772092  1.2551753209771885  2.1162931519322536  -1.7679798897840544  -0.06138263257022366  0.2893289640454659  -0.7973361631268503  1.2118481259638063  0.3720965428043985  0.07866313268445416  -1.2644540450506867  1.9734005386937807  -0.09211137931304869  -1.1683096323158422  -1.7986355429897938  -0.4470905273841124  -1.7539298567638575  -0.4348396058670972  -1.8080677307907902  -1.7793556604521463  1.82771051192113  0.7000125558219807  -0.8360274105952465  -0.1480707228441924  0.028703295585481212  1.0923888787768117  -1.3494452432723403  1.295737523234808  1.8595221221597216  -1.2015109495127614  1.5035016011780766  -1.097085622083244  1.6918057604879875  -0.3438603665795873  -1.465523074416742  1.0280261473386691  -0.9496933793573064  -1.0277926165238496  1.7015353547659287  1.1258334257875275  -0.6570002164494366  1.0019952378843577  2.1127076033278125  -1.2385379985479708  -0.3042628889876334  -0.7955486394959771  -0.1779385666404439  1.7075221390145592  0.5419846239878776  1.286711085962694  0.9812992875956446  -1.9718044287507697  0.22732197920668865  0.5164473046472201  -0.0541992295239623  
-1.6669979600637181  1.3415523246909056  -1.5054245252895562  -0.5214469286150735  0.9124663201859057  -1.3205230575512998  -1.5366616600247918  -0.8505043175772432  -1.103160680044094  0.937717322242305  -1.8572981400030428  -0.19488211105889777  -1.4865219782944747  0.518412814312563  1.7165463854043788  -0.10929524901250005  -0.9143061977015108  -0.39998452741574897  -1.957683273581896  1.0583433141597236  -1.276703230382487  -1.354767602320835  -0.05762367023252027  0.2456374314289976  -0.1513693592810321  0.3542344628772092  1.2551753209771885  2.1162931519322536  -1.7679798897840544  -0.06138263257022366  0.2893289640454659  -0.7973361631268503  1.2118481259638063  0.3720965428043985  0.07866313268445416  -1.2644540450506867  1.9734005386937807  -0.09211137931304869  -1.1683096323158422  -1.7986355429897938  -0.4470905273841124  -1.7539298567638575  -0.4348396058670972  -1.8080677307907902  -1.7793556604521463  1.82771051192113  0.7000125558219807  -0.8360274105952465  -0.1480707228441924  0.028703295585481212  1.0923888787768117  -1.3494452432723403  1.295737523234808  1.8595221221597216  -1.2015109495127614  1.5035016011780766  -1.097085622083244  1.6918057604879875  -0.3438603665795873  -1.465523074416742  1.0280261473386691  -0.9496933793573064  -1.0277926165238496  1.7015353547659287  1.1258334257875275  -0.6570002164494366  1.0019952378843577  2.1127076033278125  -1.2385379985479708  -0.3042628889876334  -0.7955486394959771  -0.1779385666404439  1.7075221390145592  0.5419846239878776  1.286711085962694  0.9812992875956446  -1.9718044287507697  0.22732197920668865  0.5164473046472201  -0.0541992295239623  
-1.6669979600637181  1.3415523246909056  -1.5054245252895562  -0.5214469286150735  0.9124663201859057  -1.3205230575512998  -1.5366616600247918  -0.8505043175772432  -1.103160680044094  0.937717322242305  -1.8572981400030428  -0.19488211105889777  -1.4865219782944747  0.518412814312563  1.7165463854043788  -0.10929524901250005  -0.9143061977015108  -0.39998452741574897  -1.957683273581896  1.0583433141597236  -1.276703230382487  -1.354767602320835  -0.05762367023252027  0.2456374314289976  -0.1513693592810321  0.3542344628772092  1.2551753209771885  2.1162931519322536  -1.7679798897840544  -0.06138263257022366  0.2893289640454659  -0.7973361631268503  1.2118481259638063  0.3720965428043985  0.07866313268445416  -1.2644540450506867  1.9734005386937807  -0.09211137931304869  -1.1683096323158422  -1.7986355429897938  -0.4470905273841124  -1.7539298567638575  -0.4348396058670972  -1.8080677307907902  -1.7793556604521463  1.82771051192113  0.7000125558219807  -0.8360274105952465  -0.1480707228441924  0.028703295585481212  1.0923888787768117  -1.3494452432723403  1.295737523234808  1.8595221221597216  -1.2015109495127614  1.5035016011780766  -1.097085622083244  1.6918057604879875  -0.3438603665795873  -1.465523074416742  1.0280261473386691  -0.9496933793573064  -1.0277926165238496  1.7015353547659287  1.1258334257875275  -0.6570002164494366  1.0019952378843577  2.1127076033278125  -1.2385379985479708  -0.3042628889876334  -0.7955486394959771  -0.1779385666404439  1.7075221390145592  0.5419846239878776  1.286711085962694  0.9812992875956446  -1.9718044287507697  0.22732197920668865  0.5164473046472201  -0.0541992295239623  
-1.6669979600637181  1.3415523246909056  -1.5054245252895562  -0.5214469286150735  0.9124663201859057  -1.3205230575512998  -1.5366616600247918  -0.8505043175772432  -1.103160680044094  0.937717322242305  -1.8572981400030428  -0.19488211105889777  -1.4865219782944747  0.518412814312563  1.7165463854043788  -0.10929524901250005  -0.9143061977015108  -0.39998452741574897  -1.957683273581896  1.0583433141597236  -1.276703230382487  -1.354767602320835  -0.05762367023252027  0.2456374314289976  -0.1513693592810321  0.3542344628772092  1.2551753209771885  2.1162931519322536  -1.7679798897840544  -0.06138263257022366  0.2893289640454659  -0.7973361631268503  1.2118481259638063  0.3720965428043985  0.07866313268445416  -1.2644540450506867  1.9734005386937807  -0.09211137931304869  -1.1683096323158422  -1.7986355429897938  -0.4470905273841124  -1.7539298567638575  -0.4348396058670972  -1.8080677307907902  -1.7793556604521463  1.82771051192113  0.7000125558219807  -0.8360274105952465  -0.1480707228441924  0.028703295585481212  1.0923888787768117  -1.3494452432723403  1.295737523234808  1.8595221221597216  -1.2015109495127614  1.5035016011780766  -1.097085622083244  1.6918057604879875  -0.3438603665795873  -1.465523074416742  1.0280261473386691  -0.9496933793573064  -1.0277926165238496  1.7015353547659287  1.1258334257875275  -0.6570002164494366  1.0019952378843577  2.1127076033278125  -1.2385379985479708  -0.3042628889876334  -0.7955486394959771  -0.1779385666404439  1.7075221390145592  0.5419846239878776  1.286711085962694  0.9812992875956446  -1.9718044287507697  0.22732197920668865  0.5164473046472201  -0.0541992295239623  
-1.6669979600637181  1.3415523246909056  -1.5054245252895562  -0.5214469286150735  0.9124663201859057  -1.3205230575512998  -1.5366616600247918  -0.8505043175772432  -1.103160680044094  0.937717322242305  -1.8572981400030428  -0.19488211105889777  -1.4865219782944747  0.518412814312563  1.7165463854043788  -0.10929524901250005  -0.9143061977015108  -0.39998452741574897  -1.957683273581896  1.0583433141597236  -1.276703230382487  -1.354767602320835  -0.05762367023252027  0.2456374314289976  -0.1513693592810321  0.3542344628772092  1.2551753209771885  2.1162931519322536  -1.7679798897840544  -0.06138263257022366  0.2893289640454659  -0.7973361631268503  1.2118481259638063  0.3720965428043985  0.07866313268445416  -1.2644540450506867  1.9734005386937807  -0.09211137931304869  -1.1683096323158422  -1.7986355429897938  -0.4470905273841124  -1.7539298567638575  -0.4348396058670972  -1.8080677307907902  -1.7793556604521463  1.82771051192113  0.7000125558219807  -0.8360274105952465  -0.1480707228441924  0.028703295585481212  1.0923888787768117  -1.3494452432723403  1.295737523234808  1.8595221221597216  -1.2015109495127614  1.5035016011780766  -1.097085622083244  1.6918057604879875  -0.3438603665795873  -1.465523074416742  1.0280261473386691  -0.9496933793573064  -1.0277926165238496  1.7015353547659287  1.1258334257875275  -0.6570002164494366  1.0019952378843577  2.1127076033278125  -1.2385379985479708  -0.3042628889876334  -0.7955486394959771  -0.1779385666404439  1.7075221390145592  0.5419846239878776  1.286711085962694  0.9812992875956446  -1.9718044287507697  0.22732197920668865  0.5164473046472201  -0.0541992295239623  
-1.6669979600637181  1.3415523246909056  -1.5054245252895562  -0.5214469286150735  0.9124663201859057  -1.3205230575512998  -1.5366616600247918  -0.8505043175772432  -1.103160680044094  0.937717322242305  -1.8572981400030428  -0.19488211105889777  -1.4865219782944747  0.518412814312563  1.7165463854043788  -0.10929524901250005  -0.9143061977015108  -0.39998452741574897  -1.957683273581896  1.0583433141597236  -1.276703230382487  -1.354767602320835  -0.05762367023252027  0.2456374314289976  -0.1513693592810321  0.3542344628772092  1.2551753209771885  2.1162931519322536  -1.7679798897840544  -0.06138263257022366  0.2893289640454659  -0.7973361631268503  1.2118481259638063  0.3720965428043985  0.07866313268445416  -1.2644540450506867  1.9734005386937807  -0.09211137931304869  -1.1683096323158422  -1.7986355429897938  -0.4470905273841124  -1.7539298567638575  -0.4348396058670972  -1.8080677307907902  -1.7793556604521463  1.82771051192113  0.7000125558219807  -0.8360274105952465  -0.1480707228441924  0.028703295585481212  1.0923888787768117  -1.3494452432723403  1.295737523234808  1.8595221221597216  -1.2015109495127614  1.5035016011780766  -1.097085622083244  1.6918057604879875  -0.3438603665795873  -1.465523074416742  1.0280261473386691  -0.9496933793573064  -1.0277926165238496  1.7015353547659287  1.1258334257875275  -0.6570002164494366  1.0019952378843577  2.1127076033278125  -1.2385379985479708  -0.3042628889876334  -0.7955486394959771  -0.1779385666404439  1.7075221390145592  0.5419846239878776  1.286711085962694  0.9812992875956446  -1.9718044287507697  0.22732197920668865  0.5164473046472201  -0.0541992295239623  
-1.6669979600637181  1.3415523246909056  -1.5054245252895562  -0.5214469286150735  0.9124663201859057  -1.3205230575512998  -1.5366616600247918  -0.8505043175772432  -1.103160680044094  0.937717322242305  -1.8572981400030428  -0.19488211105889777  -1.4865219782944747  0.518412814312563  1.7165463854043788  -0.10929524901250005  -0.9143061977015108  -0.39998452741574897  -1.957683273581896  1.0583433141597236  -1.276703230382487  -1.354767602320835  -0.05762367023252027  0.2456374314289976  -0.1513693592810321  0.3542344628772092  1.2551753209771885  2.1162931519322536  -1.7679798897840544  -0.06138263257022366  0.2893289640454659  -0.7973361631268503  1.2118481259638063  0.3720965428043985  0.07866313268445416  -1.2644540450506867  1.9734005386937807  -0.09211137931304869  -1.1683096323158422  -1.7986355429897938  -0.4470905273841124  -1.7539298567638575  -0.4348396058670972  -1.8080677307907902  -1.7793556604521463  1.82771051192113  0.7000125558219807  -0.8360274105952465  -0.1480707228441924  0.028703295585481212  1.0923888787768117  -1.3494452432723403  1.295737523234808  1.8595221221597216  -1.2015109495127614  1.5035016011780766  -1.097085622083244  1.6918057604879875  -0.3438603665795873  -1.465523074416742  1.0280261473386691  -0.9496933793573064  -1.0277926165238496  1.7015353547659287  1.1258334257875275  -0.6570002164494366  1.0019952378843577  2.1127076033278125  -1.2385379985479708  -0.3042628889876334  -0.7955486394959771  -0.1779385666404439  1.7075221390145592  0.5419846239878776  1.286711085962694  0.9812992875956446  -1.9718044287507697  0.22732197920668865  0.5164473046472201  -0.0541992295239623  
-1.6669979600637181  1.3415523246909056  -1.5054245252895562  -0.5214469286150735  0.9124663201859057  -1.3205230575512998  -1.5366616600247918  -0.8505043175772432  -1.103160680044094  0.937717322242305  -1.8572981400030428  -0.19488211105889777  -1.4865219782944747  0.518412814312563  1.7165463854043788  -0.10929524901250005  -0.9143061977015108  -0.39998452741574897  -1.957683273581896  1.0583433141597236  -1.276703230382487  -1.354767602320835  -0.05762367023252027  0.2456374314289976  -0.1513693592810321  0.3542344628772092  1.2551753209771885  2.1162931519322536  -1.7679798897840544  -0.06138263257022366  0.2893289640454659  -0.7973361631268503  1.2118481259638063  0.3720965428043985  0.07866313268445416  -1.2644540450506867  1.9734005386937807  -0.09211137931304869  -1.1683096323158422  -1.7986355429897938  -0.4470905273841124  -1.7539298567638575  -0.4348396058670972  -1.8080677307907902  -1.7793556604521463  1.82771051192113  0.7000125558219807  -0.8360274105952465  -0.1480707228441924  0.028703295585481212  1.0923888787768117  -1.3494452432723403  1.295737523234808  1.8595221221597216  -1.2015109495127614  1.5035016011780766  -1.097085622083244  1.6918057604879875  -0.3438603665795873  -1.465523074416742  1.0280261473386691  -0.9496933793573064  -1.0277926165238496  1.7015353547659287  1.1258334257875275  -0.6570002164494366  1.0019952378843577  2.1127076033278125  -1.2385379985479708  -0.3042628889876334  -0.7955486394959771  -0.1779385666404439  1.7075221390145592  0.5419846239878776  1.286711085962694  0.9812992875956446  -1.9718044287507697  0.22732197920668865  0.5164473046472201  -0.0541992295239623  
-1.6669979600637181  1.3415523246909056  -1.5054245252895562  -0.5214469286150735  0.9124663201859057  -1.3205230575512998  -1.5366616600247918  -0.8505043175772432  -1.103160680044094  0.937717322242305  -1.8572981400030428  -0.19488211105889777  -1.4865219782944747  0.518412814312563  1.7165463854043788  -0.10929524901250005  -0.9143061977015108  -0.39998452741574897  -1.957683273581896  1.0583433141597236  -1.276703230382487  -1.354767602320835  -0.05762367023252027  0.2456374314289976  -0.1513693592810321  0.3542344628772092  1.2551753209771885  2.1162931519322536  -1.7679798897840544  -0.06138263257022366  0.2893289640454659  -0.7973361631268503  1.2118481259638063  0.3720965428043985  0.07866313268445416  -1.2644540450506867  1.9734005386937807  -0.09211137931304869  -1.1683096323158422  -1.7986355429897938  -0.4470905273841124  -1.7539298567638575  -0.4348396058670972  -1.8080677307907902  -1.7793556604521463  1.82771051192113  0.7000125558219807  -0.8360274105952465  -0.1480707228441924  0.028703295585481212  1.0923888787768117  -1.3494452432723403  1.295737523234808  1.8595221221597216  -1.2015109495127614  1.5035016011780766  -1.097085622083244  1.6918057604879875  -0.3438603665795873  -1.465523074416742  1.0280261473386691  -0.9496933793573064  -1.0277926165238496  1.7015353547659287  1.1258334257875275  -0.6570002164494366  1.0019952378843577  2.1127076033278125  -1.2385379985479708  -0.3042628889876334  -0.7955486394959771  -0.1779385666404439  1.7075221390145592  0.5419846239878776  1.286711085962694  0.9812992875956446  -1.9718044287507697  0.22732197920668865  0.5164473046472201  -0.0541992295239623  
-1.6669979600637181  1.3415523246909056  -1.5054245252895562  -0.5214469286150735  0.9124663201859057  -1.3205230575512998  -1.5366616600247918  -0.8505043175772432  -1.103160680044094  0.937717322242305  -1.8572981400030428  -0.19488211105889777  -1.4865219782944747  0.518412814312563  1.7165463854043788  -0.10929524901250005  -0.9143061977015108  -0.39998452741574897  -1.957683273581896  1.0583433141597236  -1.276703230382487  -1.354767602320835  -0.05762367023252027  0.2456374314289976  -0.1513693592810321  0.3542344628772092  1.2551753209771885  2.1162931519322536  -1.7679798897840544  -0.06138263257022366  0.2893289640454659  -0.7973361631268503  1.2118481259638063  0.3720965428043985  0.07866313268445416  -1.2644540450506867  1.9734005386937807  -0.09211137931304869  -1.1683096323158422  -1.7986355429897938  -0.4470905273841124  -1.7539298567638575  -0.4348396058670972  -1.8080677307907902  -1.7793556604521463  1.82771051192113  0.7000125558219807  -0.8360274105952465  -0.1480707228441924  0.028703295585481212  1.0923888787768117  -1.3494452432723403  1.295737523234808  1.8595221221597216  -1.2015109495127614  1.5035016011780766  -1.097085622083244  1.6918057604879875  -0.3438603665795873  -1.465523074416742  1.0280261473386691  -0.9496933793573064  -1.0277926165238496  1.7015353547659287  1.1258334257875275  -0.6570002164494366  1.0019952378843577  2.1127076033278125  -1.2385379985479708  -0.3042628889876334  -0.7955486394959771  -0.1779385666404439  1.7075221390145592  0.5419846239878776  1.286711085962694  0.9812992875956446  -1.9718044287507697  0.22732197920668865  0.5164473046472201  -0.0541992295239623  
-1.6669979600637181  1.3415523246909056  -1.5054245252895562  -0.5214469286150735  0.9124663201859057  -1.3205230575512998  -1.5366616600247918  -0.8505043175772432  -1.103160680044094  0.937717322242305  -1.8572981400030428  -0.19488211105889777  -1.4865219782944747  0.518412814312563  1.7165463854043788  -0.10929524901250005  -0.9143061977015108  -0.39998452741574897  -1.957683273581896  1.0583433141597236  -1.276703230382487  -1.354767602320835  -0.05762367023252027  0.2456374314289976  -0.1513693592810321  0.3542344628772092  1.2551753209771885  2.1162931519322536  -1.7679798897840544  -0.06138263257022366  0.2893289640454659  -0.7973361631268503  1.2118481259638063  0.3720965428043985  0.07866313268445416  -1.2644540450506867  1.9734005386937807  -0.09211137931304869  -1.1683096323158422  -1.7986355429897938  -0.4470905273841124  -1.7539298567638575  -0.4348396058670972  -1.8080677307907902  -1.7793556604521463  1.82771051192113  0.7000125558219807  -0.8360274105952465  -0.1480707228441924  0.028703295585481212  1.0923888787768117  -1.3494452432723403  1.295737523234808  1.8595221221597216  -1.2015109495127614  1.5035016011780766  -1.097085622083244  1.6918057604879875  -0.3438603665795873  -1.465523074416742  1.0280261473386691  -0.9496933793573064  -1.0277926165238496  1.7015353547659287  1.1258334257875275  -0.6570002164494366  1.0019952378843577  2.1127076033278125  -1.2385379985479708  -0.3042628889876334  -0.7955486394959771  -0.1779385666404439  1.7075221390145592  0.5419846239878776  1.286711085962694  0.9812992875956446  -1.9718044287507697  0.22732197920668865  0.5164473046472201  -0.0541992295239623  
-1.6669979600637181  1.3415523246909056  -1.5054245252895562  -0.5214469286150735  0.9124663201859057  -1.3205230575512998  -1.5366616600247918  -0.8505043175772432  -1.103160680044094  0.937717322242305  -1.8572981400030428  -0.19488211105889777  -1.4865219782944747  0.518412814312563  1.7165463854043788  -0.10929524901250005  -0.9143061977015108  -0.39998452741574897  -1.957683273581896  1.0583433141597236  -1.276703230382487  -1.354767602320835  -0.05762367023252027  0.2456374314289976  -0.1513693592810321  0.3542344628772092  1.2551753209771885  2.1162931519322536  -1.7679798897840544  -0.06138263257022366  0.2893289640454659  -0.7973361631268503  1.2118481259638063  0.3720965428043985  0.07866313268445416  -1.2644540450506867  1.9734005386937807  -0.09211137931304869  -1.1683096323158422  -1.7986355429897938  -0.4470905273841124  -1.7539298567638575  -0.4348396058670972  -1.8080677307907902  -1.7793556604521463  1.82771051192113  0.7000125558219807  -0.8360274105952465  -0.1480707228441924  0.028703295585481212  1.0923888787768117  -1.3494452432723403  1.295737523234808  1.8595221221597216  -1.2015109495127614  1.5035016011780766  -1.097085622083244  1.6918057604879875  -0.3438603665795873  -1.465523074416742  1.0280261473386691  -0.9496933793573064  -1.0277926165238496  1.7015353547659287  1.1258334257875275  -0.6570002164494366  1.0019952378843577  2.1127076033278125  -1.2385379985479708  -0.3042628889876334  -0.7955486394959771  -0.1779385666404439  1.7075221390145592  0.5419846239878776  1.286711085962694  0.9812992875956446  -1.9718044287507697  0.22732197920668865  0.5164473046472201  -0.0541992295239623  
-1.6669979600637181  1.3415523246909056  -1.5054245252895562  -0.5214469286150735  0.9124663201859057  -1.3205230575512998  -1.5366616600247918  -0.8505043175772432  -1.103160680044094  0.937717322242305  -1.8572981400030428  -0.19488211105889777  -1.4865219782944747  0.518412814312563  1.7165463854043788  -0.10929524901250005  -0.9143061977015108  -0.39998452741574897  -1.957683273581896  1.0583433141597236  -1.276703230382487  -1.354767602320835  -0.05762367023252027  0.2456374314289976  -0.1513693592810321  0.3542344628772092  1.2551753209771885  2.1162931519322536  -1.7679798897840544  -0.06138263257022366  0.2893289640454659  -0.7973361631268503  1.2118481259638063  0.3720965428043985  0.07866313268445416  -1.2644540450506867  1.9734005386937807  -0.09211137931304869  -1.1683096323158422  -1.7986355429897938  -0.4470905273841124  -1.7539298567638575  -0.4348396058670972  -1.8080677307907902  -1.7793556604521463  1.82771051192113  0.7000125558219807  -0.8360274105952465  -0.1480707228441924  0.028703295585481212  1.0923888787768117  -1.3494452432723403  1.295737523234808  1.8595221221597216  -1.2015109495127614  1.5035016011780766  -1.097085622083244  1.6918057604879875  -0.3438603665795873  -1.465523074416742  1.0280261473386691  -0.9496933793573064  -1.0277926165238496  1.7015353547659287  1.1258334257875275  -0.6570002164494366  1.0019952378843577  2.1127076033278125  -1.2385379985479708  -0.3042628889876334  -0.7955486394959771  -0.1779385666404439  1.7075221390145592  0.5419846239878776  1.286711085962694  0.9812992875956446  -1.9718044287507697  0.22732197920668865  0.5164473046472201  -0.0541992295239623  
-1.6669979600637181  1.3415523246909056  -1.5054245252895562  -0.5214469286150735  0.9124663201859057  -1.3205230575512998  -1.5366616600247918  -0.8505043175772432  -1.103160680044094  0.937717322242305  -1.8572981400030428  -0.19488211105889777  -1.4865219782944747  0.518412814312563  1.7165463854043788  -0.10929524901250005  -0.9143061977015108  -0.39998452741574897  -1.957683273581896  1.0583433141597236  -1.276703230382487  -1.354767602320835  -0.05762367023252027  0.2456374314289976  -0.1513693592810321  0.3542344628772092  1.2551753209771885  2.1162931519322536  -1.7679798897840544  -0.06138263257022366  0.2893289640454659  -0.7973361631268503  1.2118481259638063  0.3720965428043985  0.07866313268445416  -1.2644540450506867  1.9734005386937807  -0.09211137931304869  -1.1683096323158422  -1.7986355429897938  -0.4470905273841124  -1.7539298567638575  -0.4348396058670972  -1.8080677307907902  -1.7793556604521463  1.82771051192113  0.7000125558219807  -0.8360274105952465  -0.1480707228441924  0.028703295585481212  1.0923888787768117  -1.3494452432723403  1.295737523234808  1.8595221221597216  -1.2015109495127614  1.5035016011780766  -1.097085622083244  1.6918057604879875  -0.3438603665795873  -1.465523074416742  1.0280261473386691  -0.9496933793573064  -1.0277926165238496  1.7015353547659287  1.1258334257875275  -0.6570002164494366  1.0019952378843577  2.1127076033278125  -1.2385379985479708  -0.3042628889876334  -0.7955486394959771  -0.1779385666404439  1.7075221390145592  0.5419846239878776  1.286711085962694  0.9812992875956446  -1.9718044287507697  0.22732197920668865  0.5164473046472201  -0.0541992295239623  
-1.6669979600637181  1.3415523246909056  -1.5054245252895562  -0.5214469286150735  0.9124663201859057  -1.3205230575512998  -1.5366616600247918  -0.8505043175772432  -1.103160680044094  0.937717322242305  -1.8572981400030428  -0.19488211105889777  -1.4865219782944747  0.518412814312563  1.7165463854043788  -0.10929524901250005  -0.9143061977015108  -0.39998452741574897  -1.957683273581896  1.0583433141597236  -1.276703230382487  -1.354767602320835  -0.05762367023252027  0.2456374314289976  -0.1513693592810321  0.3542344628772092  1.2551753209771885  2.1162931519322536  -1.7679798897840544  -0.06138263257022366  0.2893289640454659  -0.7973361631268503  1.2118481259638063  0.3720965428043985  0.07866313268445416  -1.2644540450506867  1.9734005386937807  -0.09211137931304869  -1.1683096323158422  -1.7986355429897938  -0.4470905273841124  -1.7539298567638575  -0.4348396058670972  -1.8080677307907902  -1.7793556604521463  1.82771051192113  0.7000125558219807  -0.8360274105952465  -0.1480707228441924  0.028703295585481212  1.0923888787768117  -1.3494452432723403  1.295737523234808  1.8595221221597216  -1.2015109495127614  1.5035016011780766  -1.097085622083244  1.6918057604879875  -0.3438603665795873  -1.465523074416742  1.0280261473386691  -0.9496933793573064  -1.0277926165238496  1.7015353547659287  1.1258334257875275  -0.6570002164494366  1.0019952378843577  2.1127076033278125  -1.2385379985479708  -0.3042628889876334  -0.7955486394959771  -0.1779385666404439  1.7075221390145592  0.5419846239878776  1.286711085962694  0.9812992875956446  -1.9718044287507697  0.22732197920668865  0.5164473046472201  -0.0541992295239623  
-1.6669979600637181  1.3415523246909056  -1.5054245252895562  -0.5214469286150735  0.9124663201859057  -1.3205230575512998  -1.5366616600247918  -0.8505043175772432  -1.103160680044094  0.937717322242305  -1.8572981400030428  -0.19488211105889777  -1.4865219782944747  0.518412814312563  1.7165463854043788  -0.10929524901250005  -0.9143061977015108  -0.39998452741574897  -1.957683273581896  1.0583433141597236  -1.276703230382487  -1.354767602320835  -0.05762367023252027  0.2456374314289976  -0.1513693592810321  0.3542344628772092  1.2551753209771885  2.1162931519322536  -1.7679798897840544  -0.06138263257022366  0.2893289640454659  -0.7973361631268503  1.2118481259638063  0.3720965428043985  0.07866313268445416  -1.2644540450506867  1.9734005386937807  -0.09211137931304869  -1.1683096323158422  -1.7986355429897938  -0.4470905273841124  -1.7539298567638575  -0.4348396058670972  -1.8080677307907902  -1.7793556604521463  1.82771051192113  0.7000125558219807  -0.8360274105952465  -0.1480707228441924  0.028703295585481212  1.0923888787768117  -1.3494452432723403  1.295737523234808  1.8595221221597216  -1.2015109495127614  1.5035016011780766  -1.097085622083244  1.6918057604879875  -0.3438603665795873  -1.465523074416742  1.0280261473386691  -0.9496933793573064  -1.0277926165238496  1.7015353547659287  1.1258334257875275  -0.6570002164494366  1.0019952378843577  2.1127076033278125  -1.2385379985479708  -0.3042628889876334  -0.7955486394959771  -0.1779385666404439  1.7075221390145592  0.5419846239878776  1.286711085962694  0.9812992875956446  -1.9718044287507697  0.22732197920668865  0.5164473046472201  -0.0541992295239623  
-1.6669979600637181  1.3415523246909056  -1.5054245252895562  -0.5214469286150735  0.9124663201859057  -1.3205230575512998  -1.5366616600247918  -0.8505043175772432  -1.103160680044094  0.937717322242305  -1.8572981400030428  -0.19488211105889777  -1.4865219782944747  0.518412814312563  1.7165463854043788  -0.10929524901250005  -0.9143061977015108  -0.39998452741574897  -1.957683273581896  1.0583433141597236  -1.276703230382487  -1.354767602320835  -0.05762367023252027  0.2456374314289976  -0.1513693592810321  0.3542344628772092  1.2551753209771885  2.1162931519322536  -1.7679798897840544  -0.06138263257022366  0.2893289640454659  -0.7973361631268503  1.2118481259638063  0.3720965428043985  0.07866313268445416  -1.2644540450506867  1.9734005386937807  -0.09211137931304869  -1.1683096323158422  -1.7986355429897938  -0.4470905273841124  -1.7539298567638575  -0.4348396058670972  -1.8080677307907902  -1.7793556604521463  1.82771051192113  0.7000125558219807  -0.8360274105952465  -0.1480707228441924  0.028703295585481212  1.0923888787768117  -1.3494452432723403  1.295737523234808  1.8595221221597216  -1.2015109495127614  1.5035016011780766  -1.097085622083244  1.6918057604879875  -0.3438603665795873  -1.465523074416742  1.0280261473386691  -0.9496933793573064  -1.0277926165238496  1.7015353547659287  1.1258334257875275  -0.6570002164494366  1.0019952378843577  2.1127076033278125  -1.2385379985479708  -0.3042628889876334  -0.7955486394959771  -0.1779385666404439  1.7075221390145592  0.5419846239878776  1.286711085962694  0.9812992875956446  -1.9718044287507697  0.22732197920668865  0.5164473046472201  -0.0541992295239623  
-1.6669979600637181  1.3415523246909056  -1.5054245252895562  -0.5214469286150735  0.9124663201859057  -1.3205230575512998  -1.5366616600247918  -0.8505043175772432  -1.103160680044094  0.937717322242305  -1.8572981400030428  -0.19488211105889777  -1.4865219782944747  0.518412814312563  1.7165463854043788  -0.10929524901250005  -0.9143061977015108  -0.39998452741574897  -1.957683273581896  1.0583433141597236  -1.276703230382487  -1.354767602320835  -0.05762367023252027  0.2456374314289976  -0.1513693592810321  0.3542344628772092  1.2551753209771885  2.1162931519322536  -1.7679798897840544  -0.06138263257022366  0.2893289640454659  -0.7973361631268503  1.2118481259638063  0.3720965428043985  0.07866313268445416  -1.2644540450506867  1.9734005386937807  -0.09211137931304869  -1.1683096323158422  -1.7986355429897938  -0.4470905273841124  -1.7539298567638575  -0.4348396058670972  -1.8080677307907902  -1.7793556604521463  1.82771051192113  0.7000125558219807  -0.8360274105952465  -0.1480707228441924  0.028703295585481212  1.0923888787768117  -1.3494452432723403  1.295737523234808  1.8595221221597216  -1.2015109495127614  1.5035016011780766  -1.097085622083244  1.6918057604879875  -0.3438603665795873  -1.465523074416742  1.0280261473386691  -0.9496933793573064  -1.0277926165238496  1.7015353547659287  1.1258334257875275  -0.6570002164494366  1.0019952378843577  2.1127076033278125  -1.2385379985479708  -0.3042628889876334  -0.7955486394959771  -0.1779385666404439  1.7075221390145592  0.5419846239878776  1.286711085962694  0.9812992875956446  -1.9718044287507697  0.22732197920668865  0.5164473046472201  -0.0541992295239623  
-1.6669979600637181  1.3415523246909056  -1.5054245252895562  -0.5214469286150735  0.9124663201859057  -1.3205230575512998  -1.5366616600247918  -0.8505043175772432  -1.103160680044094  0.937717322242305  -1.8572981400030428  -0.19488211105889777  -1.4865219782944747  0.518412814312563  1.7165463854043788  -0.10929524901250005  -0.9143061977015108  -0.39998452741574897  -1.957683273581896  1.0583433141597236  -1.276703230382487  -1.354767602320835  -0.05762367023252027  0.2456374314289976  -0.1513693592810321  0.3542344628772092  1.2551753209771885  2.1162931519322536  -1.7679798897840544  -0.06138263257022366  0.2893289640454659  -0.7973361631268503  1.2118481259638063  0.3720965428043985  0.07866313268445416  -1.2644540450506867  1.9734005386937807  -0.09211137931304869  -1.1683096323158422  -1.7986355429897938  -0.4470905273841124  -1.7539298567638575  -0.4348396058670972  -1.8080677307907902  -1.7793556604521463  1.82771051192113  0.7000125558219807  -0.8360274105952465  -0.1480707228441924  0.028703295585481212  1.0923888787768117  -1.3494452432723403  1.295737523234808  1.8595221221597216  -1.2015109495127614  1.5035016011780766  -1.097085622083244  1.6918057604879875  -0.3438603665795873  -1.465523074416742  1.0280261473386691  -0.9496933793573064  -1.0277926165238496  1.7015353547659287  1.1258334257875275  -0.6570002164494366  1.0019952378843577  2.1127076033278125  -1.2385379985479708  -0.3042628889876334  -0.7955486394959771  -0.1779385666404439  1.7075221390145592  0.5419846239878776  1.286711085962694  0.9812992875956446  -1.9718044287507697  0.22732197920668865  0.5164473046472201  -0.0541992295239623  
-1.6669979600637181  1.3415523246909056  -1.5054245252895562  -0.5214469286150735  0.9124663201859057  -1.3205230575512998  -1.5366616600247918  -0.8505043175772432  -1.103160680044094  0.937717322242305  -1.8572981400030428  -0.19488211105889777  -1.4865219782944747  0.518412814312563  1.7165463854043788  -0.10929524901250005  -0.9143061977015108  -0.39998452741574897  -1.957683273581896  1.0583433141597236  -1.276703230382487  -1.354767602320835  -0.05762367023252027  0.2456374314289976  -0.1513693592810321  0.3542344628772092  1.2551753209771885  2.1162931519322536  -1.7679798897840544  -0.06138263257022366  0.2893289640454659  -0.7973361631268503  1.2118481259638063  0.3720965428043985  0.07866313268445416  -1.2644540450506867  1.9734005386937807  -0.09211137931304869  -1.1683096323158422  -1.7986355429897938  -0.4470905273841124  -1.7539298567638575  -0.4348396058670972  -1.8080677307907902  -1.7793556604521463  1.82771051192113  0.7000125558219807  -0.8360274105952465  -0.1480707228441924  0.028703295585481212  1.0923888787768117  -1.3494452432723403  1.295737523234808  1.8595221221597216  -1.2015109495127614  1.5035016011780766  -1.097085622083244  1.6918057604879875  -0.3438603665795873  -1.465523074416742  1.0280261473386691  -0.9496933793573064  -1.0277926165238496  1.7015353547659287  1.1258334257875275  -0.6570002164494366  1.0019952378843577  2.1127076033278125  -1.2385379985479708  -0.3042628889876334  -0.7955486394959771  -0.1779385666404439  1.7075221390145592  0.5419846239878776  1.286711085962694  0.9812992875956446  -1.9718044287507697  0.22732197920668865  0.5164473046472201  -0.0541992295239623  
