Weights Of Hidden Layer  : 
---------------------------------
-0.43676250916807147  1.1392736919914364  -0.2690880118534761  -1.149031791059906  1.1834869211310115  0.8487105719819499  0.14857594286321724  1.7443910710575647  0.13172180846835538  0.5332763375072679  0.5369735474058019  -0.3162690634638598  -0.14685795030011942  -1.8984971880305432  1.5107914426164808  1.6011860710326276  -0.7609198932021422  0.25273241483837594  -1.1175438772839157  1.5004565471920979  0.7962655012244496  -1.5734292333748998  -1.124812158888346  0.8516764762552634  -1.5592199508628433  2.146490615810566  -1.135445962993782  1.0437004755215016  0.9282809531143588  0.6931180500256788  -1.5114035898615648  1.7449193386359005  0.011931947254178283  -1.6828086636740067  -0.5456092012250585  1.9994960124936831  -1.18184119085646  -1.739801098230666  1.7399769514702133  1.9840170774279118  -1.8890966368756585  1.5456240102371477  -1.1928240008436788  -2.1889094927202444  -0.771423751390598  0.27136653329797433  -1.175582373734086  2.172617566717707  -2.1957463736059815  1.3328489426849774  1.260580094512245  -1.193318915797736  -0.027400952264517563  -0.47767985040102867  -0.024390397852857293  -1.2174525717978288  -2.5133182859687517  0.6368930088604445  0.5939625587141895  -0.1727110562831607  -0.5002511558226161  -1.4044796240693695  -2.061003630292017  -0.33840970326123315  2.0250873827938625  -0.15555496342765998  -1.6400733762917474  0.9048952157227641  -1.7543268696591547  0.21581456008782984  0.7154392641775563  1.737367798560251  0.8571629904151168  -1.7546484968940572  -1.5571671391656998  -0.2262228902076649  0.9032935780002649  -0.21539635794853967  -1.3302361879760614  -2.1333787322108178  
-0.43676250916807147  1.1392736919914364  -0.2690880118534761  -1.149031791059906  1.1834869211310115  0.8487105719819499  0.14857594286321724  1.7443910710575647  0.13172180846835538  0.5332763375072679  0.5369735474058019  -0.3162690634638598  -0.14685795030011942  -1.8984971880305432  1.5107914426164808  1.6011860710326276  -0.7609198932021422  0.25273241483837594  -1.1175438772839157  1.5004565471920979  0.7962655012244496  -1.5734292333748998  -1.124812158888346  0.8516764762552634  -1.5592199508628433  2.146490615810566  -1.135445962993782  1.0437004755215016  0.9282809531143588  0.6931180500256788  -1.5114035898615648  1.7449193386359005  0.011931947254178283  -1.6828086636740067  -0.5456092012250585  1.9994960124936831  -1.18184119085646  -1.739801098230666  1.7399769514702133  1.9840170774279118  -1.8890966368756585  1.5456240102371477  -1.1928240008436788  -2.1889094927202444  -0.771423751390598  0.27136653329797433  -1.175582373734086  2.172617566717707  -2.1957463736059815  1.3328489426849774  1.260580094512245  -1.193318915797736  -0.027400952264517563  -0.47767985040102867  -0.024390397852857293  -1.2174525717978288  -2.5133182859687517  0.6368930088604445  0.5939625587141895  -0.1727110562831607  -0.5002511558226161  -1.4044796240693695  -2.061003630292017  -0.33840970326123315  2.0250873827938625  -0.15555496342765998  -1.6400733762917474  0.9048952157227641  -1.7543268696591547  0.21581456008782984  0.7154392641775563  1.737367798560251  0.8571629904151168  -1.7546484968940572  -1.5571671391656998  -0.2262228902076649  0.9032935780002649  -0.21539635794853967  -1.3302361879760614  -2.1333787322108178  
-0.43676250916807147  1.1392736919914364  -0.2690880118534761  -1.149031791059906  1.1834869211310115  0.8487105719819499  0.14857594286321724  1.7443910710575647  0.13172180846835538  0.5332763375072679  0.5369735474058019  -0.3162690634638598  -0.14685795030011942  -1.8984971880305432  1.5107914426164808  1.6011860710326276  -0.7609198932021422  0.25273241483837594  -1.1175438772839157  1.5004565471920979  0.7962655012244496  -1.5734292333748998  -1.124812158888346  0.8516764762552634  -1.5592199508628433  2.146490615810566  -1.135445962993782  1.0437004755215016  0.9282809531143588  0.6931180500256788  -1.5114035898615648  1.7449193386359005  0.011931947254178283  -1.6828086636740067  -0.5456092012250585  1.9994960124936831  -1.18184119085646  -1.739801098230666  1.7399769514702133  1.9840170774279118  -1.8890966368756585  1.5456240102371477  -1.1928240008436788  -2.1889094927202444  -0.771423751390598  0.27136653329797433  -1.175582373734086  2.172617566717707  -2.1957463736059815  1.3328489426849774  1.260580094512245  -1.193318915797736  -0.027400952264517563  -0.47767985040102867  -0.024390397852857293  -1.2174525717978288  -2.5133182859687517  0.6368930088604445  0.5939625587141895  -0.1727110562831607  -0.5002511558226161  -1.4044796240693695  -2.061003630292017  -0.33840970326123315  2.0250873827938625  -0.15555496342765998  -1.6400733762917474  0.9048952157227641  -1.7543268696591547  0.21581456008782984  0.7154392641775563  1.737367798560251  0.8571629904151168  -1.7546484968940572  -1.5571671391656998  -0.2262228902076649  0.9032935780002649  -0.21539635794853967  -1.3302361879760614  -2.1333787322108178  
-0.43676250916807147  1.1392736919914364  -0.2690880118534761  -1.149031791059906  1.1834869211310115  0.8487105719819499  0.14857594286321724  1.7443910710575647  0.13172180846835538  0.5332763375072679  0.5369735474058019  -0.3162690634638598  -0.14685795030011942  -1.8984971880305432  1.5107914426164808  1.6011860710326276  -0.7609198932021422  0.25273241483837594  -1.1175438772839157  1.5004565471920979  0.7962655012244496  -1.5734292333748998  -1.124812158888346  0.8516764762552634  -1.5592199508628433  2.146490615810566  -1.135445962993782  1.0437004755215016  0.9282809531143588  0.6931180500256788  -1.5114035898615648  1.7449193386359005  0.011931947254178283  -1.6828086636740067  -0.5456092012250585  1.9994960124936831  -1.18184119085646  -1.739801098230666  1.7399769514702133  1.9840170774279118  -1.8890966368756585  1.5456240102371477  -1.1928240008436788  -2.1889094927202444  -0.771423751390598  0.27136653329797433  -1.175582373734086  2.172617566717707  -2.1957463736059815  1.3328489426849774  1.260580094512245  -1.193318915797736  -0.027400952264517563  -0.47767985040102867  -0.024390397852857293  -1.2174525717978288  -2.5133182859687517  0.6368930088604445  0.5939625587141895  -0.1727110562831607  -0.5002511558226161  -1.4044796240693695  -2.061003630292017  -0.33840970326123315  2.0250873827938625  -0.15555496342765998  -1.6400733762917474  0.9048952157227641  -1.7543268696591547  0.21581456008782984  0.7154392641775563  1.737367798560251  0.8571629904151168  -1.7546484968940572  -1.5571671391656998  -0.2262228902076649  0.9032935780002649  -0.21539635794853967  -1.3302361879760614  -2.1333787322108178  
-0.43676250916807147  1.1392736919914364  -0.2690880118534761  -1.149031791059906  1.1834869211310115  0.8487105719819499  0.14857594286321724  1.7443910710575647  0.13172180846835538  0.5332763375072679  0.5369735474058019  -0.3162690634638598  -0.14685795030011942  -1.8984971880305432  1.5107914426164808  1.6011860710326276  -0.7609198932021422  0.25273241483837594  -1.1175438772839157  1.5004565471920979  0.7962655012244496  -1.5734292333748998  -1.124812158888346  0.8516764762552634  -1.5592199508628433  2.146490615810566  -1.135445962993782  1.0437004755215016  0.9282809531143588  0.6931180500256788  -1.5114035898615648  1.7449193386359005  0.011931947254178283  -1.6828086636740067  -0.5456092012250585  1.9994960124936831  -1.18184119085646  -1.739801098230666  1.7399769514702133  1.9840170774279118  -1.8890966368756585  1.5456240102371477  -1.1928240008436788  -2.1889094927202444  -0.771423751390598  0.27136653329797433  -1.175582373734086  2.172617566717707  -2.1957463736059815  1.3328489426849774  1.260580094512245  -1.193318915797736  -0.027400952264517563  -0.47767985040102867  -0.024390397852857293  -1.2174525717978288  -2.5133182859687517  0.6368930088604445  0.5939625587141895  -0.1727110562831607  -0.5002511558226161  -1.4044796240693695  -2.061003630292017  -0.33840970326123315  2.0250873827938625  -0.15555496342765998  -1.6400733762917474  0.9048952157227641  -1.7543268696591547  0.21581456008782984  0.7154392641775563  1.737367798560251  0.8571629904151168  -1.7546484968940572  -1.5571671391656998  -0.2262228902076649  0.9032935780002649  -0.21539635794853967  -1.3302361879760614  -2.1333787322108178  
-0.43676250916807147  1.1392736919914364  -0.2690880118534761  -1.149031791059906  1.1834869211310115  0.8487105719819499  0.14857594286321724  1.7443910710575647  0.13172180846835538  0.5332763375072679  0.5369735474058019  -0.3162690634638598  -0.14685795030011942  -1.8984971880305432  1.5107914426164808  1.6011860710326276  -0.7609198932021422  0.25273241483837594  -1.1175438772839157  1.5004565471920979  0.7962655012244496  -1.5734292333748998  -1.124812158888346  0.8516764762552634  -1.5592199508628433  2.146490615810566  -1.135445962993782  1.0437004755215016  0.9282809531143588  0.6931180500256788  -1.5114035898615648  1.7449193386359005  0.011931947254178283  -1.6828086636740067  -0.5456092012250585  1.9994960124936831  -1.18184119085646  -1.739801098230666  1.7399769514702133  1.9840170774279118  -1.8890966368756585  1.5456240102371477  -1.1928240008436788  -2.1889094927202444  -0.771423751390598  0.27136653329797433  -1.175582373734086  2.172617566717707  -2.1957463736059815  1.3328489426849774  1.260580094512245  -1.193318915797736  -0.027400952264517563  -0.47767985040102867  -0.024390397852857293  -1.2174525717978288  -2.5133182859687517  0.6368930088604445  0.5939625587141895  -0.1727110562831607  -0.5002511558226161  -1.4044796240693695  -2.061003630292017  -0.33840970326123315  2.0250873827938625  -0.15555496342765998  -1.6400733762917474  0.9048952157227641  -1.7543268696591547  0.21581456008782984  0.7154392641775563  1.737367798560251  0.8571629904151168  -1.7546484968940572  -1.5571671391656998  -0.2262228902076649  0.9032935780002649  -0.21539635794853967  -1.3302361879760614  -2.1333787322108178  
-0.43676250916807147  1.1392736919914364  -0.2690880118534761  -1.149031791059906  1.1834869211310115  0.8487105719819499  0.14857594286321724  1.7443910710575647  0.13172180846835538  0.5332763375072679  0.5369735474058019  -0.3162690634638598  -0.14685795030011942  -1.8984971880305432  1.5107914426164808  1.6011860710326276  -0.7609198932021422  0.25273241483837594  -1.1175438772839157  1.5004565471920979  0.7962655012244496  -1.5734292333748998  -1.124812158888346  0.8516764762552634  -1.5592199508628433  2.146490615810566  -1.135445962993782  1.0437004755215016  0.9282809531143588  0.6931180500256788  -1.5114035898615648  1.7449193386359005  0.011931947254178283  -1.6828086636740067  -0.5456092012250585  1.9994960124936831  -1.18184119085646  -1.739801098230666  1.7399769514702133  1.9840170774279118  -1.8890966368756585  1.5456240102371477  -1.1928240008436788  -2.1889094927202444  -0.771423751390598  0.27136653329797433  -1.175582373734086  2.172617566717707  -2.1957463736059815  1.3328489426849774  1.260580094512245  -1.193318915797736  -0.027400952264517563  -0.47767985040102867  -0.024390397852857293  -1.2174525717978288  -2.5133182859687517  0.6368930088604445  0.5939625587141895  -0.1727110562831607  -0.5002511558226161  -1.4044796240693695  -2.061003630292017  -0.33840970326123315  2.0250873827938625  -0.15555496342765998  -1.6400733762917474  0.9048952157227641  -1.7543268696591547  0.21581456008782984  0.7154392641775563  1.737367798560251  0.8571629904151168  -1.7546484968940572  -1.5571671391656998  -0.2262228902076649  0.9032935780002649  -0.21539635794853967  -1.3302361879760614  -2.1333787322108178  
-0.43676250916807147  1.1392736919914364  -0.2690880118534761  -1.149031791059906  1.1834869211310115  0.8487105719819499  0.14857594286321724  1.7443910710575647  0.13172180846835538  0.5332763375072679  0.5369735474058019  -0.3162690634638598  -0.14685795030011942  -1.8984971880305432  1.5107914426164808  1.6011860710326276  -0.7609198932021422  0.25273241483837594  -1.1175438772839157  1.5004565471920979  0.7962655012244496  -1.5734292333748998  -1.124812158888346  0.8516764762552634  -1.5592199508628433  2.146490615810566  -1.135445962993782  1.0437004755215016  0.9282809531143588  0.6931180500256788  -1.5114035898615648  1.7449193386359005  0.011931947254178283  -1.6828086636740067  -0.5456092012250585  1.9994960124936831  -1.18184119085646  -1.739801098230666  1.7399769514702133  1.9840170774279118  -1.8890966368756585  1.5456240102371477  -1.1928240008436788  -2.1889094927202444  -0.771423751390598  0.27136653329797433  -1.175582373734086  2.172617566717707  -2.1957463736059815  1.3328489426849774  1.260580094512245  -1.193318915797736  -0.027400952264517563  -0.47767985040102867  -0.024390397852857293  -1.2174525717978288  -2.5133182859687517  0.6368930088604445  0.5939625587141895  -0.1727110562831607  -0.5002511558226161  -1.4044796240693695  -2.061003630292017  -0.33840970326123315  2.0250873827938625  -0.15555496342765998  -1.6400733762917474  0.9048952157227641  -1.7543268696591547  0.21581456008782984  0.7154392641775563  1.737367798560251  0.8571629904151168  -1.7546484968940572  -1.5571671391656998  -0.2262228902076649  0.9032935780002649  -0.21539635794853967  -1.3302361879760614  -2.1333787322108178  
-0.43676250916807147  1.1392736919914364  -0.2690880118534761  -1.149031791059906  1.1834869211310115  0.8487105719819499  0.14857594286321724  1.7443910710575647  0.13172180846835538  0.5332763375072679  0.5369735474058019  -0.3162690634638598  -0.14685795030011942  -1.8984971880305432  1.5107914426164808  1.6011860710326276  -0.7609198932021422  0.25273241483837594  -1.1175438772839157  1.5004565471920979  0.7962655012244496  -1.5734292333748998  -1.124812158888346  0.8516764762552634  -1.5592199508628433  2.146490615810566  -1.135445962993782  1.0437004755215016  0.9282809531143588  0.6931180500256788  -1.5114035898615648  1.7449193386359005  0.011931947254178283  -1.6828086636740067  -0.5456092012250585  1.9994960124936831  -1.18184119085646  -1.739801098230666  1.7399769514702133  1.9840170774279118  -1.8890966368756585  1.5456240102371477  -1.1928240008436788  -2.1889094927202444  -0.771423751390598  0.27136653329797433  -1.175582373734086  2.172617566717707  -2.1957463736059815  1.3328489426849774  1.260580094512245  -1.193318915797736  -0.027400952264517563  -0.47767985040102867  -0.024390397852857293  -1.2174525717978288  -2.5133182859687517  0.6368930088604445  0.5939625587141895  -0.1727110562831607  -0.5002511558226161  -1.4044796240693695  -2.061003630292017  -0.33840970326123315  2.0250873827938625  -0.15555496342765998  -1.6400733762917474  0.9048952157227641  -1.7543268696591547  0.21581456008782984  0.7154392641775563  1.737367798560251  0.8571629904151168  -1.7546484968940572  -1.5571671391656998  -0.2262228902076649  0.9032935780002649  -0.21539635794853967  -1.3302361879760614  -2.1333787322108178  
-0.43676250916807147  1.1392736919914364  -0.2690880118534761  -1.149031791059906  1.1834869211310115  0.8487105719819499  0.14857594286321724  1.7443910710575647  0.13172180846835538  0.5332763375072679  0.5369735474058019  -0.3162690634638598  -0.14685795030011942  -1.8984971880305432  1.5107914426164808  1.6011860710326276  -0.7609198932021422  0.25273241483837594  -1.1175438772839157  1.5004565471920979  0.7962655012244496  -1.5734292333748998  -1.124812158888346  0.8516764762552634  -1.5592199508628433  2.146490615810566  -1.135445962993782  1.0437004755215016  0.9282809531143588  0.6931180500256788  -1.5114035898615648  1.7449193386359005  0.011931947254178283  -1.6828086636740067  -0.5456092012250585  1.9994960124936831  -1.18184119085646  -1.739801098230666  1.7399769514702133  1.9840170774279118  -1.8890966368756585  1.5456240102371477  -1.1928240008436788  -2.1889094927202444  -0.771423751390598  0.27136653329797433  -1.175582373734086  2.172617566717707  -2.1957463736059815  1.3328489426849774  1.260580094512245  -1.193318915797736  -0.027400952264517563  -0.47767985040102867  -0.024390397852857293  -1.2174525717978288  -2.5133182859687517  0.6368930088604445  0.5939625587141895  -0.1727110562831607  -0.5002511558226161  -1.4044796240693695  -2.061003630292017  -0.33840970326123315  2.0250873827938625  -0.15555496342765998  -1.6400733762917474  0.9048952157227641  -1.7543268696591547  0.21581456008782984  0.7154392641775563  1.737367798560251  0.8571629904151168  -1.7546484968940572  -1.5571671391656998  -0.2262228902076649  0.9032935780002649  -0.21539635794853967  -1.3302361879760614  -2.1333787322108178  
-0.43676250916807147  1.1392736919914364  -0.2690880118534761  -1.149031791059906  1.1834869211310115  0.8487105719819499  0.14857594286321724  1.7443910710575647  0.13172180846835538  0.5332763375072679  0.5369735474058019  -0.3162690634638598  -0.14685795030011942  -1.8984971880305432  1.5107914426164808  1.6011860710326276  -0.7609198932021422  0.25273241483837594  -1.1175438772839157  1.5004565471920979  0.7962655012244496  -1.5734292333748998  -1.124812158888346  0.8516764762552634  -1.5592199508628433  2.146490615810566  -1.135445962993782  1.0437004755215016  0.9282809531143588  0.6931180500256788  -1.5114035898615648  1.7449193386359005  0.011931947254178283  -1.6828086636740067  -0.5456092012250585  1.9994960124936831  -1.18184119085646  -1.739801098230666  1.7399769514702133  1.9840170774279118  -1.8890966368756585  1.5456240102371477  -1.1928240008436788  -2.1889094927202444  -0.771423751390598  0.27136653329797433  -1.175582373734086  2.172617566717707  -2.1957463736059815  1.3328489426849774  1.260580094512245  -1.193318915797736  -0.027400952264517563  -0.47767985040102867  -0.024390397852857293  -1.2174525717978288  -2.5133182859687517  0.6368930088604445  0.5939625587141895  -0.1727110562831607  -0.5002511558226161  -1.4044796240693695  -2.061003630292017  -0.33840970326123315  2.0250873827938625  -0.15555496342765998  -1.6400733762917474  0.9048952157227641  -1.7543268696591547  0.21581456008782984  0.7154392641775563  1.737367798560251  0.8571629904151168  -1.7546484968940572  -1.5571671391656998  -0.2262228902076649  0.9032935780002649  -0.21539635794853967  -1.3302361879760614  -2.1333787322108178  
-0.43676250916807147  1.1392736919914364  -0.2690880118534761  -1.149031791059906  1.1834869211310115  0.8487105719819499  0.14857594286321724  1.7443910710575647  0.13172180846835538  0.5332763375072679  0.5369735474058019  -0.3162690634638598  -0.14685795030011942  -1.8984971880305432  1.5107914426164808  1.6011860710326276  -0.7609198932021422  0.25273241483837594  -1.1175438772839157  1.5004565471920979  0.7962655012244496  -1.5734292333748998  -1.124812158888346  0.8516764762552634  -1.5592199508628433  2.146490615810566  -1.135445962993782  1.0437004755215016  0.9282809531143588  0.6931180500256788  -1.5114035898615648  1.7449193386359005  0.011931947254178283  -1.6828086636740067  -0.5456092012250585  1.9994960124936831  -1.18184119085646  -1.739801098230666  1.7399769514702133  1.9840170774279118  -1.8890966368756585  1.5456240102371477  -1.1928240008436788  -2.1889094927202444  -0.771423751390598  0.27136653329797433  -1.175582373734086  2.172617566717707  -2.1957463736059815  1.3328489426849774  1.260580094512245  -1.193318915797736  -0.027400952264517563  -0.47767985040102867  -0.024390397852857293  -1.2174525717978288  -2.5133182859687517  0.6368930088604445  0.5939625587141895  -0.1727110562831607  -0.5002511558226161  -1.4044796240693695  -2.061003630292017  -0.33840970326123315  2.0250873827938625  -0.15555496342765998  -1.6400733762917474  0.9048952157227641  -1.7543268696591547  0.21581456008782984  0.7154392641775563  1.737367798560251  0.8571629904151168  -1.7546484968940572  -1.5571671391656998  -0.2262228902076649  0.9032935780002649  -0.21539635794853967  -1.3302361879760614  -2.1333787322108178  
-0.43676250916807147  1.1392736919914364  -0.2690880118534761  -1.149031791059906  1.1834869211310115  0.8487105719819499  0.14857594286321724  1.7443910710575647  0.13172180846835538  0.5332763375072679  0.5369735474058019  -0.3162690634638598  -0.14685795030011942  -1.8984971880305432  1.5107914426164808  1.6011860710326276  -0.7609198932021422  0.25273241483837594  -1.1175438772839157  1.5004565471920979  0.7962655012244496  -1.5734292333748998  -1.124812158888346  0.8516764762552634  -1.5592199508628433  2.146490615810566  -1.135445962993782  1.0437004755215016  0.9282809531143588  0.6931180500256788  -1.5114035898615648  1.7449193386359005  0.011931947254178283  -1.6828086636740067  -0.5456092012250585  1.9994960124936831  -1.18184119085646  -1.739801098230666  1.7399769514702133  1.9840170774279118  -1.8890966368756585  1.5456240102371477  -1.1928240008436788  -2.1889094927202444  -0.771423751390598  0.27136653329797433  -1.175582373734086  2.172617566717707  -2.1957463736059815  1.3328489426849774  1.260580094512245  -1.193318915797736  -0.027400952264517563  -0.47767985040102867  -0.024390397852857293  -1.2174525717978288  -2.5133182859687517  0.6368930088604445  0.5939625587141895  -0.1727110562831607  -0.5002511558226161  -1.4044796240693695  -2.061003630292017  -0.33840970326123315  2.0250873827938625  -0.15555496342765998  -1.6400733762917474  0.9048952157227641  -1.7543268696591547  0.21581456008782984  0.7154392641775563  1.737367798560251  0.8571629904151168  -1.7546484968940572  -1.5571671391656998  -0.2262228902076649  0.9032935780002649  -0.21539635794853967  -1.3302361879760614  -2.1333787322108178  
-0.43676250916807147  1.1392736919914364  -0.2690880118534761  -1.149031791059906  1.1834869211310115  0.8487105719819499  0.14857594286321724  1.7443910710575647  0.13172180846835538  0.5332763375072679  0.5369735474058019  -0.3162690634638598  -0.14685795030011942  -1.8984971880305432  1.5107914426164808  1.6011860710326276  -0.7609198932021422  0.25273241483837594  -1.1175438772839157  1.5004565471920979  0.7962655012244496  -1.5734292333748998  -1.124812158888346  0.8516764762552634  -1.5592199508628433  2.146490615810566  -1.135445962993782  1.0437004755215016  0.9282809531143588  0.6931180500256788  -1.5114035898615648  1.7449193386359005  0.011931947254178283  -1.6828086636740067  -0.5456092012250585  1.9994960124936831  -1.18184119085646  -1.739801098230666  1.7399769514702133  1.9840170774279118  -1.8890966368756585  1.5456240102371477  -1.1928240008436788  -2.1889094927202444  -0.771423751390598  0.27136653329797433  -1.175582373734086  2.172617566717707  -2.1957463736059815  1.3328489426849774  1.260580094512245  -1.193318915797736  -0.027400952264517563  -0.47767985040102867  -0.024390397852857293  -1.2174525717978288  -2.5133182859687517  0.6368930088604445  0.5939625587141895  -0.1727110562831607  -0.5002511558226161  -1.4044796240693695  -2.061003630292017  -0.33840970326123315  2.0250873827938625  -0.15555496342765998  -1.6400733762917474  0.9048952157227641  -1.7543268696591547  0.21581456008782984  0.7154392641775563  1.737367798560251  0.8571629904151168  -1.7546484968940572  -1.5571671391656998  -0.2262228902076649  0.9032935780002649  -0.21539635794853967  -1.3302361879760614  -2.1333787322108178  
-0.43676250916807147  1.1392736919914364  -0.2690880118534761  -1.149031791059906  1.1834869211310115  0.8487105719819499  0.14857594286321724  1.7443910710575647  0.13172180846835538  0.5332763375072679  0.5369735474058019  -0.3162690634638598  -0.14685795030011942  -1.8984971880305432  1.5107914426164808  1.6011860710326276  -0.7609198932021422  0.25273241483837594  -1.1175438772839157  1.5004565471920979  0.7962655012244496  -1.5734292333748998  -1.124812158888346  0.8516764762552634  -1.5592199508628433  2.146490615810566  -1.135445962993782  1.0437004755215016  0.9282809531143588  0.6931180500256788  -1.5114035898615648  1.7449193386359005  0.011931947254178283  -1.6828086636740067  -0.5456092012250585  1.9994960124936831  -1.18184119085646  -1.739801098230666  1.7399769514702133  1.9840170774279118  -1.8890966368756585  1.5456240102371477  -1.1928240008436788  -2.1889094927202444  -0.771423751390598  0.27136653329797433  -1.175582373734086  2.172617566717707  -2.1957463736059815  1.3328489426849774  1.260580094512245  -1.193318915797736  -0.027400952264517563  -0.47767985040102867  -0.024390397852857293  -1.2174525717978288  -2.5133182859687517  0.6368930088604445  0.5939625587141895  -0.1727110562831607  -0.5002511558226161  -1.4044796240693695  -2.061003630292017  -0.33840970326123315  2.0250873827938625  -0.15555496342765998  -1.6400733762917474  0.9048952157227641  -1.7543268696591547  0.21581456008782984  0.7154392641775563  1.737367798560251  0.8571629904151168  -1.7546484968940572  -1.5571671391656998  -0.2262228902076649  0.9032935780002649  -0.21539635794853967  -1.3302361879760614  -2.1333787322108178  
-0.43676250916807147  1.1392736919914364  -0.2690880118534761  -1.149031791059906  1.1834869211310115  0.8487105719819499  0.14857594286321724  1.7443910710575647  0.13172180846835538  0.5332763375072679  0.5369735474058019  -0.3162690634638598  -0.14685795030011942  -1.8984971880305432  1.5107914426164808  1.6011860710326276  -0.7609198932021422  0.25273241483837594  -1.1175438772839157  1.5004565471920979  0.7962655012244496  -1.5734292333748998  -1.124812158888346  0.8516764762552634  -1.5592199508628433  2.146490615810566  -1.135445962993782  1.0437004755215016  0.9282809531143588  0.6931180500256788  -1.5114035898615648  1.7449193386359005  0.011931947254178283  -1.6828086636740067  -0.5456092012250585  1.9994960124936831  -1.18184119085646  -1.739801098230666  1.7399769514702133  1.9840170774279118  -1.8890966368756585  1.5456240102371477  -1.1928240008436788  -2.1889094927202444  -0.771423751390598  0.27136653329797433  -1.175582373734086  2.172617566717707  -2.1957463736059815  1.3328489426849774  1.260580094512245  -1.193318915797736  -0.027400952264517563  -0.47767985040102867  -0.024390397852857293  -1.2174525717978288  -2.5133182859687517  0.6368930088604445  0.5939625587141895  -0.1727110562831607  -0.5002511558226161  -1.4044796240693695  -2.061003630292017  -0.33840970326123315  2.0250873827938625  -0.15555496342765998  -1.6400733762917474  0.9048952157227641  -1.7543268696591547  0.21581456008782984  0.7154392641775563  1.737367798560251  0.8571629904151168  -1.7546484968940572  -1.5571671391656998  -0.2262228902076649  0.9032935780002649  -0.21539635794853967  -1.3302361879760614  -2.1333787322108178  
-0.43676250916807147  1.1392736919914364  -0.2690880118534761  -1.149031791059906  1.1834869211310115  0.8487105719819499  0.14857594286321724  1.7443910710575647  0.13172180846835538  0.5332763375072679  0.5369735474058019  -0.3162690634638598  -0.14685795030011942  -1.8984971880305432  1.5107914426164808  1.6011860710326276  -0.7609198932021422  0.25273241483837594  -1.1175438772839157  1.5004565471920979  0.7962655012244496  -1.5734292333748998  -1.124812158888346  0.8516764762552634  -1.5592199508628433  2.146490615810566  -1.135445962993782  1.0437004755215016  0.9282809531143588  0.6931180500256788  -1.5114035898615648  1.7449193386359005  0.011931947254178283  -1.6828086636740067  -0.5456092012250585  1.9994960124936831  -1.18184119085646  -1.739801098230666  1.7399769514702133  1.9840170774279118  -1.8890966368756585  1.5456240102371477  -1.1928240008436788  -2.1889094927202444  -0.771423751390598  0.27136653329797433  -1.175582373734086  2.172617566717707  -2.1957463736059815  1.3328489426849774  1.260580094512245  -1.193318915797736  -0.027400952264517563  -0.47767985040102867  -0.024390397852857293  -1.2174525717978288  -2.5133182859687517  0.6368930088604445  0.5939625587141895  -0.1727110562831607  -0.5002511558226161  -1.4044796240693695  -2.061003630292017  -0.33840970326123315  2.0250873827938625  -0.15555496342765998  -1.6400733762917474  0.9048952157227641  -1.7543268696591547  0.21581456008782984  0.7154392641775563  1.737367798560251  0.8571629904151168  -1.7546484968940572  -1.5571671391656998  -0.2262228902076649  0.9032935780002649  -0.21539635794853967  -1.3302361879760614  -2.1333787322108178  
-0.43676250916807147  1.1392736919914364  -0.2690880118534761  -1.149031791059906  1.1834869211310115  0.8487105719819499  0.14857594286321724  1.7443910710575647  0.13172180846835538  0.5332763375072679  0.5369735474058019  -0.3162690634638598  -0.14685795030011942  -1.8984971880305432  1.5107914426164808  1.6011860710326276  -0.7609198932021422  0.25273241483837594  -1.1175438772839157  1.5004565471920979  0.7962655012244496  -1.5734292333748998  -1.124812158888346  0.8516764762552634  -1.5592199508628433  2.146490615810566  -1.135445962993782  1.0437004755215016  0.9282809531143588  0.6931180500256788  -1.5114035898615648  1.7449193386359005  0.011931947254178283  -1.6828086636740067  -0.5456092012250585  1.9994960124936831  -1.18184119085646  -1.739801098230666  1.7399769514702133  1.9840170774279118  -1.8890966368756585  1.5456240102371477  -1.1928240008436788  -2.1889094927202444  -0.771423751390598  0.27136653329797433  -1.175582373734086  2.172617566717707  -2.1957463736059815  1.3328489426849774  1.260580094512245  -1.193318915797736  -0.027400952264517563  -0.47767985040102867  -0.024390397852857293  -1.2174525717978288  -2.5133182859687517  0.6368930088604445  0.5939625587141895  -0.1727110562831607  -0.5002511558226161  -1.4044796240693695  -2.061003630292017  -0.33840970326123315  2.0250873827938625  -0.15555496342765998  -1.6400733762917474  0.9048952157227641  -1.7543268696591547  0.21581456008782984  0.7154392641775563  1.737367798560251  0.8571629904151168  -1.7546484968940572  -1.5571671391656998  -0.2262228902076649  0.9032935780002649  -0.21539635794853967  -1.3302361879760614  -2.1333787322108178  
-0.43676250916807147  1.1392736919914364  -0.2690880118534761  -1.149031791059906  1.1834869211310115  0.8487105719819499  0.14857594286321724  1.7443910710575647  0.13172180846835538  0.5332763375072679  0.5369735474058019  -0.3162690634638598  -0.14685795030011942  -1.8984971880305432  1.5107914426164808  1.6011860710326276  -0.7609198932021422  0.25273241483837594  -1.1175438772839157  1.5004565471920979  0.7962655012244496  -1.5734292333748998  -1.124812158888346  0.8516764762552634  -1.5592199508628433  2.146490615810566  -1.135445962993782  1.0437004755215016  0.9282809531143588  0.6931180500256788  -1.5114035898615648  1.7449193386359005  0.011931947254178283  -1.6828086636740067  -0.5456092012250585  1.9994960124936831  -1.18184119085646  -1.739801098230666  1.7399769514702133  1.9840170774279118  -1.8890966368756585  1.5456240102371477  -1.1928240008436788  -2.1889094927202444  -0.771423751390598  0.27136653329797433  -1.175582373734086  2.172617566717707  -2.1957463736059815  1.3328489426849774  1.260580094512245  -1.193318915797736  -0.027400952264517563  -0.47767985040102867  -0.024390397852857293  -1.2174525717978288  -2.5133182859687517  0.6368930088604445  0.5939625587141895  -0.1727110562831607  -0.5002511558226161  -1.4044796240693695  -2.061003630292017  -0.33840970326123315  2.0250873827938625  -0.15555496342765998  -1.6400733762917474  0.9048952157227641  -1.7543268696591547  0.21581456008782984  0.7154392641775563  1.737367798560251  0.8571629904151168  -1.7546484968940572  -1.5571671391656998  -0.2262228902076649  0.9032935780002649  -0.21539635794853967  -1.3302361879760614  -2.1333787322108178  
-0.43676250916807147  1.1392736919914364  -0.2690880118534761  -1.149031791059906  1.1834869211310115  0.8487105719819499  0.14857594286321724  1.7443910710575647  0.13172180846835538  0.5332763375072679  0.5369735474058019  -0.3162690634638598  -0.14685795030011942  -1.8984971880305432  1.5107914426164808  1.6011860710326276  -0.7609198932021422  0.25273241483837594  -1.1175438772839157  1.5004565471920979  0.7962655012244496  -1.5734292333748998  -1.124812158888346  0.8516764762552634  -1.5592199508628433  2.146490615810566  -1.135445962993782  1.0437004755215016  0.9282809531143588  0.6931180500256788  -1.5114035898615648  1.7449193386359005  0.011931947254178283  -1.6828086636740067  -0.5456092012250585  1.9994960124936831  -1.18184119085646  -1.739801098230666  1.7399769514702133  1.9840170774279118  -1.8890966368756585  1.5456240102371477  -1.1928240008436788  -2.1889094927202444  -0.771423751390598  0.27136653329797433  -1.175582373734086  2.172617566717707  -2.1957463736059815  1.3328489426849774  1.260580094512245  -1.193318915797736  -0.027400952264517563  -0.47767985040102867  -0.024390397852857293  -1.2174525717978288  -2.5133182859687517  0.6368930088604445  0.5939625587141895  -0.1727110562831607  -0.5002511558226161  -1.4044796240693695  -2.061003630292017  -0.33840970326123315  2.0250873827938625  -0.15555496342765998  -1.6400733762917474  0.9048952157227641  -1.7543268696591547  0.21581456008782984  0.7154392641775563  1.737367798560251  0.8571629904151168  -1.7546484968940572  -1.5571671391656998  -0.2262228902076649  0.9032935780002649  -0.21539635794853967  -1.3302361879760614  -2.1333787322108178  
-0.43676250916807147  1.1392736919914364  -0.2690880118534761  -1.149031791059906  1.1834869211310115  0.8487105719819499  0.14857594286321724  1.7443910710575647  0.13172180846835538  0.5332763375072679  0.5369735474058019  -0.3162690634638598  -0.14685795030011942  -1.8984971880305432  1.5107914426164808  1.6011860710326276  -0.7609198932021422  0.25273241483837594  -1.1175438772839157  1.5004565471920979  0.7962655012244496  -1.5734292333748998  -1.124812158888346  0.8516764762552634  -1.5592199508628433  2.146490615810566  -1.135445962993782  1.0437004755215016  0.9282809531143588  0.6931180500256788  -1.5114035898615648  1.7449193386359005  0.011931947254178283  -1.6828086636740067  -0.5456092012250585  1.9994960124936831  -1.18184119085646  -1.739801098230666  1.7399769514702133  1.9840170774279118  -1.8890966368756585  1.5456240102371477  -1.1928240008436788  -2.1889094927202444  -0.771423751390598  0.27136653329797433  -1.175582373734086  2.172617566717707  -2.1957463736059815  1.3328489426849774  1.260580094512245  -1.193318915797736  -0.027400952264517563  -0.47767985040102867  -0.024390397852857293  -1.2174525717978288  -2.5133182859687517  0.6368930088604445  0.5939625587141895  -0.1727110562831607  -0.5002511558226161  -1.4044796240693695  -2.061003630292017  -0.33840970326123315  2.0250873827938625  -0.15555496342765998  -1.6400733762917474  0.9048952157227641  -1.7543268696591547  0.21581456008782984  0.7154392641775563  1.737367798560251  0.8571629904151168  -1.7546484968940572  -1.5571671391656998  -0.2262228902076649  0.9032935780002649  -0.21539635794853967  -1.3302361879760614  -2.1333787322108178  
-0.43676250916807147  1.1392736919914364  -0.2690880118534761  -1.149031791059906  1.1834869211310115  0.8487105719819499  0.14857594286321724  1.7443910710575647  0.13172180846835538  0.5332763375072679  0.5369735474058019  -0.3162690634638598  -0.14685795030011942  -1.8984971880305432  1.5107914426164808  1.6011860710326276  -0.7609198932021422  0.25273241483837594  -1.1175438772839157  1.5004565471920979  0.7962655012244496  -1.5734292333748998  -1.124812158888346  0.8516764762552634  -1.5592199508628433  2.146490615810566  -1.135445962993782  1.0437004755215016  0.9282809531143588  0.6931180500256788  -1.5114035898615648  1.7449193386359005  0.011931947254178283  -1.6828086636740067  -0.5456092012250585  1.9994960124936831  -1.18184119085646  -1.739801098230666  1.7399769514702133  1.9840170774279118  -1.8890966368756585  1.5456240102371477  -1.1928240008436788  -2.1889094927202444  -0.771423751390598  0.27136653329797433  -1.175582373734086  2.172617566717707  -2.1957463736059815  1.3328489426849774  1.260580094512245  -1.193318915797736  -0.027400952264517563  -0.47767985040102867  -0.024390397852857293  -1.2174525717978288  -2.5133182859687517  0.6368930088604445  0.5939625587141895  -0.1727110562831607  -0.5002511558226161  -1.4044796240693695  -2.061003630292017  -0.33840970326123315  2.0250873827938625  -0.15555496342765998  -1.6400733762917474  0.9048952157227641  -1.7543268696591547  0.21581456008782984  0.7154392641775563  1.737367798560251  0.8571629904151168  -1.7546484968940572  -1.5571671391656998  -0.2262228902076649  0.9032935780002649  -0.21539635794853967  -1.3302361879760614  -2.1333787322108178  
-0.43676250916807147  1.1392736919914364  -0.2690880118534761  -1.149031791059906  1.1834869211310115  0.8487105719819499  0.14857594286321724  1.7443910710575647  0.13172180846835538  0.5332763375072679  0.5369735474058019  -0.3162690634638598  -0.14685795030011942  -1.8984971880305432  1.5107914426164808  1.6011860710326276  -0.7609198932021422  0.25273241483837594  -1.1175438772839157  1.5004565471920979  0.7962655012244496  -1.5734292333748998  -1.124812158888346  0.8516764762552634  -1.5592199508628433  2.146490615810566  -1.135445962993782  1.0437004755215016  0.9282809531143588  0.6931180500256788  -1.5114035898615648  1.7449193386359005  0.011931947254178283  -1.6828086636740067  -0.5456092012250585  1.9994960124936831  -1.18184119085646  -1.739801098230666  1.7399769514702133  1.9840170774279118  -1.8890966368756585  1.5456240102371477  -1.1928240008436788  -2.1889094927202444  -0.771423751390598  0.27136653329797433  -1.175582373734086  2.172617566717707  -2.1957463736059815  1.3328489426849774  1.260580094512245  -1.193318915797736  -0.027400952264517563  -0.47767985040102867  -0.024390397852857293  -1.2174525717978288  -2.5133182859687517  0.6368930088604445  0.5939625587141895  -0.1727110562831607  -0.5002511558226161  -1.4044796240693695  -2.061003630292017  -0.33840970326123315  2.0250873827938625  -0.15555496342765998  -1.6400733762917474  0.9048952157227641  -1.7543268696591547  0.21581456008782984  0.7154392641775563  1.737367798560251  0.8571629904151168  -1.7546484968940572  -1.5571671391656998  -0.2262228902076649  0.9032935780002649  -0.21539635794853967  -1.3302361879760614  -2.1333787322108178  
-0.43676250916807147  1.1392736919914364  -0.2690880118534761  -1.149031791059906  1.1834869211310115  0.8487105719819499  0.14857594286321724  1.7443910710575647  0.13172180846835538  0.5332763375072679  0.5369735474058019  -0.3162690634638598  -0.14685795030011942  -1.8984971880305432  1.5107914426164808  1.6011860710326276  -0.7609198932021422  0.25273241483837594  -1.1175438772839157  1.5004565471920979  0.7962655012244496  -1.5734292333748998  -1.124812158888346  0.8516764762552634  -1.5592199508628433  2.146490615810566  -1.135445962993782  1.0437004755215016  0.9282809531143588  0.6931180500256788  -1.5114035898615648  1.7449193386359005  0.011931947254178283  -1.6828086636740067  -0.5456092012250585  1.9994960124936831  -1.18184119085646  -1.739801098230666  1.7399769514702133  1.9840170774279118  -1.8890966368756585  1.5456240102371477  -1.1928240008436788  -2.1889094927202444  -0.771423751390598  0.27136653329797433  -1.175582373734086  2.172617566717707  -2.1957463736059815  1.3328489426849774  1.260580094512245  -1.193318915797736  -0.027400952264517563  -0.47767985040102867  -0.024390397852857293  -1.2174525717978288  -2.5133182859687517  0.6368930088604445  0.5939625587141895  -0.1727110562831607  -0.5002511558226161  -1.4044796240693695  -2.061003630292017  -0.33840970326123315  2.0250873827938625  -0.15555496342765998  -1.6400733762917474  0.9048952157227641  -1.7543268696591547  0.21581456008782984  0.7154392641775563  1.737367798560251  0.8571629904151168  -1.7546484968940572  -1.5571671391656998  -0.2262228902076649  0.9032935780002649  -0.21539635794853967  -1.3302361879760614  -2.1333787322108178  
-0.43676250916807147  1.1392736919914364  -0.2690880118534761  -1.149031791059906  1.1834869211310115  0.8487105719819499  0.14857594286321724  1.7443910710575647  0.13172180846835538  0.5332763375072679  0.5369735474058019  -0.3162690634638598  -0.14685795030011942  -1.8984971880305432  1.5107914426164808  1.6011860710326276  -0.7609198932021422  0.25273241483837594  -1.1175438772839157  1.5004565471920979  0.7962655012244496  -1.5734292333748998  -1.124812158888346  0.8516764762552634  -1.5592199508628433  2.146490615810566  -1.135445962993782  1.0437004755215016  0.9282809531143588  0.6931180500256788  -1.5114035898615648  1.7449193386359005  0.011931947254178283  -1.6828086636740067  -0.5456092012250585  1.9994960124936831  -1.18184119085646  -1.739801098230666  1.7399769514702133  1.9840170774279118  -1.8890966368756585  1.5456240102371477  -1.1928240008436788  -2.1889094927202444  -0.771423751390598  0.27136653329797433  -1.175582373734086  2.172617566717707  -2.1957463736059815  1.3328489426849774  1.260580094512245  -1.193318915797736  -0.027400952264517563  -0.47767985040102867  -0.024390397852857293  -1.2174525717978288  -2.5133182859687517  0.6368930088604445  0.5939625587141895  -0.1727110562831607  -0.5002511558226161  -1.4044796240693695  -2.061003630292017  -0.33840970326123315  2.0250873827938625  -0.15555496342765998  -1.6400733762917474  0.9048952157227641  -1.7543268696591547  0.21581456008782984  0.7154392641775563  1.737367798560251  0.8571629904151168  -1.7546484968940572  -1.5571671391656998  -0.2262228902076649  0.9032935780002649  -0.21539635794853967  -1.3302361879760614  -2.1333787322108178  
-0.43676250916807147  1.1392736919914364  -0.2690880118534761  -1.149031791059906  1.1834869211310115  0.8487105719819499  0.14857594286321724  1.7443910710575647  0.13172180846835538  0.5332763375072679  0.5369735474058019  -0.3162690634638598  -0.14685795030011942  -1.8984971880305432  1.5107914426164808  1.6011860710326276  -0.7609198932021422  0.25273241483837594  -1.1175438772839157  1.5004565471920979  0.7962655012244496  -1.5734292333748998  -1.124812158888346  0.8516764762552634  -1.5592199508628433  2.146490615810566  -1.135445962993782  1.0437004755215016  0.9282809531143588  0.6931180500256788  -1.5114035898615648  1.7449193386359005  0.011931947254178283  -1.6828086636740067  -0.5456092012250585  1.9994960124936831  -1.18184119085646  -1.739801098230666  1.7399769514702133  1.9840170774279118  -1.8890966368756585  1.5456240102371477  -1.1928240008436788  -2.1889094927202444  -0.771423751390598  0.27136653329797433  -1.175582373734086  2.172617566717707  -2.1957463736059815  1.3328489426849774  1.260580094512245  -1.193318915797736  -0.027400952264517563  -0.47767985040102867  -0.024390397852857293  -1.2174525717978288  -2.5133182859687517  0.6368930088604445  0.5939625587141895  -0.1727110562831607  -0.5002511558226161  -1.4044796240693695  -2.061003630292017  -0.33840970326123315  2.0250873827938625  -0.15555496342765998  -1.6400733762917474  0.9048952157227641  -1.7543268696591547  0.21581456008782984  0.7154392641775563  1.737367798560251  0.8571629904151168  -1.7546484968940572  -1.5571671391656998  -0.2262228902076649  0.9032935780002649  -0.21539635794853967  -1.3302361879760614  -2.1333787322108178  
-0.43676250916807147  1.1392736919914364  -0.2690880118534761  -1.149031791059906  1.1834869211310115  0.8487105719819499  0.14857594286321724  1.7443910710575647  0.13172180846835538  0.5332763375072679  0.5369735474058019  -0.3162690634638598  -0.14685795030011942  -1.8984971880305432  1.5107914426164808  1.6011860710326276  -0.7609198932021422  0.25273241483837594  -1.1175438772839157  1.5004565471920979  0.7962655012244496  -1.5734292333748998  -1.124812158888346  0.8516764762552634  -1.5592199508628433  2.146490615810566  -1.135445962993782  1.0437004755215016  0.9282809531143588  0.6931180500256788  -1.5114035898615648  1.7449193386359005  0.011931947254178283  -1.6828086636740067  -0.5456092012250585  1.9994960124936831  -1.18184119085646  -1.739801098230666  1.7399769514702133  1.9840170774279118  -1.8890966368756585  1.5456240102371477  -1.1928240008436788  -2.1889094927202444  -0.771423751390598  0.27136653329797433  -1.175582373734086  2.172617566717707  -2.1957463736059815  1.3328489426849774  1.260580094512245  -1.193318915797736  -0.027400952264517563  -0.47767985040102867  -0.024390397852857293  -1.2174525717978288  -2.5133182859687517  0.6368930088604445  0.5939625587141895  -0.1727110562831607  -0.5002511558226161  -1.4044796240693695  -2.061003630292017  -0.33840970326123315  2.0250873827938625  -0.15555496342765998  -1.6400733762917474  0.9048952157227641  -1.7543268696591547  0.21581456008782984  0.7154392641775563  1.737367798560251  0.8571629904151168  -1.7546484968940572  -1.5571671391656998  -0.2262228902076649  0.9032935780002649  -0.21539635794853967  -1.3302361879760614  -2.1333787322108178  
-0.43676250916807147  1.1392736919914364  -0.2690880118534761  -1.149031791059906  1.1834869211310115  0.8487105719819499  0.14857594286321724  1.7443910710575647  0.13172180846835538  0.5332763375072679  0.5369735474058019  -0.3162690634638598  -0.14685795030011942  -1.8984971880305432  1.5107914426164808  1.6011860710326276  -0.7609198932021422  0.25273241483837594  -1.1175438772839157  1.5004565471920979  0.7962655012244496  -1.5734292333748998  -1.124812158888346  0.8516764762552634  -1.5592199508628433  2.146490615810566  -1.135445962993782  1.0437004755215016  0.9282809531143588  0.6931180500256788  -1.5114035898615648  1.7449193386359005  0.011931947254178283  -1.6828086636740067  -0.5456092012250585  1.9994960124936831  -1.18184119085646  -1.739801098230666  1.7399769514702133  1.9840170774279118  -1.8890966368756585  1.5456240102371477  -1.1928240008436788  -2.1889094927202444  -0.771423751390598  0.27136653329797433  -1.175582373734086  2.172617566717707  -2.1957463736059815  1.3328489426849774  1.260580094512245  -1.193318915797736  -0.027400952264517563  -0.47767985040102867  -0.024390397852857293  -1.2174525717978288  -2.5133182859687517  0.6368930088604445  0.5939625587141895  -0.1727110562831607  -0.5002511558226161  -1.4044796240693695  -2.061003630292017  -0.33840970326123315  2.0250873827938625  -0.15555496342765998  -1.6400733762917474  0.9048952157227641  -1.7543268696591547  0.21581456008782984  0.7154392641775563  1.737367798560251  0.8571629904151168  -1.7546484968940572  -1.5571671391656998  -0.2262228902076649  0.9032935780002649  -0.21539635794853967  -1.3302361879760614  -2.1333787322108178  
-0.43676250916807147  1.1392736919914364  -0.2690880118534761  -1.149031791059906  1.1834869211310115  0.8487105719819499  0.14857594286321724  1.7443910710575647  0.13172180846835538  0.5332763375072679  0.5369735474058019  -0.3162690634638598  -0.14685795030011942  -1.8984971880305432  1.5107914426164808  1.6011860710326276  -0.7609198932021422  0.25273241483837594  -1.1175438772839157  1.5004565471920979  0.7962655012244496  -1.5734292333748998  -1.124812158888346  0.8516764762552634  -1.5592199508628433  2.146490615810566  -1.135445962993782  1.0437004755215016  0.9282809531143588  0.6931180500256788  -1.5114035898615648  1.7449193386359005  0.011931947254178283  -1.6828086636740067  -0.5456092012250585  1.9994960124936831  -1.18184119085646  -1.739801098230666  1.7399769514702133  1.9840170774279118  -1.8890966368756585  1.5456240102371477  -1.1928240008436788  -2.1889094927202444  -0.771423751390598  0.27136653329797433  -1.175582373734086  2.172617566717707  -2.1957463736059815  1.3328489426849774  1.260580094512245  -1.193318915797736  -0.027400952264517563  -0.47767985040102867  -0.024390397852857293  -1.2174525717978288  -2.5133182859687517  0.6368930088604445  0.5939625587141895  -0.1727110562831607  -0.5002511558226161  -1.4044796240693695  -2.061003630292017  -0.33840970326123315  2.0250873827938625  -0.15555496342765998  -1.6400733762917474  0.9048952157227641  -1.7543268696591547  0.21581456008782984  0.7154392641775563  1.737367798560251  0.8571629904151168  -1.7546484968940572  -1.5571671391656998  -0.2262228902076649  0.9032935780002649  -0.21539635794853967  -1.3302361879760614  -2.1333787322108178  
-0.43676250916807147  1.1392736919914364  -0.2690880118534761  -1.149031791059906  1.1834869211310115  0.8487105719819499  0.14857594286321724  1.7443910710575647  0.13172180846835538  0.5332763375072679  0.5369735474058019  -0.3162690634638598  -0.14685795030011942  -1.8984971880305432  1.5107914426164808  1.6011860710326276  -0.7609198932021422  0.25273241483837594  -1.1175438772839157  1.5004565471920979  0.7962655012244496  -1.5734292333748998  -1.124812158888346  0.8516764762552634  -1.5592199508628433  2.146490615810566  -1.135445962993782  1.0437004755215016  0.9282809531143588  0.6931180500256788  -1.5114035898615648  1.7449193386359005  0.011931947254178283  -1.6828086636740067  -0.5456092012250585  1.9994960124936831  -1.18184119085646  -1.739801098230666  1.7399769514702133  1.9840170774279118  -1.8890966368756585  1.5456240102371477  -1.1928240008436788  -2.1889094927202444  -0.771423751390598  0.27136653329797433  -1.175582373734086  2.172617566717707  -2.1957463736059815  1.3328489426849774  1.260580094512245  -1.193318915797736  -0.027400952264517563  -0.47767985040102867  -0.024390397852857293  -1.2174525717978288  -2.5133182859687517  0.6368930088604445  0.5939625587141895  -0.1727110562831607  -0.5002511558226161  -1.4044796240693695  -2.061003630292017  -0.33840970326123315  2.0250873827938625  -0.15555496342765998  -1.6400733762917474  0.9048952157227641  -1.7543268696591547  0.21581456008782984  0.7154392641775563  1.737367798560251  0.8571629904151168  -1.7546484968940572  -1.5571671391656998  -0.2262228902076649  0.9032935780002649  -0.21539635794853967  -1.3302361879760614  -2.1333787322108178  
-0.43676250916807147  1.1392736919914364  -0.2690880118534761  -1.149031791059906  1.1834869211310115  0.8487105719819499  0.14857594286321724  1.7443910710575647  0.13172180846835538  0.5332763375072679  0.5369735474058019  -0.3162690634638598  -0.14685795030011942  -1.8984971880305432  1.5107914426164808  1.6011860710326276  -0.7609198932021422  0.25273241483837594  -1.1175438772839157  1.5004565471920979  0.7962655012244496  -1.5734292333748998  -1.124812158888346  0.8516764762552634  -1.5592199508628433  2.146490615810566  -1.135445962993782  1.0437004755215016  0.9282809531143588  0.6931180500256788  -1.5114035898615648  1.7449193386359005  0.011931947254178283  -1.6828086636740067  -0.5456092012250585  1.9994960124936831  -1.18184119085646  -1.739801098230666  1.7399769514702133  1.9840170774279118  -1.8890966368756585  1.5456240102371477  -1.1928240008436788  -2.1889094927202444  -0.771423751390598  0.27136653329797433  -1.175582373734086  2.172617566717707  -2.1957463736059815  1.3328489426849774  1.260580094512245  -1.193318915797736  -0.027400952264517563  -0.47767985040102867  -0.024390397852857293  -1.2174525717978288  -2.5133182859687517  0.6368930088604445  0.5939625587141895  -0.1727110562831607  -0.5002511558226161  -1.4044796240693695  -2.061003630292017  -0.33840970326123315  2.0250873827938625  -0.15555496342765998  -1.6400733762917474  0.9048952157227641  -1.7543268696591547  0.21581456008782984  0.7154392641775563  1.737367798560251  0.8571629904151168  -1.7546484968940572  -1.5571671391656998  -0.2262228902076649  0.9032935780002649  -0.21539635794853967  -1.3302361879760614  -2.1333787322108178  
-0.43676250916807147  1.1392736919914364  -0.2690880118534761  -1.149031791059906  1.1834869211310115  0.8487105719819499  0.14857594286321724  1.7443910710575647  0.13172180846835538  0.5332763375072679  0.5369735474058019  -0.3162690634638598  -0.14685795030011942  -1.8984971880305432  1.5107914426164808  1.6011860710326276  -0.7609198932021422  0.25273241483837594  -1.1175438772839157  1.5004565471920979  0.7962655012244496  -1.5734292333748998  -1.124812158888346  0.8516764762552634  -1.5592199508628433  2.146490615810566  -1.135445962993782  1.0437004755215016  0.9282809531143588  0.6931180500256788  -1.5114035898615648  1.7449193386359005  0.011931947254178283  -1.6828086636740067  -0.5456092012250585  1.9994960124936831  -1.18184119085646  -1.739801098230666  1.7399769514702133  1.9840170774279118  -1.8890966368756585  1.5456240102371477  -1.1928240008436788  -2.1889094927202444  -0.771423751390598  0.27136653329797433  -1.175582373734086  2.172617566717707  -2.1957463736059815  1.3328489426849774  1.260580094512245  -1.193318915797736  -0.027400952264517563  -0.47767985040102867  -0.024390397852857293  -1.2174525717978288  -2.5133182859687517  0.6368930088604445  0.5939625587141895  -0.1727110562831607  -0.5002511558226161  -1.4044796240693695  -2.061003630292017  -0.33840970326123315  2.0250873827938625  -0.15555496342765998  -1.6400733762917474  0.9048952157227641  -1.7543268696591547  0.21581456008782984  0.7154392641775563  1.737367798560251  0.8571629904151168  -1.7546484968940572  -1.5571671391656998  -0.2262228902076649  0.9032935780002649  -0.21539635794853967  -1.3302361879760614  -2.1333787322108178  
-0.43676250916807147  1.1392736919914364  -0.2690880118534761  -1.149031791059906  1.1834869211310115  0.8487105719819499  0.14857594286321724  1.7443910710575647  0.13172180846835538  0.5332763375072679  0.5369735474058019  -0.3162690634638598  -0.14685795030011942  -1.8984971880305432  1.5107914426164808  1.6011860710326276  -0.7609198932021422  0.25273241483837594  -1.1175438772839157  1.5004565471920979  0.7962655012244496  -1.5734292333748998  -1.124812158888346  0.8516764762552634  -1.5592199508628433  2.146490615810566  -1.135445962993782  1.0437004755215016  0.9282809531143588  0.6931180500256788  -1.5114035898615648  1.7449193386359005  0.011931947254178283  -1.6828086636740067  -0.5456092012250585  1.9994960124936831  -1.18184119085646  -1.739801098230666  1.7399769514702133  1.9840170774279118  -1.8890966368756585  1.5456240102371477  -1.1928240008436788  -2.1889094927202444  -0.771423751390598  0.27136653329797433  -1.175582373734086  2.172617566717707  -2.1957463736059815  1.3328489426849774  1.260580094512245  -1.193318915797736  -0.027400952264517563  -0.47767985040102867  -0.024390397852857293  -1.2174525717978288  -2.5133182859687517  0.6368930088604445  0.5939625587141895  -0.1727110562831607  -0.5002511558226161  -1.4044796240693695  -2.061003630292017  -0.33840970326123315  2.0250873827938625  -0.15555496342765998  -1.6400733762917474  0.9048952157227641  -1.7543268696591547  0.21581456008782984  0.7154392641775563  1.737367798560251  0.8571629904151168  -1.7546484968940572  -1.5571671391656998  -0.2262228902076649  0.9032935780002649  -0.21539635794853967  -1.3302361879760614  -2.1333787322108178  
-0.43676250916807147  1.1392736919914364  -0.2690880118534761  -1.149031791059906  1.1834869211310115  0.8487105719819499  0.14857594286321724  1.7443910710575647  0.13172180846835538  0.5332763375072679  0.5369735474058019  -0.3162690634638598  -0.14685795030011942  -1.8984971880305432  1.5107914426164808  1.6011860710326276  -0.7609198932021422  0.25273241483837594  -1.1175438772839157  1.5004565471920979  0.7962655012244496  -1.5734292333748998  -1.124812158888346  0.8516764762552634  -1.5592199508628433  2.146490615810566  -1.135445962993782  1.0437004755215016  0.9282809531143588  0.6931180500256788  -1.5114035898615648  1.7449193386359005  0.011931947254178283  -1.6828086636740067  -0.5456092012250585  1.9994960124936831  -1.18184119085646  -1.739801098230666  1.7399769514702133  1.9840170774279118  -1.8890966368756585  1.5456240102371477  -1.1928240008436788  -2.1889094927202444  -0.771423751390598  0.27136653329797433  -1.175582373734086  2.172617566717707  -2.1957463736059815  1.3328489426849774  1.260580094512245  -1.193318915797736  -0.027400952264517563  -0.47767985040102867  -0.024390397852857293  -1.2174525717978288  -2.5133182859687517  0.6368930088604445  0.5939625587141895  -0.1727110562831607  -0.5002511558226161  -1.4044796240693695  -2.061003630292017  -0.33840970326123315  2.0250873827938625  -0.15555496342765998  -1.6400733762917474  0.9048952157227641  -1.7543268696591547  0.21581456008782984  0.7154392641775563  1.737367798560251  0.8571629904151168  -1.7546484968940572  -1.5571671391656998  -0.2262228902076649  0.9032935780002649  -0.21539635794853967  -1.3302361879760614  -2.1333787322108178  
-0.43676250916807147  1.1392736919914364  -0.2690880118534761  -1.149031791059906  1.1834869211310115  0.8487105719819499  0.14857594286321724  1.7443910710575647  0.13172180846835538  0.5332763375072679  0.5369735474058019  -0.3162690634638598  -0.14685795030011942  -1.8984971880305432  1.5107914426164808  1.6011860710326276  -0.7609198932021422  0.25273241483837594  -1.1175438772839157  1.5004565471920979  0.7962655012244496  -1.5734292333748998  -1.124812158888346  0.8516764762552634  -1.5592199508628433  2.146490615810566  -1.135445962993782  1.0437004755215016  0.9282809531143588  0.6931180500256788  -1.5114035898615648  1.7449193386359005  0.011931947254178283  -1.6828086636740067  -0.5456092012250585  1.9994960124936831  -1.18184119085646  -1.739801098230666  1.7399769514702133  1.9840170774279118  -1.8890966368756585  1.5456240102371477  -1.1928240008436788  -2.1889094927202444  -0.771423751390598  0.27136653329797433  -1.175582373734086  2.172617566717707  -2.1957463736059815  1.3328489426849774  1.260580094512245  -1.193318915797736  -0.027400952264517563  -0.47767985040102867  -0.024390397852857293  -1.2174525717978288  -2.5133182859687517  0.6368930088604445  0.5939625587141895  -0.1727110562831607  -0.5002511558226161  -1.4044796240693695  -2.061003630292017  -0.33840970326123315  2.0250873827938625  -0.15555496342765998  -1.6400733762917474  0.9048952157227641  -1.7543268696591547  0.21581456008782984  0.7154392641775563  1.737367798560251  0.8571629904151168  -1.7546484968940572  -1.5571671391656998  -0.2262228902076649  0.9032935780002649  -0.21539635794853967  -1.3302361879760614  -2.1333787322108178  
-0.43676250916807147  1.1392736919914364  -0.2690880118534761  -1.149031791059906  1.1834869211310115  0.8487105719819499  0.14857594286321724  1.7443910710575647  0.13172180846835538  0.5332763375072679  0.5369735474058019  -0.3162690634638598  -0.14685795030011942  -1.8984971880305432  1.5107914426164808  1.6011860710326276  -0.7609198932021422  0.25273241483837594  -1.1175438772839157  1.5004565471920979  0.7962655012244496  -1.5734292333748998  -1.124812158888346  0.8516764762552634  -1.5592199508628433  2.146490615810566  -1.135445962993782  1.0437004755215016  0.9282809531143588  0.6931180500256788  -1.5114035898615648  1.7449193386359005  0.011931947254178283  -1.6828086636740067  -0.5456092012250585  1.9994960124936831  -1.18184119085646  -1.739801098230666  1.7399769514702133  1.9840170774279118  -1.8890966368756585  1.5456240102371477  -1.1928240008436788  -2.1889094927202444  -0.771423751390598  0.27136653329797433  -1.175582373734086  2.172617566717707  -2.1957463736059815  1.3328489426849774  1.260580094512245  -1.193318915797736  -0.027400952264517563  -0.47767985040102867  -0.024390397852857293  -1.2174525717978288  -2.5133182859687517  0.6368930088604445  0.5939625587141895  -0.1727110562831607  -0.5002511558226161  -1.4044796240693695  -2.061003630292017  -0.33840970326123315  2.0250873827938625  -0.15555496342765998  -1.6400733762917474  0.9048952157227641  -1.7543268696591547  0.21581456008782984  0.7154392641775563  1.737367798560251  0.8571629904151168  -1.7546484968940572  -1.5571671391656998  -0.2262228902076649  0.9032935780002649  -0.21539635794853967  -1.3302361879760614  -2.1333787322108178  
-0.43676250916807147  1.1392736919914364  -0.2690880118534761  -1.149031791059906  1.1834869211310115  0.8487105719819499  0.14857594286321724  1.7443910710575647  0.13172180846835538  0.5332763375072679  0.5369735474058019  -0.3162690634638598  -0.14685795030011942  -1.8984971880305432  1.5107914426164808  1.6011860710326276  -0.7609198932021422  0.25273241483837594  -1.1175438772839157  1.5004565471920979  0.7962655012244496  -1.5734292333748998  -1.124812158888346  0.8516764762552634  -1.5592199508628433  2.146490615810566  -1.135445962993782  1.0437004755215016  0.9282809531143588  0.6931180500256788  -1.5114035898615648  1.7449193386359005  0.011931947254178283  -1.6828086636740067  -0.5456092012250585  1.9994960124936831  -1.18184119085646  -1.739801098230666  1.7399769514702133  1.9840170774279118  -1.8890966368756585  1.5456240102371477  -1.1928240008436788  -2.1889094927202444  -0.771423751390598  0.27136653329797433  -1.175582373734086  2.172617566717707  -2.1957463736059815  1.3328489426849774  1.260580094512245  -1.193318915797736  -0.027400952264517563  -0.47767985040102867  -0.024390397852857293  -1.2174525717978288  -2.5133182859687517  0.6368930088604445  0.5939625587141895  -0.1727110562831607  -0.5002511558226161  -1.4044796240693695  -2.061003630292017  -0.33840970326123315  2.0250873827938625  -0.15555496342765998  -1.6400733762917474  0.9048952157227641  -1.7543268696591547  0.21581456008782984  0.7154392641775563  1.737367798560251  0.8571629904151168  -1.7546484968940572  -1.5571671391656998  -0.2262228902076649  0.9032935780002649  -0.21539635794853967  -1.3302361879760614  -2.1333787322108178  
-0.43676250916807147  1.1392736919914364  -0.2690880118534761  -1.149031791059906  1.1834869211310115  0.8487105719819499  0.14857594286321724  1.7443910710575647  0.13172180846835538  0.5332763375072679  0.5369735474058019  -0.3162690634638598  -0.14685795030011942  -1.8984971880305432  1.5107914426164808  1.6011860710326276  -0.7609198932021422  0.25273241483837594  -1.1175438772839157  1.5004565471920979  0.7962655012244496  -1.5734292333748998  -1.124812158888346  0.8516764762552634  -1.5592199508628433  2.146490615810566  -1.135445962993782  1.0437004755215016  0.9282809531143588  0.6931180500256788  -1.5114035898615648  1.7449193386359005  0.011931947254178283  -1.6828086636740067  -0.5456092012250585  1.9994960124936831  -1.18184119085646  -1.739801098230666  1.7399769514702133  1.9840170774279118  -1.8890966368756585  1.5456240102371477  -1.1928240008436788  -2.1889094927202444  -0.771423751390598  0.27136653329797433  -1.175582373734086  2.172617566717707  -2.1957463736059815  1.3328489426849774  1.260580094512245  -1.193318915797736  -0.027400952264517563  -0.47767985040102867  -0.024390397852857293  -1.2174525717978288  -2.5133182859687517  0.6368930088604445  0.5939625587141895  -0.1727110562831607  -0.5002511558226161  -1.4044796240693695  -2.061003630292017  -0.33840970326123315  2.0250873827938625  -0.15555496342765998  -1.6400733762917474  0.9048952157227641  -1.7543268696591547  0.21581456008782984  0.7154392641775563  1.737367798560251  0.8571629904151168  -1.7546484968940572  -1.5571671391656998  -0.2262228902076649  0.9032935780002649  -0.21539635794853967  -1.3302361879760614  -2.1333787322108178  
-0.43676250916807147  1.1392736919914364  -0.2690880118534761  -1.149031791059906  1.1834869211310115  0.8487105719819499  0.14857594286321724  1.7443910710575647  0.13172180846835538  0.5332763375072679  0.5369735474058019  -0.3162690634638598  -0.14685795030011942  -1.8984971880305432  1.5107914426164808  1.6011860710326276  -0.7609198932021422  0.25273241483837594  -1.1175438772839157  1.5004565471920979  0.7962655012244496  -1.5734292333748998  -1.124812158888346  0.8516764762552634  -1.5592199508628433  2.146490615810566  -1.135445962993782  1.0437004755215016  0.9282809531143588  0.6931180500256788  -1.5114035898615648  1.7449193386359005  0.011931947254178283  -1.6828086636740067  -0.5456092012250585  1.9994960124936831  -1.18184119085646  -1.739801098230666  1.7399769514702133  1.9840170774279118  -1.8890966368756585  1.5456240102371477  -1.1928240008436788  -2.1889094927202444  -0.771423751390598  0.27136653329797433  -1.175582373734086  2.172617566717707  -2.1957463736059815  1.3328489426849774  1.260580094512245  -1.193318915797736  -0.027400952264517563  -0.47767985040102867  -0.024390397852857293  -1.2174525717978288  -2.5133182859687517  0.6368930088604445  0.5939625587141895  -0.1727110562831607  -0.5002511558226161  -1.4044796240693695  -2.061003630292017  -0.33840970326123315  2.0250873827938625  -0.15555496342765998  -1.6400733762917474  0.9048952157227641  -1.7543268696591547  0.21581456008782984  0.7154392641775563  1.737367798560251  0.8571629904151168  -1.7546484968940572  -1.5571671391656998  -0.2262228902076649  0.9032935780002649  -0.21539635794853967  -1.3302361879760614  -2.1333787322108178  
-0.43676250916807147  1.1392736919914364  -0.2690880118534761  -1.149031791059906  1.1834869211310115  0.8487105719819499  0.14857594286321724  1.7443910710575647  0.13172180846835538  0.5332763375072679  0.5369735474058019  -0.3162690634638598  -0.14685795030011942  -1.8984971880305432  1.5107914426164808  1.6011860710326276  -0.7609198932021422  0.25273241483837594  -1.1175438772839157  1.5004565471920979  0.7962655012244496  -1.5734292333748998  -1.124812158888346  0.8516764762552634  -1.5592199508628433  2.146490615810566  -1.135445962993782  1.0437004755215016  0.9282809531143588  0.6931180500256788  -1.5114035898615648  1.7449193386359005  0.011931947254178283  -1.6828086636740067  -0.5456092012250585  1.9994960124936831  -1.18184119085646  -1.739801098230666  1.7399769514702133  1.9840170774279118  -1.8890966368756585  1.5456240102371477  -1.1928240008436788  -2.1889094927202444  -0.771423751390598  0.27136653329797433  -1.175582373734086  2.172617566717707  -2.1957463736059815  1.3328489426849774  1.260580094512245  -1.193318915797736  -0.027400952264517563  -0.47767985040102867  -0.024390397852857293  -1.2174525717978288  -2.5133182859687517  0.6368930088604445  0.5939625587141895  -0.1727110562831607  -0.5002511558226161  -1.4044796240693695  -2.061003630292017  -0.33840970326123315  2.0250873827938625  -0.15555496342765998  -1.6400733762917474  0.9048952157227641  -1.7543268696591547  0.21581456008782984  0.7154392641775563  1.737367798560251  0.8571629904151168  -1.7546484968940572  -1.5571671391656998  -0.2262228902076649  0.9032935780002649  -0.21539635794853967  -1.3302361879760614  -2.1333787322108178  
-0.43676250916807147  1.1392736919914364  -0.2690880118534761  -1.149031791059906  1.1834869211310115  0.8487105719819499  0.14857594286321724  1.7443910710575647  0.13172180846835538  0.5332763375072679  0.5369735474058019  -0.3162690634638598  -0.14685795030011942  -1.8984971880305432  1.5107914426164808  1.6011860710326276  -0.7609198932021422  0.25273241483837594  -1.1175438772839157  1.5004565471920979  0.7962655012244496  -1.5734292333748998  -1.124812158888346  0.8516764762552634  -1.5592199508628433  2.146490615810566  -1.135445962993782  1.0437004755215016  0.9282809531143588  0.6931180500256788  -1.5114035898615648  1.7449193386359005  0.011931947254178283  -1.6828086636740067  -0.5456092012250585  1.9994960124936831  -1.18184119085646  -1.739801098230666  1.7399769514702133  1.9840170774279118  -1.8890966368756585  1.5456240102371477  -1.1928240008436788  -2.1889094927202444  -0.771423751390598  0.27136653329797433  -1.175582373734086  2.172617566717707  -2.1957463736059815  1.3328489426849774  1.260580094512245  -1.193318915797736  -0.027400952264517563  -0.47767985040102867  -0.024390397852857293  -1.2174525717978288  -2.5133182859687517  0.6368930088604445  0.5939625587141895  -0.1727110562831607  -0.5002511558226161  -1.4044796240693695  -2.061003630292017  -0.33840970326123315  2.0250873827938625  -0.15555496342765998  -1.6400733762917474  0.9048952157227641  -1.7543268696591547  0.21581456008782984  0.7154392641775563  1.737367798560251  0.8571629904151168  -1.7546484968940572  -1.5571671391656998  -0.2262228902076649  0.9032935780002649  -0.21539635794853967  -1.3302361879760614  -2.1333787322108178  
-0.43676250916807147  1.1392736919914364  -0.2690880118534761  -1.149031791059906  1.1834869211310115  0.8487105719819499  0.14857594286321724  1.7443910710575647  0.13172180846835538  0.5332763375072679  0.5369735474058019  -0.3162690634638598  -0.14685795030011942  -1.8984971880305432  1.5107914426164808  1.6011860710326276  -0.7609198932021422  0.25273241483837594  -1.1175438772839157  1.5004565471920979  0.7962655012244496  -1.5734292333748998  -1.124812158888346  0.8516764762552634  -1.5592199508628433  2.146490615810566  -1.135445962993782  1.0437004755215016  0.9282809531143588  0.6931180500256788  -1.5114035898615648  1.7449193386359005  0.011931947254178283  -1.6828086636740067  -0.5456092012250585  1.9994960124936831  -1.18184119085646  -1.739801098230666  1.7399769514702133  1.9840170774279118  -1.8890966368756585  1.5456240102371477  -1.1928240008436788  -2.1889094927202444  -0.771423751390598  0.27136653329797433  -1.175582373734086  2.172617566717707  -2.1957463736059815  1.3328489426849774  1.260580094512245  -1.193318915797736  -0.027400952264517563  -0.47767985040102867  -0.024390397852857293  -1.2174525717978288  -2.5133182859687517  0.6368930088604445  0.5939625587141895  -0.1727110562831607  -0.5002511558226161  -1.4044796240693695  -2.061003630292017  -0.33840970326123315  2.0250873827938625  -0.15555496342765998  -1.6400733762917474  0.9048952157227641  -1.7543268696591547  0.21581456008782984  0.7154392641775563  1.737367798560251  0.8571629904151168  -1.7546484968940572  -1.5571671391656998  -0.2262228902076649  0.9032935780002649  -0.21539635794853967  -1.3302361879760614  -2.1333787322108178  
-0.43676250916807147  1.1392736919914364  -0.2690880118534761  -1.149031791059906  1.1834869211310115  0.8487105719819499  0.14857594286321724  1.7443910710575647  0.13172180846835538  0.5332763375072679  0.5369735474058019  -0.3162690634638598  -0.14685795030011942  -1.8984971880305432  1.5107914426164808  1.6011860710326276  -0.7609198932021422  0.25273241483837594  -1.1175438772839157  1.5004565471920979  0.7962655012244496  -1.5734292333748998  -1.124812158888346  0.8516764762552634  -1.5592199508628433  2.146490615810566  -1.135445962993782  1.0437004755215016  0.9282809531143588  0.6931180500256788  -1.5114035898615648  1.7449193386359005  0.011931947254178283  -1.6828086636740067  -0.5456092012250585  1.9994960124936831  -1.18184119085646  -1.739801098230666  1.7399769514702133  1.9840170774279118  -1.8890966368756585  1.5456240102371477  -1.1928240008436788  -2.1889094927202444  -0.771423751390598  0.27136653329797433  -1.175582373734086  2.172617566717707  -2.1957463736059815  1.3328489426849774  1.260580094512245  -1.193318915797736  -0.027400952264517563  -0.47767985040102867  -0.024390397852857293  -1.2174525717978288  -2.5133182859687517  0.6368930088604445  0.5939625587141895  -0.1727110562831607  -0.5002511558226161  -1.4044796240693695  -2.061003630292017  -0.33840970326123315  2.0250873827938625  -0.15555496342765998  -1.6400733762917474  0.9048952157227641  -1.7543268696591547  0.21581456008782984  0.7154392641775563  1.737367798560251  0.8571629904151168  -1.7546484968940572  -1.5571671391656998  -0.2262228902076649  0.9032935780002649  -0.21539635794853967  -1.3302361879760614  -2.1333787322108178  
-0.43676250916807147  1.1392736919914364  -0.2690880118534761  -1.149031791059906  1.1834869211310115  0.8487105719819499  0.14857594286321724  1.7443910710575647  0.13172180846835538  0.5332763375072679  0.5369735474058019  -0.3162690634638598  -0.14685795030011942  -1.8984971880305432  1.5107914426164808  1.6011860710326276  -0.7609198932021422  0.25273241483837594  -1.1175438772839157  1.5004565471920979  0.7962655012244496  -1.5734292333748998  -1.124812158888346  0.8516764762552634  -1.5592199508628433  2.146490615810566  -1.135445962993782  1.0437004755215016  0.9282809531143588  0.6931180500256788  -1.5114035898615648  1.7449193386359005  0.011931947254178283  -1.6828086636740067  -0.5456092012250585  1.9994960124936831  -1.18184119085646  -1.739801098230666  1.7399769514702133  1.9840170774279118  -1.8890966368756585  1.5456240102371477  -1.1928240008436788  -2.1889094927202444  -0.771423751390598  0.27136653329797433  -1.175582373734086  2.172617566717707  -2.1957463736059815  1.3328489426849774  1.260580094512245  -1.193318915797736  -0.027400952264517563  -0.47767985040102867  -0.024390397852857293  -1.2174525717978288  -2.5133182859687517  0.6368930088604445  0.5939625587141895  -0.1727110562831607  -0.5002511558226161  -1.4044796240693695  -2.061003630292017  -0.33840970326123315  2.0250873827938625  -0.15555496342765998  -1.6400733762917474  0.9048952157227641  -1.7543268696591547  0.21581456008782984  0.7154392641775563  1.737367798560251  0.8571629904151168  -1.7546484968940572  -1.5571671391656998  -0.2262228902076649  0.9032935780002649  -0.21539635794853967  -1.3302361879760614  -2.1333787322108178  
-0.43676250916807147  1.1392736919914364  -0.2690880118534761  -1.149031791059906  1.1834869211310115  0.8487105719819499  0.14857594286321724  1.7443910710575647  0.13172180846835538  0.5332763375072679  0.5369735474058019  -0.3162690634638598  -0.14685795030011942  -1.8984971880305432  1.5107914426164808  1.6011860710326276  -0.7609198932021422  0.25273241483837594  -1.1175438772839157  1.5004565471920979  0.7962655012244496  -1.5734292333748998  -1.124812158888346  0.8516764762552634  -1.5592199508628433  2.146490615810566  -1.135445962993782  1.0437004755215016  0.9282809531143588  0.6931180500256788  -1.5114035898615648  1.7449193386359005  0.011931947254178283  -1.6828086636740067  -0.5456092012250585  1.9994960124936831  -1.18184119085646  -1.739801098230666  1.7399769514702133  1.9840170774279118  -1.8890966368756585  1.5456240102371477  -1.1928240008436788  -2.1889094927202444  -0.771423751390598  0.27136653329797433  -1.175582373734086  2.172617566717707  -2.1957463736059815  1.3328489426849774  1.260580094512245  -1.193318915797736  -0.027400952264517563  -0.47767985040102867  -0.024390397852857293  -1.2174525717978288  -2.5133182859687517  0.6368930088604445  0.5939625587141895  -0.1727110562831607  -0.5002511558226161  -1.4044796240693695  -2.061003630292017  -0.33840970326123315  2.0250873827938625  -0.15555496342765998  -1.6400733762917474  0.9048952157227641  -1.7543268696591547  0.21581456008782984  0.7154392641775563  1.737367798560251  0.8571629904151168  -1.7546484968940572  -1.5571671391656998  -0.2262228902076649  0.9032935780002649  -0.21539635794853967  -1.3302361879760614  -2.1333787322108178  
-0.43676250916807147  1.1392736919914364  -0.2690880118534761  -1.149031791059906  1.1834869211310115  0.8487105719819499  0.14857594286321724  1.7443910710575647  0.13172180846835538  0.5332763375072679  0.5369735474058019  -0.3162690634638598  -0.14685795030011942  -1.8984971880305432  1.5107914426164808  1.6011860710326276  -0.7609198932021422  0.25273241483837594  -1.1175438772839157  1.5004565471920979  0.7962655012244496  -1.5734292333748998  -1.124812158888346  0.8516764762552634  -1.5592199508628433  2.146490615810566  -1.135445962993782  1.0437004755215016  0.9282809531143588  0.6931180500256788  -1.5114035898615648  1.7449193386359005  0.011931947254178283  -1.6828086636740067  -0.5456092012250585  1.9994960124936831  -1.18184119085646  -1.739801098230666  1.7399769514702133  1.9840170774279118  -1.8890966368756585  1.5456240102371477  -1.1928240008436788  -2.1889094927202444  -0.771423751390598  0.27136653329797433  -1.175582373734086  2.172617566717707  -2.1957463736059815  1.3328489426849774  1.260580094512245  -1.193318915797736  -0.027400952264517563  -0.47767985040102867  -0.024390397852857293  -1.2174525717978288  -2.5133182859687517  0.6368930088604445  0.5939625587141895  -0.1727110562831607  -0.5002511558226161  -1.4044796240693695  -2.061003630292017  -0.33840970326123315  2.0250873827938625  -0.15555496342765998  -1.6400733762917474  0.9048952157227641  -1.7543268696591547  0.21581456008782984  0.7154392641775563  1.737367798560251  0.8571629904151168  -1.7546484968940572  -1.5571671391656998  -0.2262228902076649  0.9032935780002649  -0.21539635794853967  -1.3302361879760614  -2.1333787322108178  
-0.43676250916807147  1.1392736919914364  -0.2690880118534761  -1.149031791059906  1.1834869211310115  0.8487105719819499  0.14857594286321724  1.7443910710575647  0.13172180846835538  0.5332763375072679  0.5369735474058019  -0.3162690634638598  -0.14685795030011942  -1.8984971880305432  1.5107914426164808  1.6011860710326276  -0.7609198932021422  0.25273241483837594  -1.1175438772839157  1.5004565471920979  0.7962655012244496  -1.5734292333748998  -1.124812158888346  0.8516764762552634  -1.5592199508628433  2.146490615810566  -1.135445962993782  1.0437004755215016  0.9282809531143588  0.6931180500256788  -1.5114035898615648  1.7449193386359005  0.011931947254178283  -1.6828086636740067  -0.5456092012250585  1.9994960124936831  -1.18184119085646  -1.739801098230666  1.7399769514702133  1.9840170774279118  -1.8890966368756585  1.5456240102371477  -1.1928240008436788  -2.1889094927202444  -0.771423751390598  0.27136653329797433  -1.175582373734086  2.172617566717707  -2.1957463736059815  1.3328489426849774  1.260580094512245  -1.193318915797736  -0.027400952264517563  -0.47767985040102867  -0.024390397852857293  -1.2174525717978288  -2.5133182859687517  0.6368930088604445  0.5939625587141895  -0.1727110562831607  -0.5002511558226161  -1.4044796240693695  -2.061003630292017  -0.33840970326123315  2.0250873827938625  -0.15555496342765998  -1.6400733762917474  0.9048952157227641  -1.7543268696591547  0.21581456008782984  0.7154392641775563  1.737367798560251  0.8571629904151168  -1.7546484968940572  -1.5571671391656998  -0.2262228902076649  0.9032935780002649  -0.21539635794853967  -1.3302361879760614  -2.1333787322108178  
-0.43676250916807147  1.1392736919914364  -0.2690880118534761  -1.149031791059906  1.1834869211310115  0.8487105719819499  0.14857594286321724  1.7443910710575647  0.13172180846835538  0.5332763375072679  0.5369735474058019  -0.3162690634638598  -0.14685795030011942  -1.8984971880305432  1.5107914426164808  1.6011860710326276  -0.7609198932021422  0.25273241483837594  -1.1175438772839157  1.5004565471920979  0.7962655012244496  -1.5734292333748998  -1.124812158888346  0.8516764762552634  -1.5592199508628433  2.146490615810566  -1.135445962993782  1.0437004755215016  0.9282809531143588  0.6931180500256788  -1.5114035898615648  1.7449193386359005  0.011931947254178283  -1.6828086636740067  -0.5456092012250585  1.9994960124936831  -1.18184119085646  -1.739801098230666  1.7399769514702133  1.9840170774279118  -1.8890966368756585  1.5456240102371477  -1.1928240008436788  -2.1889094927202444  -0.771423751390598  0.27136653329797433  -1.175582373734086  2.172617566717707  -2.1957463736059815  1.3328489426849774  1.260580094512245  -1.193318915797736  -0.027400952264517563  -0.47767985040102867  -0.024390397852857293  -1.2174525717978288  -2.5133182859687517  0.6368930088604445  0.5939625587141895  -0.1727110562831607  -0.5002511558226161  -1.4044796240693695  -2.061003630292017  -0.33840970326123315  2.0250873827938625  -0.15555496342765998  -1.6400733762917474  0.9048952157227641  -1.7543268696591547  0.21581456008782984  0.7154392641775563  1.737367798560251  0.8571629904151168  -1.7546484968940572  -1.5571671391656998  -0.2262228902076649  0.9032935780002649  -0.21539635794853967  -1.3302361879760614  -2.1333787322108178  
-0.43676250916807147  1.1392736919914364  -0.2690880118534761  -1.149031791059906  1.1834869211310115  0.8487105719819499  0.14857594286321724  1.7443910710575647  0.13172180846835538  0.5332763375072679  0.5369735474058019  -0.3162690634638598  -0.14685795030011942  -1.8984971880305432  1.5107914426164808  1.6011860710326276  -0.7609198932021422  0.25273241483837594  -1.1175438772839157  1.5004565471920979  0.7962655012244496  -1.5734292333748998  -1.124812158888346  0.8516764762552634  -1.5592199508628433  2.146490615810566  -1.135445962993782  1.0437004755215016  0.9282809531143588  0.6931180500256788  -1.5114035898615648  1.7449193386359005  0.011931947254178283  -1.6828086636740067  -0.5456092012250585  1.9994960124936831  -1.18184119085646  -1.739801098230666  1.7399769514702133  1.9840170774279118  -1.8890966368756585  1.5456240102371477  -1.1928240008436788  -2.1889094927202444  -0.771423751390598  0.27136653329797433  -1.175582373734086  2.172617566717707  -2.1957463736059815  1.3328489426849774  1.260580094512245  -1.193318915797736  -0.027400952264517563  -0.47767985040102867  -0.024390397852857293  -1.2174525717978288  -2.5133182859687517  0.6368930088604445  0.5939625587141895  -0.1727110562831607  -0.5002511558226161  -1.4044796240693695  -2.061003630292017  -0.33840970326123315  2.0250873827938625  -0.15555496342765998  -1.6400733762917474  0.9048952157227641  -1.7543268696591547  0.21581456008782984  0.7154392641775563  1.737367798560251  0.8571629904151168  -1.7546484968940572  -1.5571671391656998  -0.2262228902076649  0.9032935780002649  -0.21539635794853967  -1.3302361879760614  -2.1333787322108178  
-0.43676250916807147  1.1392736919914364  -0.2690880118534761  -1.149031791059906  1.1834869211310115  0.8487105719819499  0.14857594286321724  1.7443910710575647  0.13172180846835538  0.5332763375072679  0.5369735474058019  -0.3162690634638598  -0.14685795030011942  -1.8984971880305432  1.5107914426164808  1.6011860710326276  -0.7609198932021422  0.25273241483837594  -1.1175438772839157  1.5004565471920979  0.7962655012244496  -1.5734292333748998  -1.124812158888346  0.8516764762552634  -1.5592199508628433  2.146490615810566  -1.135445962993782  1.0437004755215016  0.9282809531143588  0.6931180500256788  -1.5114035898615648  1.7449193386359005  0.011931947254178283  -1.6828086636740067  -0.5456092012250585  1.9994960124936831  -1.18184119085646  -1.739801098230666  1.7399769514702133  1.9840170774279118  -1.8890966368756585  1.5456240102371477  -1.1928240008436788  -2.1889094927202444  -0.771423751390598  0.27136653329797433  -1.175582373734086  2.172617566717707  -2.1957463736059815  1.3328489426849774  1.260580094512245  -1.193318915797736  -0.027400952264517563  -0.47767985040102867  -0.024390397852857293  -1.2174525717978288  -2.5133182859687517  0.6368930088604445  0.5939625587141895  -0.1727110562831607  -0.5002511558226161  -1.4044796240693695  -2.061003630292017  -0.33840970326123315  2.0250873827938625  -0.15555496342765998  -1.6400733762917474  0.9048952157227641  -1.7543268696591547  0.21581456008782984  0.7154392641775563  1.737367798560251  0.8571629904151168  -1.7546484968940572  -1.5571671391656998  -0.2262228902076649  0.9032935780002649  -0.21539635794853967  -1.3302361879760614  -2.1333787322108178  
-0.43676250916807147  1.1392736919914364  -0.2690880118534761  -1.149031791059906  1.1834869211310115  0.8487105719819499  0.14857594286321724  1.7443910710575647  0.13172180846835538  0.5332763375072679  0.5369735474058019  -0.3162690634638598  -0.14685795030011942  -1.8984971880305432  1.5107914426164808  1.6011860710326276  -0.7609198932021422  0.25273241483837594  -1.1175438772839157  1.5004565471920979  0.7962655012244496  -1.5734292333748998  -1.124812158888346  0.8516764762552634  -1.5592199508628433  2.146490615810566  -1.135445962993782  1.0437004755215016  0.9282809531143588  0.6931180500256788  -1.5114035898615648  1.7449193386359005  0.011931947254178283  -1.6828086636740067  -0.5456092012250585  1.9994960124936831  -1.18184119085646  -1.739801098230666  1.7399769514702133  1.9840170774279118  -1.8890966368756585  1.5456240102371477  -1.1928240008436788  -2.1889094927202444  -0.771423751390598  0.27136653329797433  -1.175582373734086  2.172617566717707  -2.1957463736059815  1.3328489426849774  1.260580094512245  -1.193318915797736  -0.027400952264517563  -0.47767985040102867  -0.024390397852857293  -1.2174525717978288  -2.5133182859687517  0.6368930088604445  0.5939625587141895  -0.1727110562831607  -0.5002511558226161  -1.4044796240693695  -2.061003630292017  -0.33840970326123315  2.0250873827938625  -0.15555496342765998  -1.6400733762917474  0.9048952157227641  -1.7543268696591547  0.21581456008782984  0.7154392641775563  1.737367798560251  0.8571629904151168  -1.7546484968940572  -1.5571671391656998  -0.2262228902076649  0.9032935780002649  -0.21539635794853967  -1.3302361879760614  -2.1333787322108178  
-0.43676250916807147  1.1392736919914364  -0.2690880118534761  -1.149031791059906  1.1834869211310115  0.8487105719819499  0.14857594286321724  1.7443910710575647  0.13172180846835538  0.5332763375072679  0.5369735474058019  -0.3162690634638598  -0.14685795030011942  -1.8984971880305432  1.5107914426164808  1.6011860710326276  -0.7609198932021422  0.25273241483837594  -1.1175438772839157  1.5004565471920979  0.7962655012244496  -1.5734292333748998  -1.124812158888346  0.8516764762552634  -1.5592199508628433  2.146490615810566  -1.135445962993782  1.0437004755215016  0.9282809531143588  0.6931180500256788  -1.5114035898615648  1.7449193386359005  0.011931947254178283  -1.6828086636740067  -0.5456092012250585  1.9994960124936831  -1.18184119085646  -1.739801098230666  1.7399769514702133  1.9840170774279118  -1.8890966368756585  1.5456240102371477  -1.1928240008436788  -2.1889094927202444  -0.771423751390598  0.27136653329797433  -1.175582373734086  2.172617566717707  -2.1957463736059815  1.3328489426849774  1.260580094512245  -1.193318915797736  -0.027400952264517563  -0.47767985040102867  -0.024390397852857293  -1.2174525717978288  -2.5133182859687517  0.6368930088604445  0.5939625587141895  -0.1727110562831607  -0.5002511558226161  -1.4044796240693695  -2.061003630292017  -0.33840970326123315  2.0250873827938625  -0.15555496342765998  -1.6400733762917474  0.9048952157227641  -1.7543268696591547  0.21581456008782984  0.7154392641775563  1.737367798560251  0.8571629904151168  -1.7546484968940572  -1.5571671391656998  -0.2262228902076649  0.9032935780002649  -0.21539635794853967  -1.3302361879760614  -2.1333787322108178  
-0.43676250916807147  1.1392736919914364  -0.2690880118534761  -1.149031791059906  1.1834869211310115  0.8487105719819499  0.14857594286321724  1.7443910710575647  0.13172180846835538  0.5332763375072679  0.5369735474058019  -0.3162690634638598  -0.14685795030011942  -1.8984971880305432  1.5107914426164808  1.6011860710326276  -0.7609198932021422  0.25273241483837594  -1.1175438772839157  1.5004565471920979  0.7962655012244496  -1.5734292333748998  -1.124812158888346  0.8516764762552634  -1.5592199508628433  2.146490615810566  -1.135445962993782  1.0437004755215016  0.9282809531143588  0.6931180500256788  -1.5114035898615648  1.7449193386359005  0.011931947254178283  -1.6828086636740067  -0.5456092012250585  1.9994960124936831  -1.18184119085646  -1.739801098230666  1.7399769514702133  1.9840170774279118  -1.8890966368756585  1.5456240102371477  -1.1928240008436788  -2.1889094927202444  -0.771423751390598  0.27136653329797433  -1.175582373734086  2.172617566717707  -2.1957463736059815  1.3328489426849774  1.260580094512245  -1.193318915797736  -0.027400952264517563  -0.47767985040102867  -0.024390397852857293  -1.2174525717978288  -2.5133182859687517  0.6368930088604445  0.5939625587141895  -0.1727110562831607  -0.5002511558226161  -1.4044796240693695  -2.061003630292017  -0.33840970326123315  2.0250873827938625  -0.15555496342765998  -1.6400733762917474  0.9048952157227641  -1.7543268696591547  0.21581456008782984  0.7154392641775563  1.737367798560251  0.8571629904151168  -1.7546484968940572  -1.5571671391656998  -0.2262228902076649  0.9032935780002649  -0.21539635794853967  -1.3302361879760614  -2.1333787322108178  
-0.43676250916807147  1.1392736919914364  -0.2690880118534761  -1.149031791059906  1.1834869211310115  0.8487105719819499  0.14857594286321724  1.7443910710575647  0.13172180846835538  0.5332763375072679  0.5369735474058019  -0.3162690634638598  -0.14685795030011942  -1.8984971880305432  1.5107914426164808  1.6011860710326276  -0.7609198932021422  0.25273241483837594  -1.1175438772839157  1.5004565471920979  0.7962655012244496  -1.5734292333748998  -1.124812158888346  0.8516764762552634  -1.5592199508628433  2.146490615810566  -1.135445962993782  1.0437004755215016  0.9282809531143588  0.6931180500256788  -1.5114035898615648  1.7449193386359005  0.011931947254178283  -1.6828086636740067  -0.5456092012250585  1.9994960124936831  -1.18184119085646  -1.739801098230666  1.7399769514702133  1.9840170774279118  -1.8890966368756585  1.5456240102371477  -1.1928240008436788  -2.1889094927202444  -0.771423751390598  0.27136653329797433  -1.175582373734086  2.172617566717707  -2.1957463736059815  1.3328489426849774  1.260580094512245  -1.193318915797736  -0.027400952264517563  -0.47767985040102867  -0.024390397852857293  -1.2174525717978288  -2.5133182859687517  0.6368930088604445  0.5939625587141895  -0.1727110562831607  -0.5002511558226161  -1.4044796240693695  -2.061003630292017  -0.33840970326123315  2.0250873827938625  -0.15555496342765998  -1.6400733762917474  0.9048952157227641  -1.7543268696591547  0.21581456008782984  0.7154392641775563  1.737367798560251  0.8571629904151168  -1.7546484968940572  -1.5571671391656998  -0.2262228902076649  0.9032935780002649  -0.21539635794853967  -1.3302361879760614  -2.1333787322108178  
-0.43676250916807147  1.1392736919914364  -0.2690880118534761  -1.149031791059906  1.1834869211310115  0.8487105719819499  0.14857594286321724  1.7443910710575647  0.13172180846835538  0.5332763375072679  0.5369735474058019  -0.3162690634638598  -0.14685795030011942  -1.8984971880305432  1.5107914426164808  1.6011860710326276  -0.7609198932021422  0.25273241483837594  -1.1175438772839157  1.5004565471920979  0.7962655012244496  -1.5734292333748998  -1.124812158888346  0.8516764762552634  -1.5592199508628433  2.146490615810566  -1.135445962993782  1.0437004755215016  0.9282809531143588  0.6931180500256788  -1.5114035898615648  1.7449193386359005  0.011931947254178283  -1.6828086636740067  -0.5456092012250585  1.9994960124936831  -1.18184119085646  -1.739801098230666  1.7399769514702133  1.9840170774279118  -1.8890966368756585  1.5456240102371477  -1.1928240008436788  -2.1889094927202444  -0.771423751390598  0.27136653329797433  -1.175582373734086  2.172617566717707  -2.1957463736059815  1.3328489426849774  1.260580094512245  -1.193318915797736  -0.027400952264517563  -0.47767985040102867  -0.024390397852857293  -1.2174525717978288  -2.5133182859687517  0.6368930088604445  0.5939625587141895  -0.1727110562831607  -0.5002511558226161  -1.4044796240693695  -2.061003630292017  -0.33840970326123315  2.0250873827938625  -0.15555496342765998  -1.6400733762917474  0.9048952157227641  -1.7543268696591547  0.21581456008782984  0.7154392641775563  1.737367798560251  0.8571629904151168  -1.7546484968940572  -1.5571671391656998  -0.2262228902076649  0.9032935780002649  -0.21539635794853967  -1.3302361879760614  -2.1333787322108178  
-0.43676250916807147  1.1392736919914364  -0.2690880118534761  -1.149031791059906  1.1834869211310115  0.8487105719819499  0.14857594286321724  1.7443910710575647  0.13172180846835538  0.5332763375072679  0.5369735474058019  -0.3162690634638598  -0.14685795030011942  -1.8984971880305432  1.5107914426164808  1.6011860710326276  -0.7609198932021422  0.25273241483837594  -1.1175438772839157  1.5004565471920979  0.7962655012244496  -1.5734292333748998  -1.124812158888346  0.8516764762552634  -1.5592199508628433  2.146490615810566  -1.135445962993782  1.0437004755215016  0.9282809531143588  0.6931180500256788  -1.5114035898615648  1.7449193386359005  0.011931947254178283  -1.6828086636740067  -0.5456092012250585  1.9994960124936831  -1.18184119085646  -1.739801098230666  1.7399769514702133  1.9840170774279118  -1.8890966368756585  1.5456240102371477  -1.1928240008436788  -2.1889094927202444  -0.771423751390598  0.27136653329797433  -1.175582373734086  2.172617566717707  -2.1957463736059815  1.3328489426849774  1.260580094512245  -1.193318915797736  -0.027400952264517563  -0.47767985040102867  -0.024390397852857293  -1.2174525717978288  -2.5133182859687517  0.6368930088604445  0.5939625587141895  -0.1727110562831607  -0.5002511558226161  -1.4044796240693695  -2.061003630292017  -0.33840970326123315  2.0250873827938625  -0.15555496342765998  -1.6400733762917474  0.9048952157227641  -1.7543268696591547  0.21581456008782984  0.7154392641775563  1.737367798560251  0.8571629904151168  -1.7546484968940572  -1.5571671391656998  -0.2262228902076649  0.9032935780002649  -0.21539635794853967  -1.3302361879760614  -2.1333787322108178  
-0.43676250916807147  1.1392736919914364  -0.2690880118534761  -1.149031791059906  1.1834869211310115  0.8487105719819499  0.14857594286321724  1.7443910710575647  0.13172180846835538  0.5332763375072679  0.5369735474058019  -0.3162690634638598  -0.14685795030011942  -1.8984971880305432  1.5107914426164808  1.6011860710326276  -0.7609198932021422  0.25273241483837594  -1.1175438772839157  1.5004565471920979  0.7962655012244496  -1.5734292333748998  -1.124812158888346  0.8516764762552634  -1.5592199508628433  2.146490615810566  -1.135445962993782  1.0437004755215016  0.9282809531143588  0.6931180500256788  -1.5114035898615648  1.7449193386359005  0.011931947254178283  -1.6828086636740067  -0.5456092012250585  1.9994960124936831  -1.18184119085646  -1.739801098230666  1.7399769514702133  1.9840170774279118  -1.8890966368756585  1.5456240102371477  -1.1928240008436788  -2.1889094927202444  -0.771423751390598  0.27136653329797433  -1.175582373734086  2.172617566717707  -2.1957463736059815  1.3328489426849774  1.260580094512245  -1.193318915797736  -0.027400952264517563  -0.47767985040102867  -0.024390397852857293  -1.2174525717978288  -2.5133182859687517  0.6368930088604445  0.5939625587141895  -0.1727110562831607  -0.5002511558226161  -1.4044796240693695  -2.061003630292017  -0.33840970326123315  2.0250873827938625  -0.15555496342765998  -1.6400733762917474  0.9048952157227641  -1.7543268696591547  0.21581456008782984  0.7154392641775563  1.737367798560251  0.8571629904151168  -1.7546484968940572  -1.5571671391656998  -0.2262228902076649  0.9032935780002649  -0.21539635794853967  -1.3302361879760614  -2.1333787322108178  
-0.43676250916807147  1.1392736919914364  -0.2690880118534761  -1.149031791059906  1.1834869211310115  0.8487105719819499  0.14857594286321724  1.7443910710575647  0.13172180846835538  0.5332763375072679  0.5369735474058019  -0.3162690634638598  -0.14685795030011942  -1.8984971880305432  1.5107914426164808  1.6011860710326276  -0.7609198932021422  0.25273241483837594  -1.1175438772839157  1.5004565471920979  0.7962655012244496  -1.5734292333748998  -1.124812158888346  0.8516764762552634  -1.5592199508628433  2.146490615810566  -1.135445962993782  1.0437004755215016  0.9282809531143588  0.6931180500256788  -1.5114035898615648  1.7449193386359005  0.011931947254178283  -1.6828086636740067  -0.5456092012250585  1.9994960124936831  -1.18184119085646  -1.739801098230666  1.7399769514702133  1.9840170774279118  -1.8890966368756585  1.5456240102371477  -1.1928240008436788  -2.1889094927202444  -0.771423751390598  0.27136653329797433  -1.175582373734086  2.172617566717707  -2.1957463736059815  1.3328489426849774  1.260580094512245  -1.193318915797736  -0.027400952264517563  -0.47767985040102867  -0.024390397852857293  -1.2174525717978288  -2.5133182859687517  0.6368930088604445  0.5939625587141895  -0.1727110562831607  -0.5002511558226161  -1.4044796240693695  -2.061003630292017  -0.33840970326123315  2.0250873827938625  -0.15555496342765998  -1.6400733762917474  0.9048952157227641  -1.7543268696591547  0.21581456008782984  0.7154392641775563  1.737367798560251  0.8571629904151168  -1.7546484968940572  -1.5571671391656998  -0.2262228902076649  0.9032935780002649  -0.21539635794853967  -1.3302361879760614  -2.1333787322108178  
-0.43676250916807147  1.1392736919914364  -0.2690880118534761  -1.149031791059906  1.1834869211310115  0.8487105719819499  0.14857594286321724  1.7443910710575647  0.13172180846835538  0.5332763375072679  0.5369735474058019  -0.3162690634638598  -0.14685795030011942  -1.8984971880305432  1.5107914426164808  1.6011860710326276  -0.7609198932021422  0.25273241483837594  -1.1175438772839157  1.5004565471920979  0.7962655012244496  -1.5734292333748998  -1.124812158888346  0.8516764762552634  -1.5592199508628433  2.146490615810566  -1.135445962993782  1.0437004755215016  0.9282809531143588  0.6931180500256788  -1.5114035898615648  1.7449193386359005  0.011931947254178283  -1.6828086636740067  -0.5456092012250585  1.9994960124936831  -1.18184119085646  -1.739801098230666  1.7399769514702133  1.9840170774279118  -1.8890966368756585  1.5456240102371477  -1.1928240008436788  -2.1889094927202444  -0.771423751390598  0.27136653329797433  -1.175582373734086  2.172617566717707  -2.1957463736059815  1.3328489426849774  1.260580094512245  -1.193318915797736  -0.027400952264517563  -0.47767985040102867  -0.024390397852857293  -1.2174525717978288  -2.5133182859687517  0.6368930088604445  0.5939625587141895  -0.1727110562831607  -0.5002511558226161  -1.4044796240693695  -2.061003630292017  -0.33840970326123315  2.0250873827938625  -0.15555496342765998  -1.6400733762917474  0.9048952157227641  -1.7543268696591547  0.21581456008782984  0.7154392641775563  1.737367798560251  0.8571629904151168  -1.7546484968940572  -1.5571671391656998  -0.2262228902076649  0.9032935780002649  -0.21539635794853967  -1.3302361879760614  -2.1333787322108178  
-0.43676250916807147  1.1392736919914364  -0.2690880118534761  -1.149031791059906  1.1834869211310115  0.8487105719819499  0.14857594286321724  1.7443910710575647  0.13172180846835538  0.5332763375072679  0.5369735474058019  -0.3162690634638598  -0.14685795030011942  -1.8984971880305432  1.5107914426164808  1.6011860710326276  -0.7609198932021422  0.25273241483837594  -1.1175438772839157  1.5004565471920979  0.7962655012244496  -1.5734292333748998  -1.124812158888346  0.8516764762552634  -1.5592199508628433  2.146490615810566  -1.135445962993782  1.0437004755215016  0.9282809531143588  0.6931180500256788  -1.5114035898615648  1.7449193386359005  0.011931947254178283  -1.6828086636740067  -0.5456092012250585  1.9994960124936831  -1.18184119085646  -1.739801098230666  1.7399769514702133  1.9840170774279118  -1.8890966368756585  1.5456240102371477  -1.1928240008436788  -2.1889094927202444  -0.771423751390598  0.27136653329797433  -1.175582373734086  2.172617566717707  -2.1957463736059815  1.3328489426849774  1.260580094512245  -1.193318915797736  -0.027400952264517563  -0.47767985040102867  -0.024390397852857293  -1.2174525717978288  -2.5133182859687517  0.6368930088604445  0.5939625587141895  -0.1727110562831607  -0.5002511558226161  -1.4044796240693695  -2.061003630292017  -0.33840970326123315  2.0250873827938625  -0.15555496342765998  -1.6400733762917474  0.9048952157227641  -1.7543268696591547  0.21581456008782984  0.7154392641775563  1.737367798560251  0.8571629904151168  -1.7546484968940572  -1.5571671391656998  -0.2262228902076649  0.9032935780002649  -0.21539635794853967  -1.3302361879760614  -2.1333787322108178  
