Weights Of Hidden Layer  : 
---------------------------------
-1.6511498659912625  -1.053165918433904  -1.23351091817842  1.4057439152299385  1.8677938235535674  -2.224349835533419  -1.291270607527574  -1.0074851248792536  -0.057213147289143895  -0.13861236302966465  0.9125049842851729  1.9091854814476283  -1.3209138180255202  -0.24225066213562152  -0.2242342360922308  0.358449771576899  0.8962398307281582  -1.9859451044086256  -0.10466456265879533  -0.6478493207838216  1.1620587898535306  1.3769431774017427  1.3305052828535981  -2.058348743343374  1.7639100600194693  -0.5733481180109831  -0.619682806634232  2.1880428085804597  1.2847529388350685  1.4678521071797115  -1.598325719571767  -0.41352033329105986  -0.7902076983189172  -2.0306961473252034  -2.476172026482455  0.9539693401981127  0.7379604628811258  -1.3483008607548008  1.4732161993460957  1.2969083566782367  1.2251934016728667  -0.6764332397362774  0.8892155303739725  -0.6651167463526546  1.2301459680326914  -1.4027697137306083  2.216377482613598  -1.823971532602369  -1.9396261662459156  1.8122544565014498  0.07602609164763909  1.7217167796036144  0.2257937462560964  -1.5398500438327163  -2.0107795669476958  -0.7929944565048775  -0.7760543482265845  1.2403365157514674  1.7474423236666334  -1.4857731779801504  0.8108792828856235  -1.9262314289611027  0.2670026933098908  -1.9578320576055313  1.351210277764681  -0.09683996458328828  1.0549154575092852  0.7890886868930953  -1.4179211754571546  1.5758364341661835  -1.5982853409407087  0.0044494331273191145  0.19918141824678065  1.2004916258432765  -1.1414020906611995  0.6359075920844419  -1.7693493758052956  -1.4091103747508422  -0.8145966385349241  1.6334760335042864  
-1.6511498659912625  -1.053165918433904  -1.23351091817842  1.4057439152299385  1.8677938235535674  -2.224349835533419  -1.291270607527574  -1.0074851248792536  -0.057213147289143895  -0.13861236302966465  0.9125049842851729  1.9091854814476283  -1.3209138180255202  -0.24225066213562152  -0.2242342360922308  0.358449771576899  0.8962398307281582  -1.9859451044086256  -0.10466456265879533  -0.6478493207838216  1.1620587898535306  1.3769431774017427  1.3305052828535981  -2.058348743343374  1.7639100600194693  -0.5733481180109831  -0.619682806634232  2.1880428085804597  1.2847529388350685  1.4678521071797115  -1.598325719571767  -0.41352033329105986  -0.7902076983189172  -2.0306961473252034  -2.476172026482455  0.9539693401981127  0.7379604628811258  -1.3483008607548008  1.4732161993460957  1.2969083566782367  1.2251934016728667  -0.6764332397362774  0.8892155303739725  -0.6651167463526546  1.2301459680326914  -1.4027697137306083  2.216377482613598  -1.823971532602369  -1.9396261662459156  1.8122544565014498  0.07602609164763909  1.7217167796036144  0.2257937462560964  -1.5398500438327163  -2.0107795669476958  -0.7929944565048775  -0.7760543482265845  1.2403365157514674  1.7474423236666334  -1.4857731779801504  0.8108792828856235  -1.9262314289611027  0.2670026933098908  -1.9578320576055313  1.351210277764681  -0.09683996458328828  1.0549154575092852  0.7890886868930953  -1.4179211754571546  1.5758364341661835  -1.5982853409407087  0.0044494331273191145  0.19918141824678065  1.2004916258432765  -1.1414020906611995  0.6359075920844419  -1.7693493758052956  -1.4091103747508422  -0.8145966385349241  1.6334760335042864  
-1.6511498659912625  -1.053165918433904  -1.23351091817842  1.4057439152299385  1.8677938235535674  -2.224349835533419  -1.291270607527574  -1.0074851248792536  -0.057213147289143895  -0.13861236302966465  0.9125049842851729  1.9091854814476283  -1.3209138180255202  -0.24225066213562152  -0.2242342360922308  0.358449771576899  0.8962398307281582  -1.9859451044086256  -0.10466456265879533  -0.6478493207838216  1.1620587898535306  1.3769431774017427  1.3305052828535981  -2.058348743343374  1.7639100600194693  -0.5733481180109831  -0.619682806634232  2.1880428085804597  1.2847529388350685  1.4678521071797115  -1.598325719571767  -0.41352033329105986  -0.7902076983189172  -2.0306961473252034  -2.476172026482455  0.9539693401981127  0.7379604628811258  -1.3483008607548008  1.4732161993460957  1.2969083566782367  1.2251934016728667  -0.6764332397362774  0.8892155303739725  -0.6651167463526546  1.2301459680326914  -1.4027697137306083  2.216377482613598  -1.823971532602369  -1.9396261662459156  1.8122544565014498  0.07602609164763909  1.7217167796036144  0.2257937462560964  -1.5398500438327163  -2.0107795669476958  -0.7929944565048775  -0.7760543482265845  1.2403365157514674  1.7474423236666334  -1.4857731779801504  0.8108792828856235  -1.9262314289611027  0.2670026933098908  -1.9578320576055313  1.351210277764681  -0.09683996458328828  1.0549154575092852  0.7890886868930953  -1.4179211754571546  1.5758364341661835  -1.5982853409407087  0.0044494331273191145  0.19918141824678065  1.2004916258432765  -1.1414020906611995  0.6359075920844419  -1.7693493758052956  -1.4091103747508422  -0.8145966385349241  1.6334760335042864  
-1.6511498659912625  -1.053165918433904  -1.23351091817842  1.4057439152299385  1.8677938235535674  -2.224349835533419  -1.291270607527574  -1.0074851248792536  -0.057213147289143895  -0.13861236302966465  0.9125049842851729  1.9091854814476283  -1.3209138180255202  -0.24225066213562152  -0.2242342360922308  0.358449771576899  0.8962398307281582  -1.9859451044086256  -0.10466456265879533  -0.6478493207838216  1.1620587898535306  1.3769431774017427  1.3305052828535981  -2.058348743343374  1.7639100600194693  -0.5733481180109831  -0.619682806634232  2.1880428085804597  1.2847529388350685  1.4678521071797115  -1.598325719571767  -0.41352033329105986  -0.7902076983189172  -2.0306961473252034  -2.476172026482455  0.9539693401981127  0.7379604628811258  -1.3483008607548008  1.4732161993460957  1.2969083566782367  1.2251934016728667  -0.6764332397362774  0.8892155303739725  -0.6651167463526546  1.2301459680326914  -1.4027697137306083  2.216377482613598  -1.823971532602369  -1.9396261662459156  1.8122544565014498  0.07602609164763909  1.7217167796036144  0.2257937462560964  -1.5398500438327163  -2.0107795669476958  -0.7929944565048775  -0.7760543482265845  1.2403365157514674  1.7474423236666334  -1.4857731779801504  0.8108792828856235  -1.9262314289611027  0.2670026933098908  -1.9578320576055313  1.351210277764681  -0.09683996458328828  1.0549154575092852  0.7890886868930953  -1.4179211754571546  1.5758364341661835  -1.5982853409407087  0.0044494331273191145  0.19918141824678065  1.2004916258432765  -1.1414020906611995  0.6359075920844419  -1.7693493758052956  -1.4091103747508422  -0.8145966385349241  1.6334760335042864  
-1.6511498659912625  -1.053165918433904  -1.23351091817842  1.4057439152299385  1.8677938235535674  -2.224349835533419  -1.291270607527574  -1.0074851248792536  -0.057213147289143895  -0.13861236302966465  0.9125049842851729  1.9091854814476283  -1.3209138180255202  -0.24225066213562152  -0.2242342360922308  0.358449771576899  0.8962398307281582  -1.9859451044086256  -0.10466456265879533  -0.6478493207838216  1.1620587898535306  1.3769431774017427  1.3305052828535981  -2.058348743343374  1.7639100600194693  -0.5733481180109831  -0.619682806634232  2.1880428085804597  1.2847529388350685  1.4678521071797115  -1.598325719571767  -0.41352033329105986  -0.7902076983189172  -2.0306961473252034  -2.476172026482455  0.9539693401981127  0.7379604628811258  -1.3483008607548008  1.4732161993460957  1.2969083566782367  1.2251934016728667  -0.6764332397362774  0.8892155303739725  -0.6651167463526546  1.2301459680326914  -1.4027697137306083  2.216377482613598  -1.823971532602369  -1.9396261662459156  1.8122544565014498  0.07602609164763909  1.7217167796036144  0.2257937462560964  -1.5398500438327163  -2.0107795669476958  -0.7929944565048775  -0.7760543482265845  1.2403365157514674  1.7474423236666334  -1.4857731779801504  0.8108792828856235  -1.9262314289611027  0.2670026933098908  -1.9578320576055313  1.351210277764681  -0.09683996458328828  1.0549154575092852  0.7890886868930953  -1.4179211754571546  1.5758364341661835  -1.5982853409407087  0.0044494331273191145  0.19918141824678065  1.2004916258432765  -1.1414020906611995  0.6359075920844419  -1.7693493758052956  -1.4091103747508422  -0.8145966385349241  1.6334760335042864  
-1.6511498659912625  -1.053165918433904  -1.23351091817842  1.4057439152299385  1.8677938235535674  -2.224349835533419  -1.291270607527574  -1.0074851248792536  -0.057213147289143895  -0.13861236302966465  0.9125049842851729  1.9091854814476283  -1.3209138180255202  -0.24225066213562152  -0.2242342360922308  0.358449771576899  0.8962398307281582  -1.9859451044086256  -0.10466456265879533  -0.6478493207838216  1.1620587898535306  1.3769431774017427  1.3305052828535981  -2.058348743343374  1.7639100600194693  -0.5733481180109831  -0.619682806634232  2.1880428085804597  1.2847529388350685  1.4678521071797115  -1.598325719571767  -0.41352033329105986  -0.7902076983189172  -2.0306961473252034  -2.476172026482455  0.9539693401981127  0.7379604628811258  -1.3483008607548008  1.4732161993460957  1.2969083566782367  1.2251934016728667  -0.6764332397362774  0.8892155303739725  -0.6651167463526546  1.2301459680326914  -1.4027697137306083  2.216377482613598  -1.823971532602369  -1.9396261662459156  1.8122544565014498  0.07602609164763909  1.7217167796036144  0.2257937462560964  -1.5398500438327163  -2.0107795669476958  -0.7929944565048775  -0.7760543482265845  1.2403365157514674  1.7474423236666334  -1.4857731779801504  0.8108792828856235  -1.9262314289611027  0.2670026933098908  -1.9578320576055313  1.351210277764681  -0.09683996458328828  1.0549154575092852  0.7890886868930953  -1.4179211754571546  1.5758364341661835  -1.5982853409407087  0.0044494331273191145  0.19918141824678065  1.2004916258432765  -1.1414020906611995  0.6359075920844419  -1.7693493758052956  -1.4091103747508422  -0.8145966385349241  1.6334760335042864  
-1.6511498659912625  -1.053165918433904  -1.23351091817842  1.4057439152299385  1.8677938235535674  -2.224349835533419  -1.291270607527574  -1.0074851248792536  -0.057213147289143895  -0.13861236302966465  0.9125049842851729  1.9091854814476283  -1.3209138180255202  -0.24225066213562152  -0.2242342360922308  0.358449771576899  0.8962398307281582  -1.9859451044086256  -0.10466456265879533  -0.6478493207838216  1.1620587898535306  1.3769431774017427  1.3305052828535981  -2.058348743343374  1.7639100600194693  -0.5733481180109831  -0.619682806634232  2.1880428085804597  1.2847529388350685  1.4678521071797115  -1.598325719571767  -0.41352033329105986  -0.7902076983189172  -2.0306961473252034  -2.476172026482455  0.9539693401981127  0.7379604628811258  -1.3483008607548008  1.4732161993460957  1.2969083566782367  1.2251934016728667  -0.6764332397362774  0.8892155303739725  -0.6651167463526546  1.2301459680326914  -1.4027697137306083  2.216377482613598  -1.823971532602369  -1.9396261662459156  1.8122544565014498  0.07602609164763909  1.7217167796036144  0.2257937462560964  -1.5398500438327163  -2.0107795669476958  -0.7929944565048775  -0.7760543482265845  1.2403365157514674  1.7474423236666334  -1.4857731779801504  0.8108792828856235  -1.9262314289611027  0.2670026933098908  -1.9578320576055313  1.351210277764681  -0.09683996458328828  1.0549154575092852  0.7890886868930953  -1.4179211754571546  1.5758364341661835  -1.5982853409407087  0.0044494331273191145  0.19918141824678065  1.2004916258432765  -1.1414020906611995  0.6359075920844419  -1.7693493758052956  -1.4091103747508422  -0.8145966385349241  1.6334760335042864  
-1.6511498659912625  -1.053165918433904  -1.23351091817842  1.4057439152299385  1.8677938235535674  -2.224349835533419  -1.291270607527574  -1.0074851248792536  -0.057213147289143895  -0.13861236302966465  0.9125049842851729  1.9091854814476283  -1.3209138180255202  -0.24225066213562152  -0.2242342360922308  0.358449771576899  0.8962398307281582  -1.9859451044086256  -0.10466456265879533  -0.6478493207838216  1.1620587898535306  1.3769431774017427  1.3305052828535981  -2.058348743343374  1.7639100600194693  -0.5733481180109831  -0.619682806634232  2.1880428085804597  1.2847529388350685  1.4678521071797115  -1.598325719571767  -0.41352033329105986  -0.7902076983189172  -2.0306961473252034  -2.476172026482455  0.9539693401981127  0.7379604628811258  -1.3483008607548008  1.4732161993460957  1.2969083566782367  1.2251934016728667  -0.6764332397362774  0.8892155303739725  -0.6651167463526546  1.2301459680326914  -1.4027697137306083  2.216377482613598  -1.823971532602369  -1.9396261662459156  1.8122544565014498  0.07602609164763909  1.7217167796036144  0.2257937462560964  -1.5398500438327163  -2.0107795669476958  -0.7929944565048775  -0.7760543482265845  1.2403365157514674  1.7474423236666334  -1.4857731779801504  0.8108792828856235  -1.9262314289611027  0.2670026933098908  -1.9578320576055313  1.351210277764681  -0.09683996458328828  1.0549154575092852  0.7890886868930953  -1.4179211754571546  1.5758364341661835  -1.5982853409407087  0.0044494331273191145  0.19918141824678065  1.2004916258432765  -1.1414020906611995  0.6359075920844419  -1.7693493758052956  -1.4091103747508422  -0.8145966385349241  1.6334760335042864  
-1.6511498659912625  -1.053165918433904  -1.23351091817842  1.4057439152299385  1.8677938235535674  -2.224349835533419  -1.291270607527574  -1.0074851248792536  -0.057213147289143895  -0.13861236302966465  0.9125049842851729  1.9091854814476283  -1.3209138180255202  -0.24225066213562152  -0.2242342360922308  0.358449771576899  0.8962398307281582  -1.9859451044086256  -0.10466456265879533  -0.6478493207838216  1.1620587898535306  1.3769431774017427  1.3305052828535981  -2.058348743343374  1.7639100600194693  -0.5733481180109831  -0.619682806634232  2.1880428085804597  1.2847529388350685  1.4678521071797115  -1.598325719571767  -0.41352033329105986  -0.7902076983189172  -2.0306961473252034  -2.476172026482455  0.9539693401981127  0.7379604628811258  -1.3483008607548008  1.4732161993460957  1.2969083566782367  1.2251934016728667  -0.6764332397362774  0.8892155303739725  -0.6651167463526546  1.2301459680326914  -1.4027697137306083  2.216377482613598  -1.823971532602369  -1.9396261662459156  1.8122544565014498  0.07602609164763909  1.7217167796036144  0.2257937462560964  -1.5398500438327163  -2.0107795669476958  -0.7929944565048775  -0.7760543482265845  1.2403365157514674  1.7474423236666334  -1.4857731779801504  0.8108792828856235  -1.9262314289611027  0.2670026933098908  -1.9578320576055313  1.351210277764681  -0.09683996458328828  1.0549154575092852  0.7890886868930953  -1.4179211754571546  1.5758364341661835  -1.5982853409407087  0.0044494331273191145  0.19918141824678065  1.2004916258432765  -1.1414020906611995  0.6359075920844419  -1.7693493758052956  -1.4091103747508422  -0.8145966385349241  1.6334760335042864  
-1.6511498659912625  -1.053165918433904  -1.23351091817842  1.4057439152299385  1.8677938235535674  -2.224349835533419  -1.291270607527574  -1.0074851248792536  -0.057213147289143895  -0.13861236302966465  0.9125049842851729  1.9091854814476283  -1.3209138180255202  -0.24225066213562152  -0.2242342360922308  0.358449771576899  0.8962398307281582  -1.9859451044086256  -0.10466456265879533  -0.6478493207838216  1.1620587898535306  1.3769431774017427  1.3305052828535981  -2.058348743343374  1.7639100600194693  -0.5733481180109831  -0.619682806634232  2.1880428085804597  1.2847529388350685  1.4678521071797115  -1.598325719571767  -0.41352033329105986  -0.7902076983189172  -2.0306961473252034  -2.476172026482455  0.9539693401981127  0.7379604628811258  -1.3483008607548008  1.4732161993460957  1.2969083566782367  1.2251934016728667  -0.6764332397362774  0.8892155303739725  -0.6651167463526546  1.2301459680326914  -1.4027697137306083  2.216377482613598  -1.823971532602369  -1.9396261662459156  1.8122544565014498  0.07602609164763909  1.7217167796036144  0.2257937462560964  -1.5398500438327163  -2.0107795669476958  -0.7929944565048775  -0.7760543482265845  1.2403365157514674  1.7474423236666334  -1.4857731779801504  0.8108792828856235  -1.9262314289611027  0.2670026933098908  -1.9578320576055313  1.351210277764681  -0.09683996458328828  1.0549154575092852  0.7890886868930953  -1.4179211754571546  1.5758364341661835  -1.5982853409407087  0.0044494331273191145  0.19918141824678065  1.2004916258432765  -1.1414020906611995  0.6359075920844419  -1.7693493758052956  -1.4091103747508422  -0.8145966385349241  1.6334760335042864  
-1.6511498659912625  -1.053165918433904  -1.23351091817842  1.4057439152299385  1.8677938235535674  -2.224349835533419  -1.291270607527574  -1.0074851248792536  -0.057213147289143895  -0.13861236302966465  0.9125049842851729  1.9091854814476283  -1.3209138180255202  -0.24225066213562152  -0.2242342360922308  0.358449771576899  0.8962398307281582  -1.9859451044086256  -0.10466456265879533  -0.6478493207838216  1.1620587898535306  1.3769431774017427  1.3305052828535981  -2.058348743343374  1.7639100600194693  -0.5733481180109831  -0.619682806634232  2.1880428085804597  1.2847529388350685  1.4678521071797115  -1.598325719571767  -0.41352033329105986  -0.7902076983189172  -2.0306961473252034  -2.476172026482455  0.9539693401981127  0.7379604628811258  -1.3483008607548008  1.4732161993460957  1.2969083566782367  1.2251934016728667  -0.6764332397362774  0.8892155303739725  -0.6651167463526546  1.2301459680326914  -1.4027697137306083  2.216377482613598  -1.823971532602369  -1.9396261662459156  1.8122544565014498  0.07602609164763909  1.7217167796036144  0.2257937462560964  -1.5398500438327163  -2.0107795669476958  -0.7929944565048775  -0.7760543482265845  1.2403365157514674  1.7474423236666334  -1.4857731779801504  0.8108792828856235  -1.9262314289611027  0.2670026933098908  -1.9578320576055313  1.351210277764681  -0.09683996458328828  1.0549154575092852  0.7890886868930953  -1.4179211754571546  1.5758364341661835  -1.5982853409407087  0.0044494331273191145  0.19918141824678065  1.2004916258432765  -1.1414020906611995  0.6359075920844419  -1.7693493758052956  -1.4091103747508422  -0.8145966385349241  1.6334760335042864  
-1.6511498659912625  -1.053165918433904  -1.23351091817842  1.4057439152299385  1.8677938235535674  -2.224349835533419  -1.291270607527574  -1.0074851248792536  -0.057213147289143895  -0.13861236302966465  0.9125049842851729  1.9091854814476283  -1.3209138180255202  -0.24225066213562152  -0.2242342360922308  0.358449771576899  0.8962398307281582  -1.9859451044086256  -0.10466456265879533  -0.6478493207838216  1.1620587898535306  1.3769431774017427  1.3305052828535981  -2.058348743343374  1.7639100600194693  -0.5733481180109831  -0.619682806634232  2.1880428085804597  1.2847529388350685  1.4678521071797115  -1.598325719571767  -0.41352033329105986  -0.7902076983189172  -2.0306961473252034  -2.476172026482455  0.9539693401981127  0.7379604628811258  -1.3483008607548008  1.4732161993460957  1.2969083566782367  1.2251934016728667  -0.6764332397362774  0.8892155303739725  -0.6651167463526546  1.2301459680326914  -1.4027697137306083  2.216377482613598  -1.823971532602369  -1.9396261662459156  1.8122544565014498  0.07602609164763909  1.7217167796036144  0.2257937462560964  -1.5398500438327163  -2.0107795669476958  -0.7929944565048775  -0.7760543482265845  1.2403365157514674  1.7474423236666334  -1.4857731779801504  0.8108792828856235  -1.9262314289611027  0.2670026933098908  -1.9578320576055313  1.351210277764681  -0.09683996458328828  1.0549154575092852  0.7890886868930953  -1.4179211754571546  1.5758364341661835  -1.5982853409407087  0.0044494331273191145  0.19918141824678065  1.2004916258432765  -1.1414020906611995  0.6359075920844419  -1.7693493758052956  -1.4091103747508422  -0.8145966385349241  1.6334760335042864  
-1.6511498659912625  -1.053165918433904  -1.23351091817842  1.4057439152299385  1.8677938235535674  -2.224349835533419  -1.291270607527574  -1.0074851248792536  -0.057213147289143895  -0.13861236302966465  0.9125049842851729  1.9091854814476283  -1.3209138180255202  -0.24225066213562152  -0.2242342360922308  0.358449771576899  0.8962398307281582  -1.9859451044086256  -0.10466456265879533  -0.6478493207838216  1.1620587898535306  1.3769431774017427  1.3305052828535981  -2.058348743343374  1.7639100600194693  -0.5733481180109831  -0.619682806634232  2.1880428085804597  1.2847529388350685  1.4678521071797115  -1.598325719571767  -0.41352033329105986  -0.7902076983189172  -2.0306961473252034  -2.476172026482455  0.9539693401981127  0.7379604628811258  -1.3483008607548008  1.4732161993460957  1.2969083566782367  1.2251934016728667  -0.6764332397362774  0.8892155303739725  -0.6651167463526546  1.2301459680326914  -1.4027697137306083  2.216377482613598  -1.823971532602369  -1.9396261662459156  1.8122544565014498  0.07602609164763909  1.7217167796036144  0.2257937462560964  -1.5398500438327163  -2.0107795669476958  -0.7929944565048775  -0.7760543482265845  1.2403365157514674  1.7474423236666334  -1.4857731779801504  0.8108792828856235  -1.9262314289611027  0.2670026933098908  -1.9578320576055313  1.351210277764681  -0.09683996458328828  1.0549154575092852  0.7890886868930953  -1.4179211754571546  1.5758364341661835  -1.5982853409407087  0.0044494331273191145  0.19918141824678065  1.2004916258432765  -1.1414020906611995  0.6359075920844419  -1.7693493758052956  -1.4091103747508422  -0.8145966385349241  1.6334760335042864  
-1.6511498659912625  -1.053165918433904  -1.23351091817842  1.4057439152299385  1.8677938235535674  -2.224349835533419  -1.291270607527574  -1.0074851248792536  -0.057213147289143895  -0.13861236302966465  0.9125049842851729  1.9091854814476283  -1.3209138180255202  -0.24225066213562152  -0.2242342360922308  0.358449771576899  0.8962398307281582  -1.9859451044086256  -0.10466456265879533  -0.6478493207838216  1.1620587898535306  1.3769431774017427  1.3305052828535981  -2.058348743343374  1.7639100600194693  -0.5733481180109831  -0.619682806634232  2.1880428085804597  1.2847529388350685  1.4678521071797115  -1.598325719571767  -0.41352033329105986  -0.7902076983189172  -2.0306961473252034  -2.476172026482455  0.9539693401981127  0.7379604628811258  -1.3483008607548008  1.4732161993460957  1.2969083566782367  1.2251934016728667  -0.6764332397362774  0.8892155303739725  -0.6651167463526546  1.2301459680326914  -1.4027697137306083  2.216377482613598  -1.823971532602369  -1.9396261662459156  1.8122544565014498  0.07602609164763909  1.7217167796036144  0.2257937462560964  -1.5398500438327163  -2.0107795669476958  -0.7929944565048775  -0.7760543482265845  1.2403365157514674  1.7474423236666334  -1.4857731779801504  0.8108792828856235  -1.9262314289611027  0.2670026933098908  -1.9578320576055313  1.351210277764681  -0.09683996458328828  1.0549154575092852  0.7890886868930953  -1.4179211754571546  1.5758364341661835  -1.5982853409407087  0.0044494331273191145  0.19918141824678065  1.2004916258432765  -1.1414020906611995  0.6359075920844419  -1.7693493758052956  -1.4091103747508422  -0.8145966385349241  1.6334760335042864  
-1.6511498659912625  -1.053165918433904  -1.23351091817842  1.4057439152299385  1.8677938235535674  -2.224349835533419  -1.291270607527574  -1.0074851248792536  -0.057213147289143895  -0.13861236302966465  0.9125049842851729  1.9091854814476283  -1.3209138180255202  -0.24225066213562152  -0.2242342360922308  0.358449771576899  0.8962398307281582  -1.9859451044086256  -0.10466456265879533  -0.6478493207838216  1.1620587898535306  1.3769431774017427  1.3305052828535981  -2.058348743343374  1.7639100600194693  -0.5733481180109831  -0.619682806634232  2.1880428085804597  1.2847529388350685  1.4678521071797115  -1.598325719571767  -0.41352033329105986  -0.7902076983189172  -2.0306961473252034  -2.476172026482455  0.9539693401981127  0.7379604628811258  -1.3483008607548008  1.4732161993460957  1.2969083566782367  1.2251934016728667  -0.6764332397362774  0.8892155303739725  -0.6651167463526546  1.2301459680326914  -1.4027697137306083  2.216377482613598  -1.823971532602369  -1.9396261662459156  1.8122544565014498  0.07602609164763909  1.7217167796036144  0.2257937462560964  -1.5398500438327163  -2.0107795669476958  -0.7929944565048775  -0.7760543482265845  1.2403365157514674  1.7474423236666334  -1.4857731779801504  0.8108792828856235  -1.9262314289611027  0.2670026933098908  -1.9578320576055313  1.351210277764681  -0.09683996458328828  1.0549154575092852  0.7890886868930953  -1.4179211754571546  1.5758364341661835  -1.5982853409407087  0.0044494331273191145  0.19918141824678065  1.2004916258432765  -1.1414020906611995  0.6359075920844419  -1.7693493758052956  -1.4091103747508422  -0.8145966385349241  1.6334760335042864  
-1.6511498659912625  -1.053165918433904  -1.23351091817842  1.4057439152299385  1.8677938235535674  -2.224349835533419  -1.291270607527574  -1.0074851248792536  -0.057213147289143895  -0.13861236302966465  0.9125049842851729  1.9091854814476283  -1.3209138180255202  -0.24225066213562152  -0.2242342360922308  0.358449771576899  0.8962398307281582  -1.9859451044086256  -0.10466456265879533  -0.6478493207838216  1.1620587898535306  1.3769431774017427  1.3305052828535981  -2.058348743343374  1.7639100600194693  -0.5733481180109831  -0.619682806634232  2.1880428085804597  1.2847529388350685  1.4678521071797115  -1.598325719571767  -0.41352033329105986  -0.7902076983189172  -2.0306961473252034  -2.476172026482455  0.9539693401981127  0.7379604628811258  -1.3483008607548008  1.4732161993460957  1.2969083566782367  1.2251934016728667  -0.6764332397362774  0.8892155303739725  -0.6651167463526546  1.2301459680326914  -1.4027697137306083  2.216377482613598  -1.823971532602369  -1.9396261662459156  1.8122544565014498  0.07602609164763909  1.7217167796036144  0.2257937462560964  -1.5398500438327163  -2.0107795669476958  -0.7929944565048775  -0.7760543482265845  1.2403365157514674  1.7474423236666334  -1.4857731779801504  0.8108792828856235  -1.9262314289611027  0.2670026933098908  -1.9578320576055313  1.351210277764681  -0.09683996458328828  1.0549154575092852  0.7890886868930953  -1.4179211754571546  1.5758364341661835  -1.5982853409407087  0.0044494331273191145  0.19918141824678065  1.2004916258432765  -1.1414020906611995  0.6359075920844419  -1.7693493758052956  -1.4091103747508422  -0.8145966385349241  1.6334760335042864  
-1.6511498659912625  -1.053165918433904  -1.23351091817842  1.4057439152299385  1.8677938235535674  -2.224349835533419  -1.291270607527574  -1.0074851248792536  -0.057213147289143895  -0.13861236302966465  0.9125049842851729  1.9091854814476283  -1.3209138180255202  -0.24225066213562152  -0.2242342360922308  0.358449771576899  0.8962398307281582  -1.9859451044086256  -0.10466456265879533  -0.6478493207838216  1.1620587898535306  1.3769431774017427  1.3305052828535981  -2.058348743343374  1.7639100600194693  -0.5733481180109831  -0.619682806634232  2.1880428085804597  1.2847529388350685  1.4678521071797115  -1.598325719571767  -0.41352033329105986  -0.7902076983189172  -2.0306961473252034  -2.476172026482455  0.9539693401981127  0.7379604628811258  -1.3483008607548008  1.4732161993460957  1.2969083566782367  1.2251934016728667  -0.6764332397362774  0.8892155303739725  -0.6651167463526546  1.2301459680326914  -1.4027697137306083  2.216377482613598  -1.823971532602369  -1.9396261662459156  1.8122544565014498  0.07602609164763909  1.7217167796036144  0.2257937462560964  -1.5398500438327163  -2.0107795669476958  -0.7929944565048775  -0.7760543482265845  1.2403365157514674  1.7474423236666334  -1.4857731779801504  0.8108792828856235  -1.9262314289611027  0.2670026933098908  -1.9578320576055313  1.351210277764681  -0.09683996458328828  1.0549154575092852  0.7890886868930953  -1.4179211754571546  1.5758364341661835  -1.5982853409407087  0.0044494331273191145  0.19918141824678065  1.2004916258432765  -1.1414020906611995  0.6359075920844419  -1.7693493758052956  -1.4091103747508422  -0.8145966385349241  1.6334760335042864  
-1.6511498659912625  -1.053165918433904  -1.23351091817842  1.4057439152299385  1.8677938235535674  -2.224349835533419  -1.291270607527574  -1.0074851248792536  -0.057213147289143895  -0.13861236302966465  0.9125049842851729  1.9091854814476283  -1.3209138180255202  -0.24225066213562152  -0.2242342360922308  0.358449771576899  0.8962398307281582  -1.9859451044086256  -0.10466456265879533  -0.6478493207838216  1.1620587898535306  1.3769431774017427  1.3305052828535981  -2.058348743343374  1.7639100600194693  -0.5733481180109831  -0.619682806634232  2.1880428085804597  1.2847529388350685  1.4678521071797115  -1.598325719571767  -0.41352033329105986  -0.7902076983189172  -2.0306961473252034  -2.476172026482455  0.9539693401981127  0.7379604628811258  -1.3483008607548008  1.4732161993460957  1.2969083566782367  1.2251934016728667  -0.6764332397362774  0.8892155303739725  -0.6651167463526546  1.2301459680326914  -1.4027697137306083  2.216377482613598  -1.823971532602369  -1.9396261662459156  1.8122544565014498  0.07602609164763909  1.7217167796036144  0.2257937462560964  -1.5398500438327163  -2.0107795669476958  -0.7929944565048775  -0.7760543482265845  1.2403365157514674  1.7474423236666334  -1.4857731779801504  0.8108792828856235  -1.9262314289611027  0.2670026933098908  -1.9578320576055313  1.351210277764681  -0.09683996458328828  1.0549154575092852  0.7890886868930953  -1.4179211754571546  1.5758364341661835  -1.5982853409407087  0.0044494331273191145  0.19918141824678065  1.2004916258432765  -1.1414020906611995  0.6359075920844419  -1.7693493758052956  -1.4091103747508422  -0.8145966385349241  1.6334760335042864  
-1.6511498659912625  -1.053165918433904  -1.23351091817842  1.4057439152299385  1.8677938235535674  -2.224349835533419  -1.291270607527574  -1.0074851248792536  -0.057213147289143895  -0.13861236302966465  0.9125049842851729  1.9091854814476283  -1.3209138180255202  -0.24225066213562152  -0.2242342360922308  0.358449771576899  0.8962398307281582  -1.9859451044086256  -0.10466456265879533  -0.6478493207838216  1.1620587898535306  1.3769431774017427  1.3305052828535981  -2.058348743343374  1.7639100600194693  -0.5733481180109831  -0.619682806634232  2.1880428085804597  1.2847529388350685  1.4678521071797115  -1.598325719571767  -0.41352033329105986  -0.7902076983189172  -2.0306961473252034  -2.476172026482455  0.9539693401981127  0.7379604628811258  -1.3483008607548008  1.4732161993460957  1.2969083566782367  1.2251934016728667  -0.6764332397362774  0.8892155303739725  -0.6651167463526546  1.2301459680326914  -1.4027697137306083  2.216377482613598  -1.823971532602369  -1.9396261662459156  1.8122544565014498  0.07602609164763909  1.7217167796036144  0.2257937462560964  -1.5398500438327163  -2.0107795669476958  -0.7929944565048775  -0.7760543482265845  1.2403365157514674  1.7474423236666334  -1.4857731779801504  0.8108792828856235  -1.9262314289611027  0.2670026933098908  -1.9578320576055313  1.351210277764681  -0.09683996458328828  1.0549154575092852  0.7890886868930953  -1.4179211754571546  1.5758364341661835  -1.5982853409407087  0.0044494331273191145  0.19918141824678065  1.2004916258432765  -1.1414020906611995  0.6359075920844419  -1.7693493758052956  -1.4091103747508422  -0.8145966385349241  1.6334760335042864  
-1.6511498659912625  -1.053165918433904  -1.23351091817842  1.4057439152299385  1.8677938235535674  -2.224349835533419  -1.291270607527574  -1.0074851248792536  -0.057213147289143895  -0.13861236302966465  0.9125049842851729  1.9091854814476283  -1.3209138180255202  -0.24225066213562152  -0.2242342360922308  0.358449771576899  0.8962398307281582  -1.9859451044086256  -0.10466456265879533  -0.6478493207838216  1.1620587898535306  1.3769431774017427  1.3305052828535981  -2.058348743343374  1.7639100600194693  -0.5733481180109831  -0.619682806634232  2.1880428085804597  1.2847529388350685  1.4678521071797115  -1.598325719571767  -0.41352033329105986  -0.7902076983189172  -2.0306961473252034  -2.476172026482455  0.9539693401981127  0.7379604628811258  -1.3483008607548008  1.4732161993460957  1.2969083566782367  1.2251934016728667  -0.6764332397362774  0.8892155303739725  -0.6651167463526546  1.2301459680326914  -1.4027697137306083  2.216377482613598  -1.823971532602369  -1.9396261662459156  1.8122544565014498  0.07602609164763909  1.7217167796036144  0.2257937462560964  -1.5398500438327163  -2.0107795669476958  -0.7929944565048775  -0.7760543482265845  1.2403365157514674  1.7474423236666334  -1.4857731779801504  0.8108792828856235  -1.9262314289611027  0.2670026933098908  -1.9578320576055313  1.351210277764681  -0.09683996458328828  1.0549154575092852  0.7890886868930953  -1.4179211754571546  1.5758364341661835  -1.5982853409407087  0.0044494331273191145  0.19918141824678065  1.2004916258432765  -1.1414020906611995  0.6359075920844419  -1.7693493758052956  -1.4091103747508422  -0.8145966385349241  1.6334760335042864  
-1.6511498659912625  -1.053165918433904  -1.23351091817842  1.4057439152299385  1.8677938235535674  -2.224349835533419  -1.291270607527574  -1.0074851248792536  -0.057213147289143895  -0.13861236302966465  0.9125049842851729  1.9091854814476283  -1.3209138180255202  -0.24225066213562152  -0.2242342360922308  0.358449771576899  0.8962398307281582  -1.9859451044086256  -0.10466456265879533  -0.6478493207838216  1.1620587898535306  1.3769431774017427  1.3305052828535981  -2.058348743343374  1.7639100600194693  -0.5733481180109831  -0.619682806634232  2.1880428085804597  1.2847529388350685  1.4678521071797115  -1.598325719571767  -0.41352033329105986  -0.7902076983189172  -2.0306961473252034  -2.476172026482455  0.9539693401981127  0.7379604628811258  -1.3483008607548008  1.4732161993460957  1.2969083566782367  1.2251934016728667  -0.6764332397362774  0.8892155303739725  -0.6651167463526546  1.2301459680326914  -1.4027697137306083  2.216377482613598  -1.823971532602369  -1.9396261662459156  1.8122544565014498  0.07602609164763909  1.7217167796036144  0.2257937462560964  -1.5398500438327163  -2.0107795669476958  -0.7929944565048775  -0.7760543482265845  1.2403365157514674  1.7474423236666334  -1.4857731779801504  0.8108792828856235  -1.9262314289611027  0.2670026933098908  -1.9578320576055313  1.351210277764681  -0.09683996458328828  1.0549154575092852  0.7890886868930953  -1.4179211754571546  1.5758364341661835  -1.5982853409407087  0.0044494331273191145  0.19918141824678065  1.2004916258432765  -1.1414020906611995  0.6359075920844419  -1.7693493758052956  -1.4091103747508422  -0.8145966385349241  1.6334760335042864  
-1.6511498659912625  -1.053165918433904  -1.23351091817842  1.4057439152299385  1.8677938235535674  -2.224349835533419  -1.291270607527574  -1.0074851248792536  -0.057213147289143895  -0.13861236302966465  0.9125049842851729  1.9091854814476283  -1.3209138180255202  -0.24225066213562152  -0.2242342360922308  0.358449771576899  0.8962398307281582  -1.9859451044086256  -0.10466456265879533  -0.6478493207838216  1.1620587898535306  1.3769431774017427  1.3305052828535981  -2.058348743343374  1.7639100600194693  -0.5733481180109831  -0.619682806634232  2.1880428085804597  1.2847529388350685  1.4678521071797115  -1.598325719571767  -0.41352033329105986  -0.7902076983189172  -2.0306961473252034  -2.476172026482455  0.9539693401981127  0.7379604628811258  -1.3483008607548008  1.4732161993460957  1.2969083566782367  1.2251934016728667  -0.6764332397362774  0.8892155303739725  -0.6651167463526546  1.2301459680326914  -1.4027697137306083  2.216377482613598  -1.823971532602369  -1.9396261662459156  1.8122544565014498  0.07602609164763909  1.7217167796036144  0.2257937462560964  -1.5398500438327163  -2.0107795669476958  -0.7929944565048775  -0.7760543482265845  1.2403365157514674  1.7474423236666334  -1.4857731779801504  0.8108792828856235  -1.9262314289611027  0.2670026933098908  -1.9578320576055313  1.351210277764681  -0.09683996458328828  1.0549154575092852  0.7890886868930953  -1.4179211754571546  1.5758364341661835  -1.5982853409407087  0.0044494331273191145  0.19918141824678065  1.2004916258432765  -1.1414020906611995  0.6359075920844419  -1.7693493758052956  -1.4091103747508422  -0.8145966385349241  1.6334760335042864  
-1.6511498659912625  -1.053165918433904  -1.23351091817842  1.4057439152299385  1.8677938235535674  -2.224349835533419  -1.291270607527574  -1.0074851248792536  -0.057213147289143895  -0.13861236302966465  0.9125049842851729  1.9091854814476283  -1.3209138180255202  -0.24225066213562152  -0.2242342360922308  0.358449771576899  0.8962398307281582  -1.9859451044086256  -0.10466456265879533  -0.6478493207838216  1.1620587898535306  1.3769431774017427  1.3305052828535981  -2.058348743343374  1.7639100600194693  -0.5733481180109831  -0.619682806634232  2.1880428085804597  1.2847529388350685  1.4678521071797115  -1.598325719571767  -0.41352033329105986  -0.7902076983189172  -2.0306961473252034  -2.476172026482455  0.9539693401981127  0.7379604628811258  -1.3483008607548008  1.4732161993460957  1.2969083566782367  1.2251934016728667  -0.6764332397362774  0.8892155303739725  -0.6651167463526546  1.2301459680326914  -1.4027697137306083  2.216377482613598  -1.823971532602369  -1.9396261662459156  1.8122544565014498  0.07602609164763909  1.7217167796036144  0.2257937462560964  -1.5398500438327163  -2.0107795669476958  -0.7929944565048775  -0.7760543482265845  1.2403365157514674  1.7474423236666334  -1.4857731779801504  0.8108792828856235  -1.9262314289611027  0.2670026933098908  -1.9578320576055313  1.351210277764681  -0.09683996458328828  1.0549154575092852  0.7890886868930953  -1.4179211754571546  1.5758364341661835  -1.5982853409407087  0.0044494331273191145  0.19918141824678065  1.2004916258432765  -1.1414020906611995  0.6359075920844419  -1.7693493758052956  -1.4091103747508422  -0.8145966385349241  1.6334760335042864  
-1.6511498659912625  -1.053165918433904  -1.23351091817842  1.4057439152299385  1.8677938235535674  -2.224349835533419  -1.291270607527574  -1.0074851248792536  -0.057213147289143895  -0.13861236302966465  0.9125049842851729  1.9091854814476283  -1.3209138180255202  -0.24225066213562152  -0.2242342360922308  0.358449771576899  0.8962398307281582  -1.9859451044086256  -0.10466456265879533  -0.6478493207838216  1.1620587898535306  1.3769431774017427  1.3305052828535981  -2.058348743343374  1.7639100600194693  -0.5733481180109831  -0.619682806634232  2.1880428085804597  1.2847529388350685  1.4678521071797115  -1.598325719571767  -0.41352033329105986  -0.7902076983189172  -2.0306961473252034  -2.476172026482455  0.9539693401981127  0.7379604628811258  -1.3483008607548008  1.4732161993460957  1.2969083566782367  1.2251934016728667  -0.6764332397362774  0.8892155303739725  -0.6651167463526546  1.2301459680326914  -1.4027697137306083  2.216377482613598  -1.823971532602369  -1.9396261662459156  1.8122544565014498  0.07602609164763909  1.7217167796036144  0.2257937462560964  -1.5398500438327163  -2.0107795669476958  -0.7929944565048775  -0.7760543482265845  1.2403365157514674  1.7474423236666334  -1.4857731779801504  0.8108792828856235  -1.9262314289611027  0.2670026933098908  -1.9578320576055313  1.351210277764681  -0.09683996458328828  1.0549154575092852  0.7890886868930953  -1.4179211754571546  1.5758364341661835  -1.5982853409407087  0.0044494331273191145  0.19918141824678065  1.2004916258432765  -1.1414020906611995  0.6359075920844419  -1.7693493758052956  -1.4091103747508422  -0.8145966385349241  1.6334760335042864  
-1.6511498659912625  -1.053165918433904  -1.23351091817842  1.4057439152299385  1.8677938235535674  -2.224349835533419  -1.291270607527574  -1.0074851248792536  -0.057213147289143895  -0.13861236302966465  0.9125049842851729  1.9091854814476283  -1.3209138180255202  -0.24225066213562152  -0.2242342360922308  0.358449771576899  0.8962398307281582  -1.9859451044086256  -0.10466456265879533  -0.6478493207838216  1.1620587898535306  1.3769431774017427  1.3305052828535981  -2.058348743343374  1.7639100600194693  -0.5733481180109831  -0.619682806634232  2.1880428085804597  1.2847529388350685  1.4678521071797115  -1.598325719571767  -0.41352033329105986  -0.7902076983189172  -2.0306961473252034  -2.476172026482455  0.9539693401981127  0.7379604628811258  -1.3483008607548008  1.4732161993460957  1.2969083566782367  1.2251934016728667  -0.6764332397362774  0.8892155303739725  -0.6651167463526546  1.2301459680326914  -1.4027697137306083  2.216377482613598  -1.823971532602369  -1.9396261662459156  1.8122544565014498  0.07602609164763909  1.7217167796036144  0.2257937462560964  -1.5398500438327163  -2.0107795669476958  -0.7929944565048775  -0.7760543482265845  1.2403365157514674  1.7474423236666334  -1.4857731779801504  0.8108792828856235  -1.9262314289611027  0.2670026933098908  -1.9578320576055313  1.351210277764681  -0.09683996458328828  1.0549154575092852  0.7890886868930953  -1.4179211754571546  1.5758364341661835  -1.5982853409407087  0.0044494331273191145  0.19918141824678065  1.2004916258432765  -1.1414020906611995  0.6359075920844419  -1.7693493758052956  -1.4091103747508422  -0.8145966385349241  1.6334760335042864  
-1.6511498659912625  -1.053165918433904  -1.23351091817842  1.4057439152299385  1.8677938235535674  -2.224349835533419  -1.291270607527574  -1.0074851248792536  -0.057213147289143895  -0.13861236302966465  0.9125049842851729  1.9091854814476283  -1.3209138180255202  -0.24225066213562152  -0.2242342360922308  0.358449771576899  0.8962398307281582  -1.9859451044086256  -0.10466456265879533  -0.6478493207838216  1.1620587898535306  1.3769431774017427  1.3305052828535981  -2.058348743343374  1.7639100600194693  -0.5733481180109831  -0.619682806634232  2.1880428085804597  1.2847529388350685  1.4678521071797115  -1.598325719571767  -0.41352033329105986  -0.7902076983189172  -2.0306961473252034  -2.476172026482455  0.9539693401981127  0.7379604628811258  -1.3483008607548008  1.4732161993460957  1.2969083566782367  1.2251934016728667  -0.6764332397362774  0.8892155303739725  -0.6651167463526546  1.2301459680326914  -1.4027697137306083  2.216377482613598  -1.823971532602369  -1.9396261662459156  1.8122544565014498  0.07602609164763909  1.7217167796036144  0.2257937462560964  -1.5398500438327163  -2.0107795669476958  -0.7929944565048775  -0.7760543482265845  1.2403365157514674  1.7474423236666334  -1.4857731779801504  0.8108792828856235  -1.9262314289611027  0.2670026933098908  -1.9578320576055313  1.351210277764681  -0.09683996458328828  1.0549154575092852  0.7890886868930953  -1.4179211754571546  1.5758364341661835  -1.5982853409407087  0.0044494331273191145  0.19918141824678065  1.2004916258432765  -1.1414020906611995  0.6359075920844419  -1.7693493758052956  -1.4091103747508422  -0.8145966385349241  1.6334760335042864  
-1.6511498659912625  -1.053165918433904  -1.23351091817842  1.4057439152299385  1.8677938235535674  -2.224349835533419  -1.291270607527574  -1.0074851248792536  -0.057213147289143895  -0.13861236302966465  0.9125049842851729  1.9091854814476283  -1.3209138180255202  -0.24225066213562152  -0.2242342360922308  0.358449771576899  0.8962398307281582  -1.9859451044086256  -0.10466456265879533  -0.6478493207838216  1.1620587898535306  1.3769431774017427  1.3305052828535981  -2.058348743343374  1.7639100600194693  -0.5733481180109831  -0.619682806634232  2.1880428085804597  1.2847529388350685  1.4678521071797115  -1.598325719571767  -0.41352033329105986  -0.7902076983189172  -2.0306961473252034  -2.476172026482455  0.9539693401981127  0.7379604628811258  -1.3483008607548008  1.4732161993460957  1.2969083566782367  1.2251934016728667  -0.6764332397362774  0.8892155303739725  -0.6651167463526546  1.2301459680326914  -1.4027697137306083  2.216377482613598  -1.823971532602369  -1.9396261662459156  1.8122544565014498  0.07602609164763909  1.7217167796036144  0.2257937462560964  -1.5398500438327163  -2.0107795669476958  -0.7929944565048775  -0.7760543482265845  1.2403365157514674  1.7474423236666334  -1.4857731779801504  0.8108792828856235  -1.9262314289611027  0.2670026933098908  -1.9578320576055313  1.351210277764681  -0.09683996458328828  1.0549154575092852  0.7890886868930953  -1.4179211754571546  1.5758364341661835  -1.5982853409407087  0.0044494331273191145  0.19918141824678065  1.2004916258432765  -1.1414020906611995  0.6359075920844419  -1.7693493758052956  -1.4091103747508422  -0.8145966385349241  1.6334760335042864  
-1.6511498659912625  -1.053165918433904  -1.23351091817842  1.4057439152299385  1.8677938235535674  -2.224349835533419  -1.291270607527574  -1.0074851248792536  -0.057213147289143895  -0.13861236302966465  0.9125049842851729  1.9091854814476283  -1.3209138180255202  -0.24225066213562152  -0.2242342360922308  0.358449771576899  0.8962398307281582  -1.9859451044086256  -0.10466456265879533  -0.6478493207838216  1.1620587898535306  1.3769431774017427  1.3305052828535981  -2.058348743343374  1.7639100600194693  -0.5733481180109831  -0.619682806634232  2.1880428085804597  1.2847529388350685  1.4678521071797115  -1.598325719571767  -0.41352033329105986  -0.7902076983189172  -2.0306961473252034  -2.476172026482455  0.9539693401981127  0.7379604628811258  -1.3483008607548008  1.4732161993460957  1.2969083566782367  1.2251934016728667  -0.6764332397362774  0.8892155303739725  -0.6651167463526546  1.2301459680326914  -1.4027697137306083  2.216377482613598  -1.823971532602369  -1.9396261662459156  1.8122544565014498  0.07602609164763909  1.7217167796036144  0.2257937462560964  -1.5398500438327163  -2.0107795669476958  -0.7929944565048775  -0.7760543482265845  1.2403365157514674  1.7474423236666334  -1.4857731779801504  0.8108792828856235  -1.9262314289611027  0.2670026933098908  -1.9578320576055313  1.351210277764681  -0.09683996458328828  1.0549154575092852  0.7890886868930953  -1.4179211754571546  1.5758364341661835  -1.5982853409407087  0.0044494331273191145  0.19918141824678065  1.2004916258432765  -1.1414020906611995  0.6359075920844419  -1.7693493758052956  -1.4091103747508422  -0.8145966385349241  1.6334760335042864  
-1.6511498659912625  -1.053165918433904  -1.23351091817842  1.4057439152299385  1.8677938235535674  -2.224349835533419  -1.291270607527574  -1.0074851248792536  -0.057213147289143895  -0.13861236302966465  0.9125049842851729  1.9091854814476283  -1.3209138180255202  -0.24225066213562152  -0.2242342360922308  0.358449771576899  0.8962398307281582  -1.9859451044086256  -0.10466456265879533  -0.6478493207838216  1.1620587898535306  1.3769431774017427  1.3305052828535981  -2.058348743343374  1.7639100600194693  -0.5733481180109831  -0.619682806634232  2.1880428085804597  1.2847529388350685  1.4678521071797115  -1.598325719571767  -0.41352033329105986  -0.7902076983189172  -2.0306961473252034  -2.476172026482455  0.9539693401981127  0.7379604628811258  -1.3483008607548008  1.4732161993460957  1.2969083566782367  1.2251934016728667  -0.6764332397362774  0.8892155303739725  -0.6651167463526546  1.2301459680326914  -1.4027697137306083  2.216377482613598  -1.823971532602369  -1.9396261662459156  1.8122544565014498  0.07602609164763909  1.7217167796036144  0.2257937462560964  -1.5398500438327163  -2.0107795669476958  -0.7929944565048775  -0.7760543482265845  1.2403365157514674  1.7474423236666334  -1.4857731779801504  0.8108792828856235  -1.9262314289611027  0.2670026933098908  -1.9578320576055313  1.351210277764681  -0.09683996458328828  1.0549154575092852  0.7890886868930953  -1.4179211754571546  1.5758364341661835  -1.5982853409407087  0.0044494331273191145  0.19918141824678065  1.2004916258432765  -1.1414020906611995  0.6359075920844419  -1.7693493758052956  -1.4091103747508422  -0.8145966385349241  1.6334760335042864  
-1.6511498659912625  -1.053165918433904  -1.23351091817842  1.4057439152299385  1.8677938235535674  -2.224349835533419  -1.291270607527574  -1.0074851248792536  -0.057213147289143895  -0.13861236302966465  0.9125049842851729  1.9091854814476283  -1.3209138180255202  -0.24225066213562152  -0.2242342360922308  0.358449771576899  0.8962398307281582  -1.9859451044086256  -0.10466456265879533  -0.6478493207838216  1.1620587898535306  1.3769431774017427  1.3305052828535981  -2.058348743343374  1.7639100600194693  -0.5733481180109831  -0.619682806634232  2.1880428085804597  1.2847529388350685  1.4678521071797115  -1.598325719571767  -0.41352033329105986  -0.7902076983189172  -2.0306961473252034  -2.476172026482455  0.9539693401981127  0.7379604628811258  -1.3483008607548008  1.4732161993460957  1.2969083566782367  1.2251934016728667  -0.6764332397362774  0.8892155303739725  -0.6651167463526546  1.2301459680326914  -1.4027697137306083  2.216377482613598  -1.823971532602369  -1.9396261662459156  1.8122544565014498  0.07602609164763909  1.7217167796036144  0.2257937462560964  -1.5398500438327163  -2.0107795669476958  -0.7929944565048775  -0.7760543482265845  1.2403365157514674  1.7474423236666334  -1.4857731779801504  0.8108792828856235  -1.9262314289611027  0.2670026933098908  -1.9578320576055313  1.351210277764681  -0.09683996458328828  1.0549154575092852  0.7890886868930953  -1.4179211754571546  1.5758364341661835  -1.5982853409407087  0.0044494331273191145  0.19918141824678065  1.2004916258432765  -1.1414020906611995  0.6359075920844419  -1.7693493758052956  -1.4091103747508422  -0.8145966385349241  1.6334760335042864  
-1.6511498659912625  -1.053165918433904  -1.23351091817842  1.4057439152299385  1.8677938235535674  -2.224349835533419  -1.291270607527574  -1.0074851248792536  -0.057213147289143895  -0.13861236302966465  0.9125049842851729  1.9091854814476283  -1.3209138180255202  -0.24225066213562152  -0.2242342360922308  0.358449771576899  0.8962398307281582  -1.9859451044086256  -0.10466456265879533  -0.6478493207838216  1.1620587898535306  1.3769431774017427  1.3305052828535981  -2.058348743343374  1.7639100600194693  -0.5733481180109831  -0.619682806634232  2.1880428085804597  1.2847529388350685  1.4678521071797115  -1.598325719571767  -0.41352033329105986  -0.7902076983189172  -2.0306961473252034  -2.476172026482455  0.9539693401981127  0.7379604628811258  -1.3483008607548008  1.4732161993460957  1.2969083566782367  1.2251934016728667  -0.6764332397362774  0.8892155303739725  -0.6651167463526546  1.2301459680326914  -1.4027697137306083  2.216377482613598  -1.823971532602369  -1.9396261662459156  1.8122544565014498  0.07602609164763909  1.7217167796036144  0.2257937462560964  -1.5398500438327163  -2.0107795669476958  -0.7929944565048775  -0.7760543482265845  1.2403365157514674  1.7474423236666334  -1.4857731779801504  0.8108792828856235  -1.9262314289611027  0.2670026933098908  -1.9578320576055313  1.351210277764681  -0.09683996458328828  1.0549154575092852  0.7890886868930953  -1.4179211754571546  1.5758364341661835  -1.5982853409407087  0.0044494331273191145  0.19918141824678065  1.2004916258432765  -1.1414020906611995  0.6359075920844419  -1.7693493758052956  -1.4091103747508422  -0.8145966385349241  1.6334760335042864  
-1.6511498659912625  -1.053165918433904  -1.23351091817842  1.4057439152299385  1.8677938235535674  -2.224349835533419  -1.291270607527574  -1.0074851248792536  -0.057213147289143895  -0.13861236302966465  0.9125049842851729  1.9091854814476283  -1.3209138180255202  -0.24225066213562152  -0.2242342360922308  0.358449771576899  0.8962398307281582  -1.9859451044086256  -0.10466456265879533  -0.6478493207838216  1.1620587898535306  1.3769431774017427  1.3305052828535981  -2.058348743343374  1.7639100600194693  -0.5733481180109831  -0.619682806634232  2.1880428085804597  1.2847529388350685  1.4678521071797115  -1.598325719571767  -0.41352033329105986  -0.7902076983189172  -2.0306961473252034  -2.476172026482455  0.9539693401981127  0.7379604628811258  -1.3483008607548008  1.4732161993460957  1.2969083566782367  1.2251934016728667  -0.6764332397362774  0.8892155303739725  -0.6651167463526546  1.2301459680326914  -1.4027697137306083  2.216377482613598  -1.823971532602369  -1.9396261662459156  1.8122544565014498  0.07602609164763909  1.7217167796036144  0.2257937462560964  -1.5398500438327163  -2.0107795669476958  -0.7929944565048775  -0.7760543482265845  1.2403365157514674  1.7474423236666334  -1.4857731779801504  0.8108792828856235  -1.9262314289611027  0.2670026933098908  -1.9578320576055313  1.351210277764681  -0.09683996458328828  1.0549154575092852  0.7890886868930953  -1.4179211754571546  1.5758364341661835  -1.5982853409407087  0.0044494331273191145  0.19918141824678065  1.2004916258432765  -1.1414020906611995  0.6359075920844419  -1.7693493758052956  -1.4091103747508422  -0.8145966385349241  1.6334760335042864  
-1.6511498659912625  -1.053165918433904  -1.23351091817842  1.4057439152299385  1.8677938235535674  -2.224349835533419  -1.291270607527574  -1.0074851248792536  -0.057213147289143895  -0.13861236302966465  0.9125049842851729  1.9091854814476283  -1.3209138180255202  -0.24225066213562152  -0.2242342360922308  0.358449771576899  0.8962398307281582  -1.9859451044086256  -0.10466456265879533  -0.6478493207838216  1.1620587898535306  1.3769431774017427  1.3305052828535981  -2.058348743343374  1.7639100600194693  -0.5733481180109831  -0.619682806634232  2.1880428085804597  1.2847529388350685  1.4678521071797115  -1.598325719571767  -0.41352033329105986  -0.7902076983189172  -2.0306961473252034  -2.476172026482455  0.9539693401981127  0.7379604628811258  -1.3483008607548008  1.4732161993460957  1.2969083566782367  1.2251934016728667  -0.6764332397362774  0.8892155303739725  -0.6651167463526546  1.2301459680326914  -1.4027697137306083  2.216377482613598  -1.823971532602369  -1.9396261662459156  1.8122544565014498  0.07602609164763909  1.7217167796036144  0.2257937462560964  -1.5398500438327163  -2.0107795669476958  -0.7929944565048775  -0.7760543482265845  1.2403365157514674  1.7474423236666334  -1.4857731779801504  0.8108792828856235  -1.9262314289611027  0.2670026933098908  -1.9578320576055313  1.351210277764681  -0.09683996458328828  1.0549154575092852  0.7890886868930953  -1.4179211754571546  1.5758364341661835  -1.5982853409407087  0.0044494331273191145  0.19918141824678065  1.2004916258432765  -1.1414020906611995  0.6359075920844419  -1.7693493758052956  -1.4091103747508422  -0.8145966385349241  1.6334760335042864  
-1.6511498659912625  -1.053165918433904  -1.23351091817842  1.4057439152299385  1.8677938235535674  -2.224349835533419  -1.291270607527574  -1.0074851248792536  -0.057213147289143895  -0.13861236302966465  0.9125049842851729  1.9091854814476283  -1.3209138180255202  -0.24225066213562152  -0.2242342360922308  0.358449771576899  0.8962398307281582  -1.9859451044086256  -0.10466456265879533  -0.6478493207838216  1.1620587898535306  1.3769431774017427  1.3305052828535981  -2.058348743343374  1.7639100600194693  -0.5733481180109831  -0.619682806634232  2.1880428085804597  1.2847529388350685  1.4678521071797115  -1.598325719571767  -0.41352033329105986  -0.7902076983189172  -2.0306961473252034  -2.476172026482455  0.9539693401981127  0.7379604628811258  -1.3483008607548008  1.4732161993460957  1.2969083566782367  1.2251934016728667  -0.6764332397362774  0.8892155303739725  -0.6651167463526546  1.2301459680326914  -1.4027697137306083  2.216377482613598  -1.823971532602369  -1.9396261662459156  1.8122544565014498  0.07602609164763909  1.7217167796036144  0.2257937462560964  -1.5398500438327163  -2.0107795669476958  -0.7929944565048775  -0.7760543482265845  1.2403365157514674  1.7474423236666334  -1.4857731779801504  0.8108792828856235  -1.9262314289611027  0.2670026933098908  -1.9578320576055313  1.351210277764681  -0.09683996458328828  1.0549154575092852  0.7890886868930953  -1.4179211754571546  1.5758364341661835  -1.5982853409407087  0.0044494331273191145  0.19918141824678065  1.2004916258432765  -1.1414020906611995  0.6359075920844419  -1.7693493758052956  -1.4091103747508422  -0.8145966385349241  1.6334760335042864  
-1.6511498659912625  -1.053165918433904  -1.23351091817842  1.4057439152299385  1.8677938235535674  -2.224349835533419  -1.291270607527574  -1.0074851248792536  -0.057213147289143895  -0.13861236302966465  0.9125049842851729  1.9091854814476283  -1.3209138180255202  -0.24225066213562152  -0.2242342360922308  0.358449771576899  0.8962398307281582  -1.9859451044086256  -0.10466456265879533  -0.6478493207838216  1.1620587898535306  1.3769431774017427  1.3305052828535981  -2.058348743343374  1.7639100600194693  -0.5733481180109831  -0.619682806634232  2.1880428085804597  1.2847529388350685  1.4678521071797115  -1.598325719571767  -0.41352033329105986  -0.7902076983189172  -2.0306961473252034  -2.476172026482455  0.9539693401981127  0.7379604628811258  -1.3483008607548008  1.4732161993460957  1.2969083566782367  1.2251934016728667  -0.6764332397362774  0.8892155303739725  -0.6651167463526546  1.2301459680326914  -1.4027697137306083  2.216377482613598  -1.823971532602369  -1.9396261662459156  1.8122544565014498  0.07602609164763909  1.7217167796036144  0.2257937462560964  -1.5398500438327163  -2.0107795669476958  -0.7929944565048775  -0.7760543482265845  1.2403365157514674  1.7474423236666334  -1.4857731779801504  0.8108792828856235  -1.9262314289611027  0.2670026933098908  -1.9578320576055313  1.351210277764681  -0.09683996458328828  1.0549154575092852  0.7890886868930953  -1.4179211754571546  1.5758364341661835  -1.5982853409407087  0.0044494331273191145  0.19918141824678065  1.2004916258432765  -1.1414020906611995  0.6359075920844419  -1.7693493758052956  -1.4091103747508422  -0.8145966385349241  1.6334760335042864  
-1.6511498659912625  -1.053165918433904  -1.23351091817842  1.4057439152299385  1.8677938235535674  -2.224349835533419  -1.291270607527574  -1.0074851248792536  -0.057213147289143895  -0.13861236302966465  0.9125049842851729  1.9091854814476283  -1.3209138180255202  -0.24225066213562152  -0.2242342360922308  0.358449771576899  0.8962398307281582  -1.9859451044086256  -0.10466456265879533  -0.6478493207838216  1.1620587898535306  1.3769431774017427  1.3305052828535981  -2.058348743343374  1.7639100600194693  -0.5733481180109831  -0.619682806634232  2.1880428085804597  1.2847529388350685  1.4678521071797115  -1.598325719571767  -0.41352033329105986  -0.7902076983189172  -2.0306961473252034  -2.476172026482455  0.9539693401981127  0.7379604628811258  -1.3483008607548008  1.4732161993460957  1.2969083566782367  1.2251934016728667  -0.6764332397362774  0.8892155303739725  -0.6651167463526546  1.2301459680326914  -1.4027697137306083  2.216377482613598  -1.823971532602369  -1.9396261662459156  1.8122544565014498  0.07602609164763909  1.7217167796036144  0.2257937462560964  -1.5398500438327163  -2.0107795669476958  -0.7929944565048775  -0.7760543482265845  1.2403365157514674  1.7474423236666334  -1.4857731779801504  0.8108792828856235  -1.9262314289611027  0.2670026933098908  -1.9578320576055313  1.351210277764681  -0.09683996458328828  1.0549154575092852  0.7890886868930953  -1.4179211754571546  1.5758364341661835  -1.5982853409407087  0.0044494331273191145  0.19918141824678065  1.2004916258432765  -1.1414020906611995  0.6359075920844419  -1.7693493758052956  -1.4091103747508422  -0.8145966385349241  1.6334760335042864  
-1.6511498659912625  -1.053165918433904  -1.23351091817842  1.4057439152299385  1.8677938235535674  -2.224349835533419  -1.291270607527574  -1.0074851248792536  -0.057213147289143895  -0.13861236302966465  0.9125049842851729  1.9091854814476283  -1.3209138180255202  -0.24225066213562152  -0.2242342360922308  0.358449771576899  0.8962398307281582  -1.9859451044086256  -0.10466456265879533  -0.6478493207838216  1.1620587898535306  1.3769431774017427  1.3305052828535981  -2.058348743343374  1.7639100600194693  -0.5733481180109831  -0.619682806634232  2.1880428085804597  1.2847529388350685  1.4678521071797115  -1.598325719571767  -0.41352033329105986  -0.7902076983189172  -2.0306961473252034  -2.476172026482455  0.9539693401981127  0.7379604628811258  -1.3483008607548008  1.4732161993460957  1.2969083566782367  1.2251934016728667  -0.6764332397362774  0.8892155303739725  -0.6651167463526546  1.2301459680326914  -1.4027697137306083  2.216377482613598  -1.823971532602369  -1.9396261662459156  1.8122544565014498  0.07602609164763909  1.7217167796036144  0.2257937462560964  -1.5398500438327163  -2.0107795669476958  -0.7929944565048775  -0.7760543482265845  1.2403365157514674  1.7474423236666334  -1.4857731779801504  0.8108792828856235  -1.9262314289611027  0.2670026933098908  -1.9578320576055313  1.351210277764681  -0.09683996458328828  1.0549154575092852  0.7890886868930953  -1.4179211754571546  1.5758364341661835  -1.5982853409407087  0.0044494331273191145  0.19918141824678065  1.2004916258432765  -1.1414020906611995  0.6359075920844419  -1.7693493758052956  -1.4091103747508422  -0.8145966385349241  1.6334760335042864  
-1.6511498659912625  -1.053165918433904  -1.23351091817842  1.4057439152299385  1.8677938235535674  -2.224349835533419  -1.291270607527574  -1.0074851248792536  -0.057213147289143895  -0.13861236302966465  0.9125049842851729  1.9091854814476283  -1.3209138180255202  -0.24225066213562152  -0.2242342360922308  0.358449771576899  0.8962398307281582  -1.9859451044086256  -0.10466456265879533  -0.6478493207838216  1.1620587898535306  1.3769431774017427  1.3305052828535981  -2.058348743343374  1.7639100600194693  -0.5733481180109831  -0.619682806634232  2.1880428085804597  1.2847529388350685  1.4678521071797115  -1.598325719571767  -0.41352033329105986  -0.7902076983189172  -2.0306961473252034  -2.476172026482455  0.9539693401981127  0.7379604628811258  -1.3483008607548008  1.4732161993460957  1.2969083566782367  1.2251934016728667  -0.6764332397362774  0.8892155303739725  -0.6651167463526546  1.2301459680326914  -1.4027697137306083  2.216377482613598  -1.823971532602369  -1.9396261662459156  1.8122544565014498  0.07602609164763909  1.7217167796036144  0.2257937462560964  -1.5398500438327163  -2.0107795669476958  -0.7929944565048775  -0.7760543482265845  1.2403365157514674  1.7474423236666334  -1.4857731779801504  0.8108792828856235  -1.9262314289611027  0.2670026933098908  -1.9578320576055313  1.351210277764681  -0.09683996458328828  1.0549154575092852  0.7890886868930953  -1.4179211754571546  1.5758364341661835  -1.5982853409407087  0.0044494331273191145  0.19918141824678065  1.2004916258432765  -1.1414020906611995  0.6359075920844419  -1.7693493758052956  -1.4091103747508422  -0.8145966385349241  1.6334760335042864  
-1.6511498659912625  -1.053165918433904  -1.23351091817842  1.4057439152299385  1.8677938235535674  -2.224349835533419  -1.291270607527574  -1.0074851248792536  -0.057213147289143895  -0.13861236302966465  0.9125049842851729  1.9091854814476283  -1.3209138180255202  -0.24225066213562152  -0.2242342360922308  0.358449771576899  0.8962398307281582  -1.9859451044086256  -0.10466456265879533  -0.6478493207838216  1.1620587898535306  1.3769431774017427  1.3305052828535981  -2.058348743343374  1.7639100600194693  -0.5733481180109831  -0.619682806634232  2.1880428085804597  1.2847529388350685  1.4678521071797115  -1.598325719571767  -0.41352033329105986  -0.7902076983189172  -2.0306961473252034  -2.476172026482455  0.9539693401981127  0.7379604628811258  -1.3483008607548008  1.4732161993460957  1.2969083566782367  1.2251934016728667  -0.6764332397362774  0.8892155303739725  -0.6651167463526546  1.2301459680326914  -1.4027697137306083  2.216377482613598  -1.823971532602369  -1.9396261662459156  1.8122544565014498  0.07602609164763909  1.7217167796036144  0.2257937462560964  -1.5398500438327163  -2.0107795669476958  -0.7929944565048775  -0.7760543482265845  1.2403365157514674  1.7474423236666334  -1.4857731779801504  0.8108792828856235  -1.9262314289611027  0.2670026933098908  -1.9578320576055313  1.351210277764681  -0.09683996458328828  1.0549154575092852  0.7890886868930953  -1.4179211754571546  1.5758364341661835  -1.5982853409407087  0.0044494331273191145  0.19918141824678065  1.2004916258432765  -1.1414020906611995  0.6359075920844419  -1.7693493758052956  -1.4091103747508422  -0.8145966385349241  1.6334760335042864  
-1.6511498659912625  -1.053165918433904  -1.23351091817842  1.4057439152299385  1.8677938235535674  -2.224349835533419  -1.291270607527574  -1.0074851248792536  -0.057213147289143895  -0.13861236302966465  0.9125049842851729  1.9091854814476283  -1.3209138180255202  -0.24225066213562152  -0.2242342360922308  0.358449771576899  0.8962398307281582  -1.9859451044086256  -0.10466456265879533  -0.6478493207838216  1.1620587898535306  1.3769431774017427  1.3305052828535981  -2.058348743343374  1.7639100600194693  -0.5733481180109831  -0.619682806634232  2.1880428085804597  1.2847529388350685  1.4678521071797115  -1.598325719571767  -0.41352033329105986  -0.7902076983189172  -2.0306961473252034  -2.476172026482455  0.9539693401981127  0.7379604628811258  -1.3483008607548008  1.4732161993460957  1.2969083566782367  1.2251934016728667  -0.6764332397362774  0.8892155303739725  -0.6651167463526546  1.2301459680326914  -1.4027697137306083  2.216377482613598  -1.823971532602369  -1.9396261662459156  1.8122544565014498  0.07602609164763909  1.7217167796036144  0.2257937462560964  -1.5398500438327163  -2.0107795669476958  -0.7929944565048775  -0.7760543482265845  1.2403365157514674  1.7474423236666334  -1.4857731779801504  0.8108792828856235  -1.9262314289611027  0.2670026933098908  -1.9578320576055313  1.351210277764681  -0.09683996458328828  1.0549154575092852  0.7890886868930953  -1.4179211754571546  1.5758364341661835  -1.5982853409407087  0.0044494331273191145  0.19918141824678065  1.2004916258432765  -1.1414020906611995  0.6359075920844419  -1.7693493758052956  -1.4091103747508422  -0.8145966385349241  1.6334760335042864  
-1.6511498659912625  -1.053165918433904  -1.23351091817842  1.4057439152299385  1.8677938235535674  -2.224349835533419  -1.291270607527574  -1.0074851248792536  -0.057213147289143895  -0.13861236302966465  0.9125049842851729  1.9091854814476283  -1.3209138180255202  -0.24225066213562152  -0.2242342360922308  0.358449771576899  0.8962398307281582  -1.9859451044086256  -0.10466456265879533  -0.6478493207838216  1.1620587898535306  1.3769431774017427  1.3305052828535981  -2.058348743343374  1.7639100600194693  -0.5733481180109831  -0.619682806634232  2.1880428085804597  1.2847529388350685  1.4678521071797115  -1.598325719571767  -0.41352033329105986  -0.7902076983189172  -2.0306961473252034  -2.476172026482455  0.9539693401981127  0.7379604628811258  -1.3483008607548008  1.4732161993460957  1.2969083566782367  1.2251934016728667  -0.6764332397362774  0.8892155303739725  -0.6651167463526546  1.2301459680326914  -1.4027697137306083  2.216377482613598  -1.823971532602369  -1.9396261662459156  1.8122544565014498  0.07602609164763909  1.7217167796036144  0.2257937462560964  -1.5398500438327163  -2.0107795669476958  -0.7929944565048775  -0.7760543482265845  1.2403365157514674  1.7474423236666334  -1.4857731779801504  0.8108792828856235  -1.9262314289611027  0.2670026933098908  -1.9578320576055313  1.351210277764681  -0.09683996458328828  1.0549154575092852  0.7890886868930953  -1.4179211754571546  1.5758364341661835  -1.5982853409407087  0.0044494331273191145  0.19918141824678065  1.2004916258432765  -1.1414020906611995  0.6359075920844419  -1.7693493758052956  -1.4091103747508422  -0.8145966385349241  1.6334760335042864  
-1.6511498659912625  -1.053165918433904  -1.23351091817842  1.4057439152299385  1.8677938235535674  -2.224349835533419  -1.291270607527574  -1.0074851248792536  -0.057213147289143895  -0.13861236302966465  0.9125049842851729  1.9091854814476283  -1.3209138180255202  -0.24225066213562152  -0.2242342360922308  0.358449771576899  0.8962398307281582  -1.9859451044086256  -0.10466456265879533  -0.6478493207838216  1.1620587898535306  1.3769431774017427  1.3305052828535981  -2.058348743343374  1.7639100600194693  -0.5733481180109831  -0.619682806634232  2.1880428085804597  1.2847529388350685  1.4678521071797115  -1.598325719571767  -0.41352033329105986  -0.7902076983189172  -2.0306961473252034  -2.476172026482455  0.9539693401981127  0.7379604628811258  -1.3483008607548008  1.4732161993460957  1.2969083566782367  1.2251934016728667  -0.6764332397362774  0.8892155303739725  -0.6651167463526546  1.2301459680326914  -1.4027697137306083  2.216377482613598  -1.823971532602369  -1.9396261662459156  1.8122544565014498  0.07602609164763909  1.7217167796036144  0.2257937462560964  -1.5398500438327163  -2.0107795669476958  -0.7929944565048775  -0.7760543482265845  1.2403365157514674  1.7474423236666334  -1.4857731779801504  0.8108792828856235  -1.9262314289611027  0.2670026933098908  -1.9578320576055313  1.351210277764681  -0.09683996458328828  1.0549154575092852  0.7890886868930953  -1.4179211754571546  1.5758364341661835  -1.5982853409407087  0.0044494331273191145  0.19918141824678065  1.2004916258432765  -1.1414020906611995  0.6359075920844419  -1.7693493758052956  -1.4091103747508422  -0.8145966385349241  1.6334760335042864  
-1.6511498659912625  -1.053165918433904  -1.23351091817842  1.4057439152299385  1.8677938235535674  -2.224349835533419  -1.291270607527574  -1.0074851248792536  -0.057213147289143895  -0.13861236302966465  0.9125049842851729  1.9091854814476283  -1.3209138180255202  -0.24225066213562152  -0.2242342360922308  0.358449771576899  0.8962398307281582  -1.9859451044086256  -0.10466456265879533  -0.6478493207838216  1.1620587898535306  1.3769431774017427  1.3305052828535981  -2.058348743343374  1.7639100600194693  -0.5733481180109831  -0.619682806634232  2.1880428085804597  1.2847529388350685  1.4678521071797115  -1.598325719571767  -0.41352033329105986  -0.7902076983189172  -2.0306961473252034  -2.476172026482455  0.9539693401981127  0.7379604628811258  -1.3483008607548008  1.4732161993460957  1.2969083566782367  1.2251934016728667  -0.6764332397362774  0.8892155303739725  -0.6651167463526546  1.2301459680326914  -1.4027697137306083  2.216377482613598  -1.823971532602369  -1.9396261662459156  1.8122544565014498  0.07602609164763909  1.7217167796036144  0.2257937462560964  -1.5398500438327163  -2.0107795669476958  -0.7929944565048775  -0.7760543482265845  1.2403365157514674  1.7474423236666334  -1.4857731779801504  0.8108792828856235  -1.9262314289611027  0.2670026933098908  -1.9578320576055313  1.351210277764681  -0.09683996458328828  1.0549154575092852  0.7890886868930953  -1.4179211754571546  1.5758364341661835  -1.5982853409407087  0.0044494331273191145  0.19918141824678065  1.2004916258432765  -1.1414020906611995  0.6359075920844419  -1.7693493758052956  -1.4091103747508422  -0.8145966385349241  1.6334760335042864  
-1.6511498659912625  -1.053165918433904  -1.23351091817842  1.4057439152299385  1.8677938235535674  -2.224349835533419  -1.291270607527574  -1.0074851248792536  -0.057213147289143895  -0.13861236302966465  0.9125049842851729  1.9091854814476283  -1.3209138180255202  -0.24225066213562152  -0.2242342360922308  0.358449771576899  0.8962398307281582  -1.9859451044086256  -0.10466456265879533  -0.6478493207838216  1.1620587898535306  1.3769431774017427  1.3305052828535981  -2.058348743343374  1.7639100600194693  -0.5733481180109831  -0.619682806634232  2.1880428085804597  1.2847529388350685  1.4678521071797115  -1.598325719571767  -0.41352033329105986  -0.7902076983189172  -2.0306961473252034  -2.476172026482455  0.9539693401981127  0.7379604628811258  -1.3483008607548008  1.4732161993460957  1.2969083566782367  1.2251934016728667  -0.6764332397362774  0.8892155303739725  -0.6651167463526546  1.2301459680326914  -1.4027697137306083  2.216377482613598  -1.823971532602369  -1.9396261662459156  1.8122544565014498  0.07602609164763909  1.7217167796036144  0.2257937462560964  -1.5398500438327163  -2.0107795669476958  -0.7929944565048775  -0.7760543482265845  1.2403365157514674  1.7474423236666334  -1.4857731779801504  0.8108792828856235  -1.9262314289611027  0.2670026933098908  -1.9578320576055313  1.351210277764681  -0.09683996458328828  1.0549154575092852  0.7890886868930953  -1.4179211754571546  1.5758364341661835  -1.5982853409407087  0.0044494331273191145  0.19918141824678065  1.2004916258432765  -1.1414020906611995  0.6359075920844419  -1.7693493758052956  -1.4091103747508422  -0.8145966385349241  1.6334760335042864  
-1.6511498659912625  -1.053165918433904  -1.23351091817842  1.4057439152299385  1.8677938235535674  -2.224349835533419  -1.291270607527574  -1.0074851248792536  -0.057213147289143895  -0.13861236302966465  0.9125049842851729  1.9091854814476283  -1.3209138180255202  -0.24225066213562152  -0.2242342360922308  0.358449771576899  0.8962398307281582  -1.9859451044086256  -0.10466456265879533  -0.6478493207838216  1.1620587898535306  1.3769431774017427  1.3305052828535981  -2.058348743343374  1.7639100600194693  -0.5733481180109831  -0.619682806634232  2.1880428085804597  1.2847529388350685  1.4678521071797115  -1.598325719571767  -0.41352033329105986  -0.7902076983189172  -2.0306961473252034  -2.476172026482455  0.9539693401981127  0.7379604628811258  -1.3483008607548008  1.4732161993460957  1.2969083566782367  1.2251934016728667  -0.6764332397362774  0.8892155303739725  -0.6651167463526546  1.2301459680326914  -1.4027697137306083  2.216377482613598  -1.823971532602369  -1.9396261662459156  1.8122544565014498  0.07602609164763909  1.7217167796036144  0.2257937462560964  -1.5398500438327163  -2.0107795669476958  -0.7929944565048775  -0.7760543482265845  1.2403365157514674  1.7474423236666334  -1.4857731779801504  0.8108792828856235  -1.9262314289611027  0.2670026933098908  -1.9578320576055313  1.351210277764681  -0.09683996458328828  1.0549154575092852  0.7890886868930953  -1.4179211754571546  1.5758364341661835  -1.5982853409407087  0.0044494331273191145  0.19918141824678065  1.2004916258432765  -1.1414020906611995  0.6359075920844419  -1.7693493758052956  -1.4091103747508422  -0.8145966385349241  1.6334760335042864  
-1.6511498659912625  -1.053165918433904  -1.23351091817842  1.4057439152299385  1.8677938235535674  -2.224349835533419  -1.291270607527574  -1.0074851248792536  -0.057213147289143895  -0.13861236302966465  0.9125049842851729  1.9091854814476283  -1.3209138180255202  -0.24225066213562152  -0.2242342360922308  0.358449771576899  0.8962398307281582  -1.9859451044086256  -0.10466456265879533  -0.6478493207838216  1.1620587898535306  1.3769431774017427  1.3305052828535981  -2.058348743343374  1.7639100600194693  -0.5733481180109831  -0.619682806634232  2.1880428085804597  1.2847529388350685  1.4678521071797115  -1.598325719571767  -0.41352033329105986  -0.7902076983189172  -2.0306961473252034  -2.476172026482455  0.9539693401981127  0.7379604628811258  -1.3483008607548008  1.4732161993460957  1.2969083566782367  1.2251934016728667  -0.6764332397362774  0.8892155303739725  -0.6651167463526546  1.2301459680326914  -1.4027697137306083  2.216377482613598  -1.823971532602369  -1.9396261662459156  1.8122544565014498  0.07602609164763909  1.7217167796036144  0.2257937462560964  -1.5398500438327163  -2.0107795669476958  -0.7929944565048775  -0.7760543482265845  1.2403365157514674  1.7474423236666334  -1.4857731779801504  0.8108792828856235  -1.9262314289611027  0.2670026933098908  -1.9578320576055313  1.351210277764681  -0.09683996458328828  1.0549154575092852  0.7890886868930953  -1.4179211754571546  1.5758364341661835  -1.5982853409407087  0.0044494331273191145  0.19918141824678065  1.2004916258432765  -1.1414020906611995  0.6359075920844419  -1.7693493758052956  -1.4091103747508422  -0.8145966385349241  1.6334760335042864  
-1.6511498659912625  -1.053165918433904  -1.23351091817842  1.4057439152299385  1.8677938235535674  -2.224349835533419  -1.291270607527574  -1.0074851248792536  -0.057213147289143895  -0.13861236302966465  0.9125049842851729  1.9091854814476283  -1.3209138180255202  -0.24225066213562152  -0.2242342360922308  0.358449771576899  0.8962398307281582  -1.9859451044086256  -0.10466456265879533  -0.6478493207838216  1.1620587898535306  1.3769431774017427  1.3305052828535981  -2.058348743343374  1.7639100600194693  -0.5733481180109831  -0.619682806634232  2.1880428085804597  1.2847529388350685  1.4678521071797115  -1.598325719571767  -0.41352033329105986  -0.7902076983189172  -2.0306961473252034  -2.476172026482455  0.9539693401981127  0.7379604628811258  -1.3483008607548008  1.4732161993460957  1.2969083566782367  1.2251934016728667  -0.6764332397362774  0.8892155303739725  -0.6651167463526546  1.2301459680326914  -1.4027697137306083  2.216377482613598  -1.823971532602369  -1.9396261662459156  1.8122544565014498  0.07602609164763909  1.7217167796036144  0.2257937462560964  -1.5398500438327163  -2.0107795669476958  -0.7929944565048775  -0.7760543482265845  1.2403365157514674  1.7474423236666334  -1.4857731779801504  0.8108792828856235  -1.9262314289611027  0.2670026933098908  -1.9578320576055313  1.351210277764681  -0.09683996458328828  1.0549154575092852  0.7890886868930953  -1.4179211754571546  1.5758364341661835  -1.5982853409407087  0.0044494331273191145  0.19918141824678065  1.2004916258432765  -1.1414020906611995  0.6359075920844419  -1.7693493758052956  -1.4091103747508422  -0.8145966385349241  1.6334760335042864  
-1.6511498659912625  -1.053165918433904  -1.23351091817842  1.4057439152299385  1.8677938235535674  -2.224349835533419  -1.291270607527574  -1.0074851248792536  -0.057213147289143895  -0.13861236302966465  0.9125049842851729  1.9091854814476283  -1.3209138180255202  -0.24225066213562152  -0.2242342360922308  0.358449771576899  0.8962398307281582  -1.9859451044086256  -0.10466456265879533  -0.6478493207838216  1.1620587898535306  1.3769431774017427  1.3305052828535981  -2.058348743343374  1.7639100600194693  -0.5733481180109831  -0.619682806634232  2.1880428085804597  1.2847529388350685  1.4678521071797115  -1.598325719571767  -0.41352033329105986  -0.7902076983189172  -2.0306961473252034  -2.476172026482455  0.9539693401981127  0.7379604628811258  -1.3483008607548008  1.4732161993460957  1.2969083566782367  1.2251934016728667  -0.6764332397362774  0.8892155303739725  -0.6651167463526546  1.2301459680326914  -1.4027697137306083  2.216377482613598  -1.823971532602369  -1.9396261662459156  1.8122544565014498  0.07602609164763909  1.7217167796036144  0.2257937462560964  -1.5398500438327163  -2.0107795669476958  -0.7929944565048775  -0.7760543482265845  1.2403365157514674  1.7474423236666334  -1.4857731779801504  0.8108792828856235  -1.9262314289611027  0.2670026933098908  -1.9578320576055313  1.351210277764681  -0.09683996458328828  1.0549154575092852  0.7890886868930953  -1.4179211754571546  1.5758364341661835  -1.5982853409407087  0.0044494331273191145  0.19918141824678065  1.2004916258432765  -1.1414020906611995  0.6359075920844419  -1.7693493758052956  -1.4091103747508422  -0.8145966385349241  1.6334760335042864  
-1.6511498659912625  -1.053165918433904  -1.23351091817842  1.4057439152299385  1.8677938235535674  -2.224349835533419  -1.291270607527574  -1.0074851248792536  -0.057213147289143895  -0.13861236302966465  0.9125049842851729  1.9091854814476283  -1.3209138180255202  -0.24225066213562152  -0.2242342360922308  0.358449771576899  0.8962398307281582  -1.9859451044086256  -0.10466456265879533  -0.6478493207838216  1.1620587898535306  1.3769431774017427  1.3305052828535981  -2.058348743343374  1.7639100600194693  -0.5733481180109831  -0.619682806634232  2.1880428085804597  1.2847529388350685  1.4678521071797115  -1.598325719571767  -0.41352033329105986  -0.7902076983189172  -2.0306961473252034  -2.476172026482455  0.9539693401981127  0.7379604628811258  -1.3483008607548008  1.4732161993460957  1.2969083566782367  1.2251934016728667  -0.6764332397362774  0.8892155303739725  -0.6651167463526546  1.2301459680326914  -1.4027697137306083  2.216377482613598  -1.823971532602369  -1.9396261662459156  1.8122544565014498  0.07602609164763909  1.7217167796036144  0.2257937462560964  -1.5398500438327163  -2.0107795669476958  -0.7929944565048775  -0.7760543482265845  1.2403365157514674  1.7474423236666334  -1.4857731779801504  0.8108792828856235  -1.9262314289611027  0.2670026933098908  -1.9578320576055313  1.351210277764681  -0.09683996458328828  1.0549154575092852  0.7890886868930953  -1.4179211754571546  1.5758364341661835  -1.5982853409407087  0.0044494331273191145  0.19918141824678065  1.2004916258432765  -1.1414020906611995  0.6359075920844419  -1.7693493758052956  -1.4091103747508422  -0.8145966385349241  1.6334760335042864  
-1.6511498659912625  -1.053165918433904  -1.23351091817842  1.4057439152299385  1.8677938235535674  -2.224349835533419  -1.291270607527574  -1.0074851248792536  -0.057213147289143895  -0.13861236302966465  0.9125049842851729  1.9091854814476283  -1.3209138180255202  -0.24225066213562152  -0.2242342360922308  0.358449771576899  0.8962398307281582  -1.9859451044086256  -0.10466456265879533  -0.6478493207838216  1.1620587898535306  1.3769431774017427  1.3305052828535981  -2.058348743343374  1.7639100600194693  -0.5733481180109831  -0.619682806634232  2.1880428085804597  1.2847529388350685  1.4678521071797115  -1.598325719571767  -0.41352033329105986  -0.7902076983189172  -2.0306961473252034  -2.476172026482455  0.9539693401981127  0.7379604628811258  -1.3483008607548008  1.4732161993460957  1.2969083566782367  1.2251934016728667  -0.6764332397362774  0.8892155303739725  -0.6651167463526546  1.2301459680326914  -1.4027697137306083  2.216377482613598  -1.823971532602369  -1.9396261662459156  1.8122544565014498  0.07602609164763909  1.7217167796036144  0.2257937462560964  -1.5398500438327163  -2.0107795669476958  -0.7929944565048775  -0.7760543482265845  1.2403365157514674  1.7474423236666334  -1.4857731779801504  0.8108792828856235  -1.9262314289611027  0.2670026933098908  -1.9578320576055313  1.351210277764681  -0.09683996458328828  1.0549154575092852  0.7890886868930953  -1.4179211754571546  1.5758364341661835  -1.5982853409407087  0.0044494331273191145  0.19918141824678065  1.2004916258432765  -1.1414020906611995  0.6359075920844419  -1.7693493758052956  -1.4091103747508422  -0.8145966385349241  1.6334760335042864  
-1.6511498659912625  -1.053165918433904  -1.23351091817842  1.4057439152299385  1.8677938235535674  -2.224349835533419  -1.291270607527574  -1.0074851248792536  -0.057213147289143895  -0.13861236302966465  0.9125049842851729  1.9091854814476283  -1.3209138180255202  -0.24225066213562152  -0.2242342360922308  0.358449771576899  0.8962398307281582  -1.9859451044086256  -0.10466456265879533  -0.6478493207838216  1.1620587898535306  1.3769431774017427  1.3305052828535981  -2.058348743343374  1.7639100600194693  -0.5733481180109831  -0.619682806634232  2.1880428085804597  1.2847529388350685  1.4678521071797115  -1.598325719571767  -0.41352033329105986  -0.7902076983189172  -2.0306961473252034  -2.476172026482455  0.9539693401981127  0.7379604628811258  -1.3483008607548008  1.4732161993460957  1.2969083566782367  1.2251934016728667  -0.6764332397362774  0.8892155303739725  -0.6651167463526546  1.2301459680326914  -1.4027697137306083  2.216377482613598  -1.823971532602369  -1.9396261662459156  1.8122544565014498  0.07602609164763909  1.7217167796036144  0.2257937462560964  -1.5398500438327163  -2.0107795669476958  -0.7929944565048775  -0.7760543482265845  1.2403365157514674  1.7474423236666334  -1.4857731779801504  0.8108792828856235  -1.9262314289611027  0.2670026933098908  -1.9578320576055313  1.351210277764681  -0.09683996458328828  1.0549154575092852  0.7890886868930953  -1.4179211754571546  1.5758364341661835  -1.5982853409407087  0.0044494331273191145  0.19918141824678065  1.2004916258432765  -1.1414020906611995  0.6359075920844419  -1.7693493758052956  -1.4091103747508422  -0.8145966385349241  1.6334760335042864  
-1.6511498659912625  -1.053165918433904  -1.23351091817842  1.4057439152299385  1.8677938235535674  -2.224349835533419  -1.291270607527574  -1.0074851248792536  -0.057213147289143895  -0.13861236302966465  0.9125049842851729  1.9091854814476283  -1.3209138180255202  -0.24225066213562152  -0.2242342360922308  0.358449771576899  0.8962398307281582  -1.9859451044086256  -0.10466456265879533  -0.6478493207838216  1.1620587898535306  1.3769431774017427  1.3305052828535981  -2.058348743343374  1.7639100600194693  -0.5733481180109831  -0.619682806634232  2.1880428085804597  1.2847529388350685  1.4678521071797115  -1.598325719571767  -0.41352033329105986  -0.7902076983189172  -2.0306961473252034  -2.476172026482455  0.9539693401981127  0.7379604628811258  -1.3483008607548008  1.4732161993460957  1.2969083566782367  1.2251934016728667  -0.6764332397362774  0.8892155303739725  -0.6651167463526546  1.2301459680326914  -1.4027697137306083  2.216377482613598  -1.823971532602369  -1.9396261662459156  1.8122544565014498  0.07602609164763909  1.7217167796036144  0.2257937462560964  -1.5398500438327163  -2.0107795669476958  -0.7929944565048775  -0.7760543482265845  1.2403365157514674  1.7474423236666334  -1.4857731779801504  0.8108792828856235  -1.9262314289611027  0.2670026933098908  -1.9578320576055313  1.351210277764681  -0.09683996458328828  1.0549154575092852  0.7890886868930953  -1.4179211754571546  1.5758364341661835  -1.5982853409407087  0.0044494331273191145  0.19918141824678065  1.2004916258432765  -1.1414020906611995  0.6359075920844419  -1.7693493758052956  -1.4091103747508422  -0.8145966385349241  1.6334760335042864  
-1.6511498659912625  -1.053165918433904  -1.23351091817842  1.4057439152299385  1.8677938235535674  -2.224349835533419  -1.291270607527574  -1.0074851248792536  -0.057213147289143895  -0.13861236302966465  0.9125049842851729  1.9091854814476283  -1.3209138180255202  -0.24225066213562152  -0.2242342360922308  0.358449771576899  0.8962398307281582  -1.9859451044086256  -0.10466456265879533  -0.6478493207838216  1.1620587898535306  1.3769431774017427  1.3305052828535981  -2.058348743343374  1.7639100600194693  -0.5733481180109831  -0.619682806634232  2.1880428085804597  1.2847529388350685  1.4678521071797115  -1.598325719571767  -0.41352033329105986  -0.7902076983189172  -2.0306961473252034  -2.476172026482455  0.9539693401981127  0.7379604628811258  -1.3483008607548008  1.4732161993460957  1.2969083566782367  1.2251934016728667  -0.6764332397362774  0.8892155303739725  -0.6651167463526546  1.2301459680326914  -1.4027697137306083  2.216377482613598  -1.823971532602369  -1.9396261662459156  1.8122544565014498  0.07602609164763909  1.7217167796036144  0.2257937462560964  -1.5398500438327163  -2.0107795669476958  -0.7929944565048775  -0.7760543482265845  1.2403365157514674  1.7474423236666334  -1.4857731779801504  0.8108792828856235  -1.9262314289611027  0.2670026933098908  -1.9578320576055313  1.351210277764681  -0.09683996458328828  1.0549154575092852  0.7890886868930953  -1.4179211754571546  1.5758364341661835  -1.5982853409407087  0.0044494331273191145  0.19918141824678065  1.2004916258432765  -1.1414020906611995  0.6359075920844419  -1.7693493758052956  -1.4091103747508422  -0.8145966385349241  1.6334760335042864  
-1.6511498659912625  -1.053165918433904  -1.23351091817842  1.4057439152299385  1.8677938235535674  -2.224349835533419  -1.291270607527574  -1.0074851248792536  -0.057213147289143895  -0.13861236302966465  0.9125049842851729  1.9091854814476283  -1.3209138180255202  -0.24225066213562152  -0.2242342360922308  0.358449771576899  0.8962398307281582  -1.9859451044086256  -0.10466456265879533  -0.6478493207838216  1.1620587898535306  1.3769431774017427  1.3305052828535981  -2.058348743343374  1.7639100600194693  -0.5733481180109831  -0.619682806634232  2.1880428085804597  1.2847529388350685  1.4678521071797115  -1.598325719571767  -0.41352033329105986  -0.7902076983189172  -2.0306961473252034  -2.476172026482455  0.9539693401981127  0.7379604628811258  -1.3483008607548008  1.4732161993460957  1.2969083566782367  1.2251934016728667  -0.6764332397362774  0.8892155303739725  -0.6651167463526546  1.2301459680326914  -1.4027697137306083  2.216377482613598  -1.823971532602369  -1.9396261662459156  1.8122544565014498  0.07602609164763909  1.7217167796036144  0.2257937462560964  -1.5398500438327163  -2.0107795669476958  -0.7929944565048775  -0.7760543482265845  1.2403365157514674  1.7474423236666334  -1.4857731779801504  0.8108792828856235  -1.9262314289611027  0.2670026933098908  -1.9578320576055313  1.351210277764681  -0.09683996458328828  1.0549154575092852  0.7890886868930953  -1.4179211754571546  1.5758364341661835  -1.5982853409407087  0.0044494331273191145  0.19918141824678065  1.2004916258432765  -1.1414020906611995  0.6359075920844419  -1.7693493758052956  -1.4091103747508422  -0.8145966385349241  1.6334760335042864  
-1.6511498659912625  -1.053165918433904  -1.23351091817842  1.4057439152299385  1.8677938235535674  -2.224349835533419  -1.291270607527574  -1.0074851248792536  -0.057213147289143895  -0.13861236302966465  0.9125049842851729  1.9091854814476283  -1.3209138180255202  -0.24225066213562152  -0.2242342360922308  0.358449771576899  0.8962398307281582  -1.9859451044086256  -0.10466456265879533  -0.6478493207838216  1.1620587898535306  1.3769431774017427  1.3305052828535981  -2.058348743343374  1.7639100600194693  -0.5733481180109831  -0.619682806634232  2.1880428085804597  1.2847529388350685  1.4678521071797115  -1.598325719571767  -0.41352033329105986  -0.7902076983189172  -2.0306961473252034  -2.476172026482455  0.9539693401981127  0.7379604628811258  -1.3483008607548008  1.4732161993460957  1.2969083566782367  1.2251934016728667  -0.6764332397362774  0.8892155303739725  -0.6651167463526546  1.2301459680326914  -1.4027697137306083  2.216377482613598  -1.823971532602369  -1.9396261662459156  1.8122544565014498  0.07602609164763909  1.7217167796036144  0.2257937462560964  -1.5398500438327163  -2.0107795669476958  -0.7929944565048775  -0.7760543482265845  1.2403365157514674  1.7474423236666334  -1.4857731779801504  0.8108792828856235  -1.9262314289611027  0.2670026933098908  -1.9578320576055313  1.351210277764681  -0.09683996458328828  1.0549154575092852  0.7890886868930953  -1.4179211754571546  1.5758364341661835  -1.5982853409407087  0.0044494331273191145  0.19918141824678065  1.2004916258432765  -1.1414020906611995  0.6359075920844419  -1.7693493758052956  -1.4091103747508422  -0.8145966385349241  1.6334760335042864  
-1.6511498659912625  -1.053165918433904  -1.23351091817842  1.4057439152299385  1.8677938235535674  -2.224349835533419  -1.291270607527574  -1.0074851248792536  -0.057213147289143895  -0.13861236302966465  0.9125049842851729  1.9091854814476283  -1.3209138180255202  -0.24225066213562152  -0.2242342360922308  0.358449771576899  0.8962398307281582  -1.9859451044086256  -0.10466456265879533  -0.6478493207838216  1.1620587898535306  1.3769431774017427  1.3305052828535981  -2.058348743343374  1.7639100600194693  -0.5733481180109831  -0.619682806634232  2.1880428085804597  1.2847529388350685  1.4678521071797115  -1.598325719571767  -0.41352033329105986  -0.7902076983189172  -2.0306961473252034  -2.476172026482455  0.9539693401981127  0.7379604628811258  -1.3483008607548008  1.4732161993460957  1.2969083566782367  1.2251934016728667  -0.6764332397362774  0.8892155303739725  -0.6651167463526546  1.2301459680326914  -1.4027697137306083  2.216377482613598  -1.823971532602369  -1.9396261662459156  1.8122544565014498  0.07602609164763909  1.7217167796036144  0.2257937462560964  -1.5398500438327163  -2.0107795669476958  -0.7929944565048775  -0.7760543482265845  1.2403365157514674  1.7474423236666334  -1.4857731779801504  0.8108792828856235  -1.9262314289611027  0.2670026933098908  -1.9578320576055313  1.351210277764681  -0.09683996458328828  1.0549154575092852  0.7890886868930953  -1.4179211754571546  1.5758364341661835  -1.5982853409407087  0.0044494331273191145  0.19918141824678065  1.2004916258432765  -1.1414020906611995  0.6359075920844419  -1.7693493758052956  -1.4091103747508422  -0.8145966385349241  1.6334760335042864  
-1.6511498659912625  -1.053165918433904  -1.23351091817842  1.4057439152299385  1.8677938235535674  -2.224349835533419  -1.291270607527574  -1.0074851248792536  -0.057213147289143895  -0.13861236302966465  0.9125049842851729  1.9091854814476283  -1.3209138180255202  -0.24225066213562152  -0.2242342360922308  0.358449771576899  0.8962398307281582  -1.9859451044086256  -0.10466456265879533  -0.6478493207838216  1.1620587898535306  1.3769431774017427  1.3305052828535981  -2.058348743343374  1.7639100600194693  -0.5733481180109831  -0.619682806634232  2.1880428085804597  1.2847529388350685  1.4678521071797115  -1.598325719571767  -0.41352033329105986  -0.7902076983189172  -2.0306961473252034  -2.476172026482455  0.9539693401981127  0.7379604628811258  -1.3483008607548008  1.4732161993460957  1.2969083566782367  1.2251934016728667  -0.6764332397362774  0.8892155303739725  -0.6651167463526546  1.2301459680326914  -1.4027697137306083  2.216377482613598  -1.823971532602369  -1.9396261662459156  1.8122544565014498  0.07602609164763909  1.7217167796036144  0.2257937462560964  -1.5398500438327163  -2.0107795669476958  -0.7929944565048775  -0.7760543482265845  1.2403365157514674  1.7474423236666334  -1.4857731779801504  0.8108792828856235  -1.9262314289611027  0.2670026933098908  -1.9578320576055313  1.351210277764681  -0.09683996458328828  1.0549154575092852  0.7890886868930953  -1.4179211754571546  1.5758364341661835  -1.5982853409407087  0.0044494331273191145  0.19918141824678065  1.2004916258432765  -1.1414020906611995  0.6359075920844419  -1.7693493758052956  -1.4091103747508422  -0.8145966385349241  1.6334760335042864  
-1.6511498659912625  -1.053165918433904  -1.23351091817842  1.4057439152299385  1.8677938235535674  -2.224349835533419  -1.291270607527574  -1.0074851248792536  -0.057213147289143895  -0.13861236302966465  0.9125049842851729  1.9091854814476283  -1.3209138180255202  -0.24225066213562152  -0.2242342360922308  0.358449771576899  0.8962398307281582  -1.9859451044086256  -0.10466456265879533  -0.6478493207838216  1.1620587898535306  1.3769431774017427  1.3305052828535981  -2.058348743343374  1.7639100600194693  -0.5733481180109831  -0.619682806634232  2.1880428085804597  1.2847529388350685  1.4678521071797115  -1.598325719571767  -0.41352033329105986  -0.7902076983189172  -2.0306961473252034  -2.476172026482455  0.9539693401981127  0.7379604628811258  -1.3483008607548008  1.4732161993460957  1.2969083566782367  1.2251934016728667  -0.6764332397362774  0.8892155303739725  -0.6651167463526546  1.2301459680326914  -1.4027697137306083  2.216377482613598  -1.823971532602369  -1.9396261662459156  1.8122544565014498  0.07602609164763909  1.7217167796036144  0.2257937462560964  -1.5398500438327163  -2.0107795669476958  -0.7929944565048775  -0.7760543482265845  1.2403365157514674  1.7474423236666334  -1.4857731779801504  0.8108792828856235  -1.9262314289611027  0.2670026933098908  -1.9578320576055313  1.351210277764681  -0.09683996458328828  1.0549154575092852  0.7890886868930953  -1.4179211754571546  1.5758364341661835  -1.5982853409407087  0.0044494331273191145  0.19918141824678065  1.2004916258432765  -1.1414020906611995  0.6359075920844419  -1.7693493758052956  -1.4091103747508422  -0.8145966385349241  1.6334760335042864  
-1.6511498659912625  -1.053165918433904  -1.23351091817842  1.4057439152299385  1.8677938235535674  -2.224349835533419  -1.291270607527574  -1.0074851248792536  -0.057213147289143895  -0.13861236302966465  0.9125049842851729  1.9091854814476283  -1.3209138180255202  -0.24225066213562152  -0.2242342360922308  0.358449771576899  0.8962398307281582  -1.9859451044086256  -0.10466456265879533  -0.6478493207838216  1.1620587898535306  1.3769431774017427  1.3305052828535981  -2.058348743343374  1.7639100600194693  -0.5733481180109831  -0.619682806634232  2.1880428085804597  1.2847529388350685  1.4678521071797115  -1.598325719571767  -0.41352033329105986  -0.7902076983189172  -2.0306961473252034  -2.476172026482455  0.9539693401981127  0.7379604628811258  -1.3483008607548008  1.4732161993460957  1.2969083566782367  1.2251934016728667  -0.6764332397362774  0.8892155303739725  -0.6651167463526546  1.2301459680326914  -1.4027697137306083  2.216377482613598  -1.823971532602369  -1.9396261662459156  1.8122544565014498  0.07602609164763909  1.7217167796036144  0.2257937462560964  -1.5398500438327163  -2.0107795669476958  -0.7929944565048775  -0.7760543482265845  1.2403365157514674  1.7474423236666334  -1.4857731779801504  0.8108792828856235  -1.9262314289611027  0.2670026933098908  -1.9578320576055313  1.351210277764681  -0.09683996458328828  1.0549154575092852  0.7890886868930953  -1.4179211754571546  1.5758364341661835  -1.5982853409407087  0.0044494331273191145  0.19918141824678065  1.2004916258432765  -1.1414020906611995  0.6359075920844419  -1.7693493758052956  -1.4091103747508422  -0.8145966385349241  1.6334760335042864  
-1.6511498659912625  -1.053165918433904  -1.23351091817842  1.4057439152299385  1.8677938235535674  -2.224349835533419  -1.291270607527574  -1.0074851248792536  -0.057213147289143895  -0.13861236302966465  0.9125049842851729  1.9091854814476283  -1.3209138180255202  -0.24225066213562152  -0.2242342360922308  0.358449771576899  0.8962398307281582  -1.9859451044086256  -0.10466456265879533  -0.6478493207838216  1.1620587898535306  1.3769431774017427  1.3305052828535981  -2.058348743343374  1.7639100600194693  -0.5733481180109831  -0.619682806634232  2.1880428085804597  1.2847529388350685  1.4678521071797115  -1.598325719571767  -0.41352033329105986  -0.7902076983189172  -2.0306961473252034  -2.476172026482455  0.9539693401981127  0.7379604628811258  -1.3483008607548008  1.4732161993460957  1.2969083566782367  1.2251934016728667  -0.6764332397362774  0.8892155303739725  -0.6651167463526546  1.2301459680326914  -1.4027697137306083  2.216377482613598  -1.823971532602369  -1.9396261662459156  1.8122544565014498  0.07602609164763909  1.7217167796036144  0.2257937462560964  -1.5398500438327163  -2.0107795669476958  -0.7929944565048775  -0.7760543482265845  1.2403365157514674  1.7474423236666334  -1.4857731779801504  0.8108792828856235  -1.9262314289611027  0.2670026933098908  -1.9578320576055313  1.351210277764681  -0.09683996458328828  1.0549154575092852  0.7890886868930953  -1.4179211754571546  1.5758364341661835  -1.5982853409407087  0.0044494331273191145  0.19918141824678065  1.2004916258432765  -1.1414020906611995  0.6359075920844419  -1.7693493758052956  -1.4091103747508422  -0.8145966385349241  1.6334760335042864  
